<?xml version="1.0"?>
<opencv_storage>
<opencv_ml_ann_mlp>
  <format>3</format>
  <layer_sizes>
    65 65 34</layer_sizes>
  <activation_function>SIGMOID_SYM</activation_function>
  <f_param1>6.6666666666666663e-01</f_param1>
  <f_param2>1.7159000000000000e+00</f_param2>
  <min_val>-9.4999999999999996e-01</min_val>
  <max_val>9.4999999999999996e-01</max_val>
  <min_val1>-9.7999999999999998e-01</min_val1>
  <max_val1>9.7999999999999998e-01</max_val1>
  <training_params>
    <train_method>BACKPROP</train_method>
    <dw_scale>1.0000000000000001e-01</dw_scale>
    <moment_scale>1.0000000000000001e-01</moment_scale>
    <term_criteria>
      <epsilon>1.0000000000000000e-04</epsilon>
      <iterations>5000</iterations></term_criteria></training_params>
  <input_scale>
    1. 0. 1. 0. 2.4475575613406679e+02 -3.1459609695161532e-02
    2.3880894740646223e+01 -1.0007993791185066e-01
    3.9901947181849811e+00 -5.2617742129003242e-01
    2.8728468330460761e+00 -1.5779238440758294e+00
    3.1371250248183773e+00 -2.2685493228738198e+00
    3.3922551038624964e+00 -2.5931440581031171e+00
    3.6950682019291539e+00 -2.4784359147753170e+00
    3.9784737263594061e+00 -2.3811807640850926e+00
    3.9072439448533460e+00 -2.4060899208567386e+00
    3.7947782045584053e+00 -2.6821706628801039e+00
    3.6641587345126654e+00 -2.8492144775777994e+00
    3.3073883698117932e+00 -2.1873402125906170e+00
    2.9864351705599352e+00 -1.3339038246863384e+00
    4.4889304268269603e+00 -4.8561598751199297e-01
    1.9682239446327436e+01 -9.9338512103910287e-02
    2.0800651186058491e+02 -3.2083267885761602e-02 1. 0. 1. 0.
    4.0677134202401541e+00 -2.8861108756527321e+00
    4.5253396337153333e+00 -3.5899741579138551e+00
    4.5341429381765517e+00 -3.7111219942639910e+00
    4.1700512430375705e+00 -2.9799938339736940e+00
    4.5266868895332824e+00 -2.8819485853825539e+00
    4.6961349877792298e+00 -2.8190252633059405e+00
    4.5355089808993103e+00 -2.6792140376622990e+00
    4.3377494137558772e+00 -2.8163487029462129e+00
    4.2411132451381572e+00 -3.0285283528071578e+00
    4.1196897626206779e+00 -2.9600634800461578e+00
    4.1568888286898256e+00 -2.8415823800377349e+00
    4.3047017502074496e+00 -2.6982103908617390e+00
    4.5220966681334174e+00 -2.6489250554392143e+00
    4.5704734995479166e+00 -2.7164672537629202e+00
    4.5807848340073800e+00 -2.8648555545165282e+00
    4.3789180267014975e+00 -2.8885635576971920e+00
    4.0002026984770760e+00 -2.9094072331143495e+00
    4.0155780161384946e+00 -3.0207461197646976e+00
    3.5569646958525070e+00 -2.3999518493457761e+00
    3.3419495899628875e+00 -1.9410938609329751e+00
    9.5898903979735928e-01 -2.2680460581325720e-02
    1.0820526004094489e-02 -1.5895157986179254e+00
    9.9396172989748930e-03 -1.5374569375995859e+00
    1.2162595716644884e-02 -1.2397155595992622e+00
    9.1903116313913613e-01 -2.2680460581325727e-02 1. 0.
    9.4669797159227295e-03 -1.2372685397573910e+00
    9.3716558656924669e-03 -7.6884679255575827e-01
    1.0121067272315864e-02 -9.7245503951176793e-01 1. 0.
    1.2974557597258392e+00 -2.2680460581325723e-02
    9.9987256004797562e-03 -1.1072573307772413e+00
    1.0084680916945126e-02 -1.5352513803735397e+00
    1.0559954335989809e-02 -1.0213403238166554e+00 1. 0. 1. 0.
    1.0553623124349633e-02 -1.2374163808504794e+00
    1.0357982910556765e-02 -7.8511912829694752e-01
    9.5488305257435575e-03 -1.0980369596695518e+00 1. 0. 1. 0.
    1.2281209014094133e-02 -1.0817314156599231e+00
    9.8256630230915826e-03 -1.4463173899800104e+00
    1.0569988033251366e-02 -1.1598456020548447e+00
    7.3522493051130888e-01 -2.2680460581325723e-02</input_scale>
  <output_scale>
    5.2631578947368418e-01 4.9999999999999994e-01 5.2631578947368418e-01
    4.9999999999999994e-01 5.2631578947368418e-01 4.9999999999999994e-01
    5.2631578947368418e-01 4.9999999999999994e-01 5.2631578947368418e-01
    4.9999999999999994e-01 5.2631578947368418e-01 4.9999999999999994e-01
    5.2631578947368418e-01 4.9999999999999994e-01 5.2631578947368418e-01
    4.9999999999999994e-01 5.2631578947368418e-01 4.9999999999999994e-01
    5.2631578947368418e-01 4.9999999999999994e-01 5.2631578947368418e-01
    4.9999999999999994e-01 5.2631578947368418e-01 4.9999999999999994e-01
    5.2631578947368418e-01 4.9999999999999994e-01 5.2631578947368418e-01
    4.9999999999999994e-01 5.2631578947368418e-01 4.9999999999999994e-01
    5.2631578947368418e-01 4.9999999999999994e-01 5.2631578947368418e-01
    4.9999999999999994e-01 5.2631578947368418e-01 4.9999999999999994e-01
    5.2631578947368418e-01 4.9999999999999994e-01 5.2631578947368418e-01
    4.9999999999999994e-01 5.2631578947368418e-01 4.9999999999999994e-01
    5.2631578947368418e-01 4.9999999999999994e-01 5.2631578947368418e-01
    4.9999999999999994e-01 5.2631578947368418e-01 4.9999999999999994e-01
    5.2631578947368418e-01 4.9999999999999994e-01 5.2631578947368418e-01
    4.9999999999999994e-01 5.2631578947368418e-01 4.9999999999999994e-01
    5.2631578947368418e-01 4.9999999999999994e-01 5.2631578947368418e-01
    4.9999999999999994e-01 5.2631578947368418e-01 4.9999999999999994e-01
    5.2631578947368418e-01 4.9999999999999994e-01 5.2631578947368418e-01
    4.9999999999999994e-01 5.2631578947368418e-01 4.9999999999999994e-01
    5.2631578947368418e-01 4.9999999999999994e-01</output_scale>
  <inv_output_scale>
    1.8999999999999999e+00 -9.4999999999999996e-01
    1.8999999999999999e+00 -9.4999999999999996e-01
    1.8999999999999999e+00 -9.4999999999999996e-01
    1.8999999999999999e+00 -9.4999999999999996e-01
    1.8999999999999999e+00 -9.4999999999999996e-01
    1.8999999999999999e+00 -9.4999999999999996e-01
    1.8999999999999999e+00 -9.4999999999999996e-01
    1.8999999999999999e+00 -9.4999999999999996e-01
    1.8999999999999999e+00 -9.4999999999999996e-01
    1.8999999999999999e+00 -9.4999999999999996e-01
    1.8999999999999999e+00 -9.4999999999999996e-01
    1.8999999999999999e+00 -9.4999999999999996e-01
    1.8999999999999999e+00 -9.4999999999999996e-01
    1.8999999999999999e+00 -9.4999999999999996e-01
    1.8999999999999999e+00 -9.4999999999999996e-01
    1.8999999999999999e+00 -9.4999999999999996e-01
    1.8999999999999999e+00 -9.4999999999999996e-01
    1.8999999999999999e+00 -9.4999999999999996e-01
    1.8999999999999999e+00 -9.4999999999999996e-01
    1.8999999999999999e+00 -9.4999999999999996e-01
    1.8999999999999999e+00 -9.4999999999999996e-01
    1.8999999999999999e+00 -9.4999999999999996e-01
    1.8999999999999999e+00 -9.4999999999999996e-01
    1.8999999999999999e+00 -9.4999999999999996e-01
    1.8999999999999999e+00 -9.4999999999999996e-01
    1.8999999999999999e+00 -9.4999999999999996e-01
    1.8999999999999999e+00 -9.4999999999999996e-01
    1.8999999999999999e+00 -9.4999999999999996e-01
    1.8999999999999999e+00 -9.4999999999999996e-01
    1.8999999999999999e+00 -9.4999999999999996e-01
    1.8999999999999999e+00 -9.4999999999999996e-01
    1.8999999999999999e+00 -9.4999999999999996e-01
    1.8999999999999999e+00 -9.4999999999999996e-01
    1.8999999999999999e+00 -9.4999999999999996e-01</inv_output_scale>
  <weights>
    <_>
      -2.5682488904807368e-02 2.4904193724546345e-02
      2.5174033636219256e-02 1.4731863933791379e-02
      -2.0267689784514362e-02 -1.6822790642892400e-02
      -1.8197461667975062e-02 -2.2954143662520365e-02
      8.3576541739475117e-03 2.1084556908152505e-02
      8.3601450776176079e-03 -1.4885810359865023e-02
      1.6550792992678483e-02 -9.0691831483850540e-03
      4.3248099886675885e-03 -5.6954897725600626e-03
      2.0819211425129033e-02 1.6554031990729766e-03
      3.1248145323602306e-02 -1.9772252123090108e-02
      1.9870036440901479e-02 6.0884661826592660e-03
      -2.8284895672105580e-02 -1.4294564254816712e-02
      1.1138075694844374e-02 2.8732208824541864e-02
      3.5076325183127765e-04 -1.6252898127208648e-02
      3.1515744034611881e-02 -5.2429677502790727e-03
      -2.4853060242123720e-02 -1.8872721361151579e-02
      -2.5665379243542324e-02 -9.4957335359956846e-03
      6.8435296185759978e-03 -1.7881262395589917e-03
      -1.8749899901251040e-02 -2.1020325275377404e-02
      -2.0509368602578949e-02 -2.7721048572561437e-02
      -3.8331901368104574e-04 2.0526005927939617e-02
      2.7107860115797269e-02 1.5861521209692708e-02
      -2.5069913543625907e-02 1.7047743543432275e-02
      -7.4043151393401452e-03 -2.6849124533587350e-02
      2.4580035764297115e-02 -2.4447176938645725e-02
      2.8708600225710441e-02 1.6507648108065633e-02
      -6.7546854795963694e-03 -2.4581745358855229e-02
      -7.7465056608642079e-03 2.4936866018331290e-02
      -2.2086946387193232e-02 1.8776198622867321e-02
      2.5565085813245372e-02 -2.2404623898492796e-02
      7.3571448967548391e-03 6.0523080250549149e-03
      2.9534014400111306e-02 2.4990565656039725e-02
      -2.6912435287777686e-02 5.4850714550927701e-03
      -1.9466457653699837e-02 6.9844012810735294e-03
      2.2512433893386682e-02 -2.3206685626703062e-02
      -2.5289356894481578e-02 2.3386230244609986e-02
      1.2655044708560327e-02 -8.3448319078102857e-03
      -1.3753032560661746e-02 1.3534466848133262e-02
      -1.8072650538440711e-02 -1.0726165708434652e-02
      -2.4400590707398306e-02 2.0960269654810883e-02
      -2.1933021141726291e-02 1.7836965056626138e-02
      -1.6365018346645350e-04 -3.2259600589145725e-02
      -2.4862596615904495e-02 3.1075047550963159e-02
      -2.0215091122517794e-03 2.6758568705552099e-02
      3.0075115490757723e-03 1.4040116559163790e-02
      1.3598015345070526e-02 2.9399968116406650e-02
      3.1428001057350573e-02 -2.2963148879822436e-02
      -1.1160394974173938e-02 -1.8038706019920803e-02
      -2.2824817416202264e-03 2.0068929678490840e-03
      3.1474880975087029e-02 -1.8028050074545179e-03
      3.2076544926593252e-02 -1.3757533252062467e-03
      -1.3337224392471734e-02 4.5436961248532109e-03
      1.2916488266913870e-02 -2.1137258837192401e-02
      1.5386297156868765e-02 1.9300762521383279e-02
      -1.4090490651932202e-02 -5.4957381730059004e-03
      -9.0962084268366578e-03 2.3706895118324123e-02
      -5.8558453516866452e-03 1.9701366877887115e-02
      -2.2340793801699278e-02 2.6738217114688420e-02
      3.4549810849757875e-02 -1.5947781004069113e-03
      -1.9870928296644965e-02 -2.7585203084837959e-02
      -4.8411311424569692e-03 -2.5578513284274206e-02
      -1.8192832301425568e-04 1.1654424350813533e-02
      1.5369558874299000e-02 1.4920812387047408e-02
      3.0276855207754839e-03 1.2899232036423593e-02
      1.7212519254848003e-02 2.9788939259321981e-02
      2.6378839755140162e+00 -7.0983418556443734e-01
      1.0059297989113591e+00 2.9470289215767620e-01
      -3.5663605218461825e-01 -9.9495578869373713e-01
      -6.8718610825499807e-02 1.9774782576156387e+00
      1.5967022910935427e+00 4.3756824519451476e-01
      1.8494851174225832e-01 -9.4082947153261276e-01
      -2.1027855163419802e+00 1.8870961906217354e+00
      7.9232921770624395e-02 2.3856166860496248e+00
      2.5150019855767275e-01 2.9585164505508543e+00
      -3.5530598351343985e-02 -2.6311084018946271e+00
      -4.9331853888830448e+00 -2.4450541360887673e-01
      1.6231648461739726e-01 1.4508210348507673e+00
      7.8027885586534629e-01 -9.5492305894994012e-01
      -3.4424066211814724e-01 1.8086489131042973e+00
      3.9464802726198767e-01 1.4486567138036635e-01
      -1.9057762121131869e-01 -6.9036929628048516e-01
      3.0826315816536409e-01 -5.8809704623952386e-01
      3.6771230682752193e-01 1.6575914681611774e+00
      2.6008455446574796e+00 1.2952204126248181e+00
      -7.7167107741368968e-01 5.2793870611283367e-01
      4.6127801782269673e-01 -1.6994781320023784e+00
      2.7183213534279071e-01 -2.4180873169496673e+00
      -1.5723919926101022e+00 4.0825340998547338e-01
      2.7490649238407705e-01 -5.0007943454511294e-01
      -4.0348064113753850e+00 -3.2173600055644264e-01
      -1.6143060682952240e-01 6.9314786625429725e-02
      2.2382525537580086e-01 1.1694856378030858e+00
      -4.6399553316818964e-01 4.4261013961846829e-01
      8.9643123648602038e-02 2.5968470362782932e+00
      5.8779418601678665e-02 -1.5683095369237490e-01
      8.9990514727814108e-01 -2.8562641101824315e-01
      2.4537893072071095e+00 6.7957662844402700e-01
      -3.0647484497188993e-01 1.1728286335044391e+00
      1.5993921779930564e-01 2.3365827586362717e-01
      5.3121687444644372e-01 4.4546696731406238e-02
      -5.6919350988587236e-01 -8.0617906911103010e-01
      1.3573262884962782e+00 1.7163078146693656e+00
      -1.6470036237209407e-01 -3.4828010590714548e-01
      6.8325021408049691e-01 -7.3765590508285606e-01
      1.9384874288885134e-01 6.1495907494447299e-01
      -3.6104471999357673e-01 6.3629095473794073e-01
      8.3940873698826846e-01 -1.2528354193278759e+00
      -1.6412747386831095e+00 -2.5629226712870246e+00
      -6.5376423878098266e-01 1.2438856796089865e+00
      3.5008311102427201e+00 -1.1787566956848883e+00
      -3.9606300712858672e-02 7.6047452728638842e-01
      1.6606465869390286e+00 2.2502405050821217e+00
      -4.6783245180980743e-01 -9.3398440349730405e-01
      -1.0650302524403321e+00 -1.7917946280115336e+00
      1.3154800190435426e-01 1.7608451269859147e+00
      2.3363972318442610e+00 2.2594164648706521e+00
      7.8184101659276906e-01 1.4867011142040780e+00
      1.5964511190729462e+00 -1.1085873427189903e-01
      -6.9565592289256695e-01 1.0450605345247970e+00
      -6.1602137884279318e-01 -1.7094200064460812e+00
      -5.5078951326959058e-01 2.3304902198346331e-01
      1.5851509145665241e-01 -3.4168418508362794e+00
      -5.9202317521025050e-01 1.3637759229157536e+00
      1.2547439130359079e+00 2.0498716940699531e+00
      -1.3740785273467540e+00 1.5205549481385128e+00
      -9.3241163503994959e-02 1.2265371696453076e+00
      -1.9546353018618021e+00 1.6252374909144046e-01
      9.1182938434894584e-02 -5.1747503080833918e-03
      1.7281362144818944e+00 1.3422292496066395e+00
      -1.2944201402200044e+00 -3.4669924413419884e-01
      1.4272997558464724e+00 5.4790846168545571e-02
      -5.9685168183788795e-01 -1.0238084357411276e-01
      1.8652837911498446e-01 3.0357008509786652e-02
      -2.0767280659326444e+00 3.1775042839699126e-02
      -3.9362034973178411e-01 2.1551708359886820e-01
      1.2821853744961158e+00 3.0435324612120268e-01
      5.2852766100558668e-01 -8.1909350555039639e-01
      -1.8586635187008711e+00 -5.8388924142725207e-01
      3.5888903382042980e-01 3.9842195168557348e-01
      -1.7433056827575402e+00 -1.1153458517384112e+00
      -4.0065917832711839e-01 -6.7255522664299860e-01
      1.0237374175748349e-02 1.5824522442674391e+00
      -1.4732827467884047e+00 1.5554125906437133e-01
      2.0669222917381910e-01 -3.4848644476950963e-01
      -4.2063004289218192e-01 3.0253300142111041e+00
      -4.1439749476529092e-01 2.3452913259027000e-02
      -6.3702295431939393e-01 -1.8349417494224474e+00
      -1.1136291360686605e+00 -1.4776652918960913e+00
      -4.6159753067141623e-01 -1.8737725833679371e+00
      -2.2637371803443478e+00 1.3508033789910512e-01
      -1.2480381121006676e+00 6.2478261719269912e-01
      -8.9516975501973428e-01 -7.3548006495101320e-02
      8.7399410356149665e-01 2.3363941956891884e-01
      -6.4834793220616005e-01 -2.6378272155073473e-02
      -1.2561907145639990e+00 -1.2753150340808224e+00
      -1.1462591424947404e+00 -5.3678793035203809e-01
      -1.2705642768065222e+00 -8.0779446346643982e-02
      6.9229373320317300e-01 4.8585925344331099e-01
      -1.8432218876530719e+00 -2.6603886473297648e-02
      6.1315012110567557e-01 -1.8583525258527189e+00
      -1.6819349340335861e+00 3.1280160965737287e+00
      1.8707191410130330e-01 -1.2400500397998537e+00
      8.6943041664623733e-01 8.8285768064629844e-01
      1.2145434440897136e+00 -2.8150979408961357e-01
      -7.6481101491879533e-02 4.9441550546293611e-01
      3.1088050766562708e-02 1.2849828698358787e+00
      3.0768234768099800e+00 2.2692510983788008e+00
      -1.5487615596521076e+00 -1.8008043287659331e-01
      -2.5206666405179984e-01 -5.1196827266406242e-01
      -1.4235500818601454e+00 1.0115545674569204e+00
      -1.5452887751464247e-02 5.4080039778501199e-01
      2.7331038329020245e+00 1.2265113424820631e+00
      -1.0835847445223443e+00 1.0693119829475968e+00
      -1.4109180156756613e+00 -5.4337734005057248e-01
      2.2642413918928464e-01 -9.2670840537750668e-02
      -1.6329734270406666e+00 1.8899874180796569e-01
      9.1880003874669755e-02 4.7176602117182082e-01
      -9.3109726674107196e-01 -1.2197504538762438e+00
      -1.6372640156266867e+00 -2.0116671886484192e+00
      -1.4045517750658107e+00 8.3475013247322671e-01
      -6.4470570261984883e-01 -1.1909196399316745e-01
      4.0390766393147992e-01 2.7383300984088561e+00
      5.0872331607731369e-01 1.0812881737670710e+00
      -1.2037139378028112e+00 1.6390723687575406e+00
      3.0766826046242279e-01 -1.5763545461276812e-01
      2.8101596751621436e+00 9.5043799084373479e-02
      -1.7341380676808276e-02 -9.4592611601737342e-01
      -4.1966921277781399e-01 2.5798455822466921e-03
      -3.8272531065159453e-02 -4.8932935186731191e-01
      1.5393500730450658e+00 1.3334363133855187e-01
      -7.3550466064994691e-01 -3.0054969396803227e-01
      1.0385192798352065e+00 2.2043116223480732e+00
      -2.0458107806606196e+00 6.9948545919626426e-01
      -1.2300299236256275e-01 2.2049236549972879e+00
      1.4395689356443680e-02 2.3980410281714309e-01
      1.5555558074434468e+00 3.5013981780084542e+00
      -3.8346583887095269e+00 2.8493561967472574e+00
      -1.8118961821054740e+00 1.9557102765614018e-01
      2.8076471668940856e-01 7.1651299932844115e-01
      2.3128069144107268e+00 1.6140496219106781e+00
      8.2610763672074561e-01 -3.2338026961003847e+00
      -4.4734681649146801e-01 -7.0250461527359176e-01
      2.0974178749563861e+00 3.7671625443670953e-01
      -1.0213263919526829e+00 2.5310451536576468e+00
      -8.7050799171981919e-01 -5.0408107375114897e-01
      4.5172874796365514e-01 4.3689738839332087e-01
      5.9284723913421356e-01 -5.1736509449110519e+00
      7.8323017848924048e-01 -2.6393087691088839e+00
      5.5532816228131610e-01 -1.4036778844462305e+00
      2.3697865118886519e-01 -1.5041974434798917e+00
      -1.0388509885840955e+00 -3.7216444476778401e+00
      -1.3243419423697296e+00 5.1535118193527440e-01
      1.8792822709407910e+00 1.8558015294946160e+00
      -2.3729791267895943e+00 -4.8017601187832981e-01
      4.5946783962069349e+00 5.3045206275712307e+00
      2.1674840571734140e+00 -2.9019777761755381e+00
      2.3921672173125508e+00 -8.4639506143219759e-02
      5.2593245496658059e-01 2.4368227864275810e-01
      2.2954250262804146e+00 2.0738698902512051e-02
      -8.1849340399050086e-01 6.4592285615330125e-01
      5.5529639239161543e-01 1.1899058515579777e+00
      1.1033879766822197e+00 -1.1439574065765143e-01
      1.7983062315742543e-01 3.6974969263399666e+00
      2.7359974754998273e+00 1.4960639893489338e+00
      3.9008071590563755e+00 -1.7238738760523662e+00
      1.0280288610728359e+00 9.8333367241167069e-01
      -2.4355789007838888e+00 -3.3632816713672762e+00
      -7.4469316799307828e-01 1.2567865148623050e-01
      2.8783937359302940e+00 -1.8017235527855306e+00
      -3.5642665379086885e-01 -7.4503216429953645e-01
      -4.7977105723310686e-04 -5.1051754150910078e-01
      -2.3261551956086386e+00 1.8128905560305653e+00
      1.1071285700863331e+00 2.4719577594510604e+00
      -2.6947964559034778e+00 2.7017338366826626e-01
      -1.7096531484353452e+00 1.5653428745693010e+00
      1.0440011036581776e+00 1.0550925538480695e-01
      2.5252918994427587e-01 1.1430852440953128e+00
      4.2813458769360369e-01 -8.8627118017917361e-01
      -7.5590322867546722e-01 7.3076253019781245e-01
      -2.1647770895261846e+00 -2.0988597707400354e+00
      -3.9080525870794641e-01 2.0025500212299521e-01
      -4.1091620286215091e-01 -2.0784226897321842e-01
      -2.0339112459827429e-02 1.3930996235733495e-01
      -1.0447435955942332e+00 -1.5457098524273603e+00
      -5.9162303871019650e-01 4.6650479880293105e-01
      1.5386161653307420e+00 -1.1246202696428154e+00
      -1.9217265512762280e+00 5.2066788297067896e+00
      2.5074363413283765e+00 -1.6561211118393571e-01
      -1.0117104507643717e+00 -7.6075454531709552e-01
      -7.5761721862009967e-02 -9.1299858588175553e-01
      -2.1389604307000276e+00 1.5141012370005187e+00
      -2.9308772324446529e-02 -1.3393547799685482e-01
      -4.4923994365172298e-01 2.1502729675418593e+00
      1.2989879821097341e+00 1.0272874443619364e+00
      -5.1631558516010523e-01 -3.5350366198915385e-02
      2.3425136136649174e+00 5.0806440129511909e-03
      -2.9446924374905920e-01 2.4376866285982333e+00
      -3.5762926661063038e-01 3.4197688442050822e+00
      1.4223676331703254e+00 -1.3145665698854747e+00
      -1.5257790599069470e+00 -5.5483954305357053e-01
      1.6520280844046897e-01 2.7619590991427452e+00
      -4.5888747727648133e-01 -1.2001377782832884e-02
      6.1979994053645050e-02 1.3394765503636050e-01
      -3.2525812461628012e-01 -2.6964150178828783e-01
      -1.1178080267489150e+00 -5.1755313524167612e-01
      2.0225653340622745e+00 -7.4330073063645119e-01
      5.8296622746297477e-01 -2.6164147071755943e+00
      -1.6962444364301214e-02 7.1120571949605371e-01
      -2.1769470288294895e-01 1.0360218436088320e+00
      3.1554012156969052e-01 -1.5828271909397180e+00
      -3.3156613194700568e-01 -2.0012557943755125e+00
      -1.0120156709940498e+00 -5.5657365079808629e-01
      -2.4699377309164965e+00 6.9437823843864055e-01
      5.1329088226251240e-01 -2.0832018378121455e-02
      -3.0334086154125273e-01 1.6035431987815081e+00
      -7.2259429106972595e-01 7.5735824180146433e-02
      -1.7494108618198065e+00 -1.5090875342001331e+00
      -1.1775652646723391e+00 1.0786406527690207e+00
      -8.6134508175222257e-01 -1.3386007053060913e+00
      -5.7477375183531743e-01 9.6424934884939861e-01
      7.3829313640215921e-01 -2.3395552230119359e+00
      -3.6117721376449863e+00 8.3231045619781546e-03
      6.4178470442644422e-02 2.5261201499308139e-01
      -8.1566484789570626e-01 1.0863725431130905e-01
      7.1106043197514124e-01 -1.2666672716112881e+00
      -1.2724498869346790e+00 -1.2735337711974575e+00
      2.8770788763841343e-01 -1.0614965652804522e+00
      1.3095029035931369e+00 3.7127360879969140e-01
      -4.0868973510215963e-02 -1.4055307322982624e+00
      1.1841716669014770e+00 6.0609418252921132e-01
      1.1761603862996619e+00 -4.7454134768816542e-01
      2.7053761392252871e+00 1.9009261019230045e-01
      1.1252974938646849e+00 -4.1232104045747903e-01
      -5.9673978386295734e-01 2.0031395441038504e+00
      -2.7195900588929725e+00 -2.4903456269904251e-01
      -4.3108252616305562e-02 -1.5641447554618326e+00
      -9.7596237146110199e-01 -2.1972563988558367e+00
      -8.1336001907074451e-01 1.4194677769478452e+00
      1.2125336320876319e+00 -6.0862679795327709e-02
      -2.2461989969840807e-01 -2.8644389583095191e+00
      -6.2236683741135834e-02 5.1120690120330381e-01
      -7.0441267040102662e-01 3.2183090347878598e+00
      -9.1603476659471217e-01 -2.6941446495690977e+00
      1.1708339595809221e-01 -2.6713524821826335e+00
      -1.2307960221474892e-01 -1.8398778644883387e+00
      1.0239870865036036e+00 2.4517883514948040e+00
      9.6145393026143233e-01 2.7740612694585121e-01
      1.9119542110889884e+00 1.6914606519120848e-01
      8.4271271561413819e-01 2.4168797257748218e+00
      5.9124303358426256e-01 -6.8178829124975227e-01
      -1.8805818600765145e+00 1.2273379093154480e+00
      -1.9061197190578185e+00 7.5973068130815904e-02
      -8.8526603916392954e-01 -1.5211585375078249e-01
      -3.0666901826214645e+00 -5.3433544783982012e-01
      -1.7720646384792860e-02 -1.3839564630023069e+00
      -7.8912442596342791e-01 -1.3221371194499079e+00
      -2.0603430947591928e-01 1.1094991239022156e+00
      2.7332908495088026e+00 -1.4045749048830098e+00
      1.0886408934117566e+00 -7.6279069864791799e-02
      -8.5639480817628821e-01 7.5354532450611711e-01
      -3.9293556096447935e+00 -1.2652551739695708e+00
      -3.7122631378678652e+00 -2.4762606518512653e+00
      1.2774509471508122e+00 4.8487126302397437e-01
      -9.0576333015728361e-01 4.4615570287266024e+00
      8.1807838136129385e-01 1.3083463516398506e+00
      -2.3888898566540893e+00 -2.3747074010871723e+00
      3.7686960072137774e+00 -1.2684361959894408e+00
      -1.3375900649587238e+00 -6.0042297370682819e-02
      -7.3772915849001874e-01 -1.2715838735340634e+00
      -2.8870117462746769e+00 -9.7141872105754901e-01
      -1.1936593229831723e-01 8.2311183885125472e-01
      3.2375288586100337e-01 -3.8448108312883356e-01
      -5.0819329040965773e+00 -2.2393624612997334e+00
      9.7049742078916845e-01 3.5485212827332774e-01
      1.9902559138161272e-01 -8.4066330428669922e-01
      -1.7077654567677458e+00 -2.2901694348452599e+00
      -3.9412652669721191e+00 9.0645810519486303e-01
      -5.6887463759174806e-01 -3.6627038572159293e-01
      9.1327659617261636e-01 -4.3012256381891617e-01
      -4.7910561263276707e-01 8.3016577339381536e-01
      1.3287188943228951e+00 1.9159924691787364e+00
      3.5040252939716936e+00 -1.9736789982914893e-01
      -3.0332874059261483e+00 -2.1105889642058000e+00
      1.6212560358433912e+00 -9.9548387186381637e-01
      2.3876226619223290e-01 -3.1079085187301283e+00
      1.4723151898895603e+00 -1.7830112798550912e+00
      -5.4495341164506306e-01 5.5945458722627933e-02
      -2.7014367057010915e+00 -2.1371290097933442e+00
      -1.1247325455796371e+00 7.4437474177195123e-02
      2.6824231187271463e-01 7.1703264480244373e+00
      5.6122805928822561e-01 2.0476770617937521e+00
      4.1380572620087230e-01 1.8879959414103956e-01
      1.6976902102793650e+00 -3.5836839518607535e+00
      -4.4883542948587524e-01 -3.7964667999493291e+00
      -2.0356581917001507e-01 1.6919083440749700e+00
      2.0229309982764212e+00 -4.6550449129165621e+00
      3.9256286198370920e+00 8.6998404344443148e-01
      1.7741861755552137e+00 -1.1625718125213320e+00
      -2.5137544586384336e-01 4.2660527365292578e-01
      9.3753431545534982e-01 -4.7453929404807893e-01
      -8.7992922972016233e-02 -4.7642139722791121e-01
      -1.4424291930582471e+00 -1.2232708181503795e+00
      -1.4611380168672721e+00 -3.7927587964880932e-01
      5.9423019431019408e-01 -1.3541344312890951e+00
      7.2592394338046240e-01 -2.4072045587448927e+00
      -1.1952338447966226e+00 5.5042063762778182e-01
      -2.0199226051738166e+00 -1.6064532653279284e+00
      -2.1381075326590468e+00 1.3725451669409836e+00
      -2.5658115343063650e+00 -1.7824217541974174e+00
      6.2586461409266614e-01 3.0647996284438053e+00
      -1.8872085199162250e-01 -1.0589784788491594e+00
      1.5812809477187926e+00 -2.5426550451651805e-02
      1.4432023305157387e+00 1.7215100871148703e+00
      2.7519410258871062e+00 2.1497740651490145e+00
      -6.7964842135739811e+00 -1.4744408018807698e+00
      3.3018845353327780e-01 1.0556191815889118e-01
      -1.0081991613144199e+00 -1.1317382160849473e-01
      -3.4499880514778765e+00 1.9549351034842619e+00
      -1.0926267720382536e+00 5.7270830758794777e-01
      -1.4396871591680341e-01 -8.7896668520825627e-01
      -2.2879383595726819e+00 4.1082487154301089e-01
      -5.6575306159001089e-02 -1.7560462540693869e-01
      1.8329778576677282e+00 2.1197601827018446e+00
      -1.6165225765030249e+00 -1.8035483082159043e+00
      2.6248194594492530e-01 -1.1722077933334953e+00
      -1.7771850506597999e+00 1.5786429518043064e+00
      -2.9295167430056086e+00 -1.1657309728887966e+00
      1.1136791541342759e+00 -1.0454829373564336e+00
      -6.3784430331747666e-01 1.6639477795292621e+00
      1.2470302168706500e+00 2.0930748408005702e+00
      -1.1235702466408239e+00 2.6486504091377268e+00
      1.7517502100588092e+00 2.6442238330672923e+00
      -3.8442233264271575e-01 5.9170446781209342e-02
      1.0742609401186354e+00 -1.2871925363952157e+00
      -1.7018407273861738e+00 -3.1477146524430957e+00
      8.4542607082740173e-01 3.3010872793472896e+00
      2.4614363000912201e-01 3.8451652034564809e-01
      -7.4792213584935319e-01 3.5673329176277158e-01
      -1.8318113343041504e+00 -3.3088008340247527e-01
      -1.2338146191289603e+00 -3.8669870389280603e+00
      -1.1117914885360844e+00 -3.1167809271535424e-01
      2.1369946823969053e+00 -6.7155182331414598e-01
      6.4278412448329583e+00 -3.4143276719104815e-01
      -1.3963607513291783e+00 -3.2264222995264685e-01
      -4.0858467454349734e-01 -1.7544713620286236e-02
      1.3885266155299687e+00 5.0911637498834972e-01
      7.3767107101821949e-01 -4.1216214194771270e+00
      -7.0031008438835907e-01 1.1567042843922886e+00
      -7.7438968710242384e-01 -3.6651426368537234e+00
      -1.3743400880505985e+00 -3.6065018100947834e+00
      7.7465939219712032e-01 -7.2993558330460240e-01
      3.7511198378093642e+00 3.4282286175537924e-01
      3.6235653302242588e-01 -1.7843530950694217e+00
      2.7980118602698298e+00 -8.8868708839853275e-03
      -2.1857847499479287e-02 7.2605263697488820e-01
      4.2179117661721804e-01 -1.6749449460991472e+00
      -3.8646494739908537e+00 2.6901101008074537e+00
      -3.6213903229127125e+00 -1.7551072230515594e+00
      3.6873722338877237e+00 -2.2063161707784191e+00
      -3.0121540024739474e-01 2.2199309199641371e-01
      -6.6261150116690104e-01 -1.9090729007512688e+00
      3.6477791881376520e-01 4.0193294506171601e-01
      -7.0053455760707883e-01 8.4948399420949450e-01
      1.1582042462003075e+00 1.0191574540925954e+00
      3.0743536568043659e+00 -9.8401872350152220e-01
      2.4657756112311382e-02 5.4728897982113500e-01
      -1.0664914889118762e+00 -8.5064251652822676e-01
      1.6969860847271570e+00 1.9400828205677112e+00
      1.1335310833630028e+00 6.2318351602486721e-01
      2.1403288754278238e+00 -9.5460333214053450e-01
      -2.7623547311739580e+00 -3.7419783374260829e-01
      -9.1254937093192168e-01 -2.7608279828819735e+00
      -1.6812222230078344e+00 -1.1760985436275022e+00
      -1.2929678877077311e+00 4.5161139499881743e-02
      -1.1380701344711257e+00 1.0484559394545150e+00
      -2.1219972656155268e+00 -7.4846191939553330e-01
      -2.3578023103772177e+00 1.0981515505415209e+00
      -7.0756852299737005e-01 -1.1737246448615226e+00
      -9.6323180984468182e-01 1.8515623294967647e+00
      -2.4058373047204333e+00 1.4444591624234895e+00
      1.6541588533472679e-01 3.8516896607417167e-02
      -1.3083310528422774e+00 -2.8252731561756077e+00
      3.5001818699271992e-01 6.9133965545398157e-01
      -2.9523539838867814e+00 2.2760337793806031e+00
      -2.3292501833343339e-02 2.3308509642005095e+00
      -7.1706373432668957e-01 3.4876656177694394e+00
      -2.1379706974077567e-01 -2.5362196846775209e+00
      1.7668575572615295e+00 2.2756147230363646e+00
      -5.2718536301813508e+00 -1.3112883152290864e+00
      3.3455299486755181e+00 -4.0560179778271568e+00
      8.3231452716723353e-01 3.1299645851549482e+00
      -1.4779638325368192e+00 2.8143373915520198e+00
      -1.4960956264196961e+00 3.1121139490830035e-01
      -1.3770257868391172e-01 -1.7845546049321843e+00
      -6.4813602928536207e-01 -6.3342801136848992e-01
      -5.5900765760793292e-01 -3.6921299273567065e-01
      8.6940611310876525e-01 -5.9595367150976297e-01
      -3.6527140859875717e-01 -2.2123918632276876e-02
      -1.3448935139826307e-01 3.1300279484943086e-02
      4.7662267121399737e-01 -5.7700835712698739e-01
      1.6054023776207889e+00 1.5375776877554051e-01
      -1.5590662086894821e-01 2.1913028403508159e+00
      2.7739280542415662e-01 -1.0064180513457068e+00
      -4.0535447317650380e-01 -3.7124391682112540e-02
      -3.3994246806369099e-01 9.5535016380353555e-01
      -1.3752112213277325e+00 -5.4122956888848395e-01
      2.8235865316291914e-01 8.0653668492171116e-01
      1.2140419955876958e+00 -2.6593548290593088e+00
      -1.6132398149996472e+00 2.9947150784459042e-01
      5.5667800234400588e-01 -1.0930329723320726e+00
      -2.8362781966307362e+00 -5.3968926906339720e-01
      -1.3343329712808911e+00 2.6428290483265555e+00
      -6.4178225134401845e-01 -3.4167653983234403e-02
      5.7555610760405407e-01 1.2186003376336256e+00
      8.8467529420166025e-01 5.2045750760792608e-01
      1.2111222261053456e-01 -2.8921888546132996e-01
      -1.3225028803524458e-01 2.3792133874406257e-01
      3.3041025541395663e-01 5.8420700511606971e-01
      4.9677649689726827e-01 2.5072850724131729e-01
      -1.5128095592046384e-01 -3.4525668413923788e-01
      1.9092775704938152e+00 1.4090689068556961e+00
      3.4940516966372903e-01 -1.2923907738824949e-02
      -8.2793484415336183e-01 3.2982540222296031e-01
      1.8483979806492104e-01 1.6433660258432803e+00
      6.6603018864659136e-01 -1.3393354458849365e+00
      2.4094447898169602e-01 7.0236794896204069e-01
      -2.8992885357027171e-01 -6.4994875119351458e-01
      -2.2435014126905858e-01 3.5447180366409364e-01
      3.3700072503200046e-01 -1.2314684491270003e+00
      -1.0680319259315232e-01 -3.0644328034453960e+00
      4.8990513367128521e-02 -1.3018460303048685e+00
      -3.1966720200302973e-01 2.0697551460551461e-01
      1.9796571658060097e-01 -4.5572148577132587e-01
      5.6456600501516607e-01 -1.2401298240464191e+00
      1.1858630247653355e-01 7.7136916713013448e-01
      -2.0525685781381400e-01 1.9017823573497025e-01
      -1.4315585981001873e+00 -1.6396135173708419e+00
      -1.0887436862643547e+00 -6.3717285629175358e-01
      2.3414035440729991e-01 -5.8343505322646638e-01
      9.7776438112449016e-01 9.5923373415805491e-01
      -1.1549494298773717e+00 1.0287777142672767e+00
      -6.3400617408776416e-01 -1.1253393543879543e-01
      -2.6730045936624353e-01 -5.7262192065669226e-01
      -9.6002929923141611e-01 -7.4164668603368755e-01
      1.7126741211710805e+00 2.7775676045798320e-01
      -3.8876695961737667e-01 1.2428118327239215e-01
      -2.4258907064458102e-01 2.9334813226999401e+00
      9.8672458275603336e-01 -1.2444724389117685e+00
      2.9552495065669842e+00 -1.2881770488021786e+00
      -3.7396500591878895e-01 -2.4813929233269538e-01
      2.0043354699785443e+00 -4.0999813989230433e-01
      1.2514367662732050e-02 -5.1642371346809979e-01
      -1.5692635451691315e+00 -4.3958504788931102e-01
      2.9704933698483948e+00 -1.1143856494532969e+00
      9.6830348422074419e-01 -1.4530666552283213e+00
      -9.2693788618463807e-02 4.5050026808205768e-01
      -3.5498359342903951e-01 7.1635921163032901e-01
      -2.2785376898090468e+00 1.7304773602524740e-01
      -1.2369681682478595e+00 -1.3619825787698154e+00
      -6.6602089302331968e-01 1.2625606391019237e+00
      1.1487169417272400e+00 2.5038410543835732e+00
      -9.0918455924210773e-02 8.3272098278639328e-01
      1.8716031097111532e+00 -2.0507001487508241e+00
      -1.5069663044113537e+00 5.3754464869027063e-01
      -1.5380431282720974e+00 1.1003790242342275e+00
      2.6430061987550109e+00 1.4835760148881409e+00
      -2.7861141125456163e-01 5.4176389223530030e-01
      -1.7251435885240016e+00 -6.4373586370031222e-01
      1.1047461799339413e+00 5.1766800554261838e-01
      -1.2953510679177722e+00 -6.0412278040238299e-01
      2.6551614537371742e+00 1.5116077261435041e+00
      -3.0838140184420443e-01 2.2504007685862697e+00
      -9.9338120766390603e-01 -1.6297615693803715e+00
      -1.7048050009811608e-01 3.4969526633444808e-01
      2.6328061754492036e+00 9.3275158581524908e-02
      7.9129575165687993e-01 3.6975835920543286e-02
      9.7205282027403431e-02 -4.4391387667503268e-01
      4.4184981637841980e-01 1.1434985368473423e+00
      2.6043892799119739e+00 6.9941875797939090e-01
      5.6340289607030247e-01 2.3306876201079270e+00
      3.6149319093811522e-01 -1.4213628649194698e+00
      -1.6849393046133101e+00 -2.8439367556842809e-01
      -8.8557311153013374e-01 -9.3491060534579495e-01
      -2.0574882164332764e+00 2.3001407116113856e-01
      -1.4121204212418874e+00 8.8240324738402098e-02
      -2.4102691109131849e+00 -1.1710961666371771e+00
      -1.3191323701790050e+00 1.6686001906639052e+00
      -8.4281807383569463e-01 2.6611432262558243e-01
      1.0079521062656878e+00 2.0419366300627853e+00
      -6.1912685496938835e-01 2.8619382117292025e+00
      2.4644439621006600e-01 -4.9060771814816645e-01
      6.4019564078651836e-02 -1.6323953814446490e+00
      -1.1304298482595363e+00 -2.0454394327432976e+00
      6.7603627768224293e+00 7.4035881045399887e-01
      1.5044023858229369e-01 5.4565140837667014e+00
      -6.7992906442234364e+00 -3.6206612092769297e+00
      1.0726324734078953e-01 3.3286179749952236e+00
      1.4221440555197160e+00 1.4330036209912012e+00
      7.4409675047974444e-01 -3.0115070867244847e-01
      8.3226978666845386e-01 -3.4314950054671236e+00
      7.6351084578816830e-01 8.7492252523471692e-01
      -9.8614197115239458e-02 -4.1701763487219073e-01
      -1.1664932065944276e+00 2.6059637876697522e-01
      4.8289367602545000e-02 -6.6510270846451780e-01
      8.5198077909848458e-01 5.3605782519410905e-01
      -7.6526931878481019e-01 1.1980546497314812e+00
      9.2778834003631949e-01 1.1943826024150038e-01
      -3.9986409019171071e-01 -7.5770125579890246e-01
      -1.0976437718567407e-01 3.5915024188497613e-01
      -7.5630972988705913e-02 1.2157768984390454e+00
      3.5602367755150466e-01 -3.3413053491703326e-01
      6.1637225222755854e+00 -1.5313586239623486e-01
      2.4868261704624666e+00 2.2735033669017313e-01
      -1.4022659453052866e-01 2.4985365888385677e-01
      -5.7588920318276293e-01 -1.2646822978463840e-01
      -1.5255972849583579e+00 -3.7753280374458891e+00
      5.2927975633503288e-01 1.2832293287283365e-02
      3.7155220078592577e-01 -4.3338558127446394e+00
      3.0306280329113484e-02 1.2363934895926600e-01
      -1.7906482070310266e+00 -7.1024787719033036e+00
      -1.2188045234510346e-01 5.1142726597378740e-01
      -5.8135900625788495e-01 3.3752142153858439e-01
      5.3211698845815603e+00 5.8750356859165442e-01
      8.9277251433720131e-02 6.0799576561222246e-01
      -2.4392580434679481e+00 -3.2921039910726445e-02
      -1.2115413362453916e-02 -1.9318962573222215e-02
      2.3390380842459993e-02 -2.4282408156062186e-02
      -2.3635069282499605e-02 1.2955592820467267e-02
      -2.0521052560547988e-02 -2.0238836211761951e-02
      -8.2273525864661520e-03 2.2894060442686513e-02
      2.4222481903519763e-02 1.1481543846797252e-02
      2.8572403092622309e-02 2.9156518589456629e-02
      -3.0025835203363792e-02 2.7509215013642247e-02
      3.0322984817013458e-02 -2.1699766769345343e-02
      4.5705144434192279e-03 2.5754197095006797e-02
      2.9184349011212096e-02 -5.5763712149390996e-03
      9.1128227282048398e-03 -2.9524736480520314e-02
      9.1083039112800045e-03 2.8060347261279393e-02
      -2.9824766376344774e-02 1.5655099849567478e-02
      -1.1764934442550187e-02 -2.7572704498228105e-02
      -2.5364741048548609e-02 1.3711790696752083e-02
      3.2587432956777185e-02 1.7517332460358470e-02
      -1.3656429669859590e-03 -2.0311992304282614e-02
      2.8935015011164536e-02 -1.3560503511795767e-02
      1.6237616022801785e-02 4.4318430930518227e-03
      -1.4306897436688898e-02 1.3897040582611419e-02
      -1.2903931912012431e-02 1.8958078869502903e-02
      -2.5702793823850514e-02 2.0761748797007741e-02
      -3.1815757650667013e-02 -1.1812230649020197e-02
      1.3255757830062940e-02 -2.4584662945829776e-02
      -9.0915106724586674e-03 2.3728185786978562e-03
      -2.1719238609574309e-03 1.6388827750274702e-02
      1.3443035031277195e-02 2.0085857176779850e-02
      2.7512092564953799e-04 -1.9627889209768899e-02
      2.4562847060318572e-02 -2.3022398970220764e-02
      -3.0950777024383478e-03 -4.1581217729733163e-03
      -1.5293706244015820e-02 8.7050229494143178e-03
      -1.3670242189961634e-02 -8.7252222913910896e-03
      -1.4449303320184405e-02 2.2721364870379731e-02
      -3.0205834452016446e-02 -1.8195873362737248e-02
      -2.7533671630504450e-02 -1.4372368111392881e-02
      -2.3998914985682199e-02 -2.1676191291021503e-02
      2.2768261554366426e-02 -4.5094865710348085e-04
      2.8123636835111546e-02 6.8340256796193153e-03
      -1.6268864214528233e-02 2.6591888280112729e-02
      -1.0228233456059695e-02 -2.7223302269942053e-02
      2.8109177478245623e-02 1.9198927204406822e-02
      -1.1904874885046483e-02 2.3360864696746107e-02
      2.4324858239720866e-02 9.4958175512155230e-03
      -1.6159296294144738e-03 -4.7650428202645669e-03
      -1.3842756982812043e-02 -4.4394107104439307e-03
      2.5471680348909596e-02 -1.1203530236492410e-02
      -2.0742952268483794e-03 -2.2361112125624603e-02
      5.7119752053219246e-03 -3.0849427701994604e-02
      2.0709448678667291e-02 -9.3761987447577438e-03
      -1.6346750152584192e-02 1.5099674272617627e-02
      -1.1854882617362728e-02 -1.7894988816172210e-02
      -8.8743501956980546e-03 4.5719777687371448e-03
      -2.1146221746358707e-02 2.3732674120230897e-02
      4.5706505792696426e-03 -1.0326558892867524e-02
      1.7132663063668067e-02 2.5865488733886100e-02
      -1.2449459525686329e-02 -7.5277156815213965e-03
      -2.0190567679582681e-02 2.4669695580885765e-02
      2.3893994444240833e-02 1.1582343008986648e-02
      6.6715171463299170e-03 1.7888434654716599e-03
      -3.3132691302520533e-03 -1.8150965837795914e-02
      2.3659818959070964e-02 -1.7892853352321072e-02
      -2.4485007840462234e-02 -1.4523687664489270e-02
      -1.9577183046605301e-02 5.8746376383861159e-03
      -2.4159951818011945e-02 1.6773532344145824e-02
      -3.0413130346791228e+00 9.1159304465435631e-01
      3.4391331568699191e-01 4.5860027227073230e-01
      -2.1602887293607112e-01 3.3169178715003869e-02
      -3.6613563220005946e-01 3.1537933489288822e-01
      -1.4793014172343737e+00 -2.8487895475554579e+00
      1.2459524672699747e+00 -3.6228822157874602e-01
      2.3454887931712487e+00 6.0041993168029162e-01
      1.1353703374670789e+00 2.0259574773500648e+00
      1.6051862814801969e+00 9.2042697484253844e-01
      7.6751680492071461e-01 -8.5805694073115923e-01
      -3.4535512450777278e-01 -9.9887362974693616e-01
      -4.3472690286692489e-01 -1.3872734327421126e+00
      -2.7971141607824856e+00 2.3847441884537493e-01
      2.1031904296747239e+00 -1.9254270516992082e+00
      5.9411638203839275e-02 1.0333942861180706e-01
      -9.4265577816439872e-01 -6.0833997382381022e-01
      -7.2570395376403207e-01 4.1736865673714734e+00
      9.6175827958444216e-01 -1.2463504506728429e+00
      -1.4990596392083237e+00 3.4895646530414703e+00
      4.5887465511264276e+00 1.0895036584424023e+00
      -2.5138002468319969e+00 2.4869143991525480e-01
      -8.8082211147867684e-01 9.5879289600068925e-03
      -2.0178466192147662e+00 -2.9968152387074349e+00
      1.0905076860330738e+00 3.7644616906904360e-01
      -8.1690528663448869e-01 -1.1162156270411070e+00
      -2.3045978452839710e+00 -4.9934350230332969e-01
      1.7336025456647339e-01 -2.1722008722380997e+00
      3.0377450863236422e-01 4.9174690621097300e-01
      -2.1631947764589459e+00 1.0994869853253961e+00
      -1.3951083221042957e+00 -3.8054661840945975e-01
      2.0286639408423612e+00 -1.9664196640647464e+00
      2.0125875924769594e+00 8.7772333894156096e-01
      2.1362005498335588e+00 -1.6318598312770851e+00
      -8.6596593034069413e-01 1.6702532494740707e+00
      1.9223427442738977e-01 -2.2160479526656687e+00
      -2.3007033541692026e-01 -1.4331154994935487e+00
      1.0619119566807895e+00 -1.0563993114677066e+00
      -2.4303685177916998e+00 8.3223441587115832e-01
      2.1337338995071509e+00 3.4760685740436319e+00
      -1.4457983852622474e+00 -1.2650429880330896e-01
      -2.9797806190962739e-01 2.2904357816287706e+00
      2.0751117361652751e+00 -8.1026323362365393e-01
      -3.8440652391135338e-01 -2.4518819957300306e+00
      -1.8491175805118303e+00 1.3547210754023262e+00
      -5.2132652876072261e-01 -1.7497659983774025e+00
      -4.1027500053191118e-01 1.4827368191807534e-02
      -3.9208655729232427e+00 2.8969261661624662e-01
      -7.7488503403109077e-01 4.2304951176612188e-01
      -9.5986454625661011e-01 -3.2970667240639129e+00
      1.6716453653486629e+00 1.1929138672949459e-01
      -6.9934889575215431e-01 -1.8389284469188154e+00
      4.1344847019853299e+00 3.8095867553650247e+00
      8.2660558740315160e-01 -7.8112405993008516e-01
      -6.6073847867653568e-01 2.2230480288955219e+00
      2.5250872290498433e-01 -4.3510396361197738e+00
      -3.8778090958250577e-01 9.8506040922319793e-01
      -3.7310505644086228e-01 -1.6989559580925719e+00
      -3.1302659830153862e-01 -5.9312007430330951e+00
      -3.5170807244708251e+00 -1.1334116186211942e+00
      5.3827859067634809e-01 1.2249616332941928e+00
      1.1914065478917721e+00 -1.1899735847102964e+00
      5.4962698049001157e-01 -1.9296272292836070e+00
      5.4401198301219655e-01 1.7187941489855745e+00
      -2.9590596287467719e+00 5.6660165051245059e-01
      -2.0148820994668650e+00 2.3376060522357589e+00
      7.2398304301858518e-01 4.0969719644707392e-01
      7.5807775452571036e-01 1.5786155158991355e+00
      -2.5146868451546691e+00 -1.6494598410897779e-01
      -1.4186111708754798e+00 2.5179230432378139e+00
      -1.0564146705881694e+00 -1.1736779743970434e+00
      -1.1687636064119762e+00 1.2588634089998547e+00
      5.9219237262970315e-01 -2.1444004996524231e+00
      -3.0965414796550226e+00 -3.3192372593221964e-01
      2.6858870973041169e+00 -1.5660888995448308e+00
      7.3003288108557607e-01 -5.6482599682448487e-01
      -1.8089210554107318e+00 -6.4885621403263727e-01
      2.5120104769845666e+00 -9.1095841407339861e-01
      -8.8712614948715385e-01 -2.8819041503183196e-01
      1.5608977706658320e-01 -2.8051496400144447e+00
      1.4799777346505313e-01 -1.8596118738856060e-01
      1.4064747325816498e+00 -1.5687963727942906e+00
      -3.9294380684146684e+00 1.2838723473675848e+00
      -2.2944730577199754e-01 -8.9625417628938830e-01
      -1.1188813029407183e+00 2.1709322816997108e+00
      1.0039040861368362e+00 -9.5067347282380854e-01
      -4.6710858234957431e-01 2.9934365085515173e+00
      -1.2355705226856712e+00 -3.3702978246103898e-01
      -2.4712599145357875e-01 7.3892828592838022e-01
      1.3458457562269046e+00 -3.4863198778980385e-02
      -8.6330085782820309e-01 3.7315044734947406e-01
      -2.9194877269959472e+00 8.9571189327912015e-01
      9.8422781681595162e-01 8.7574373176642850e-01
      4.3419760764801146e-01 -7.0403892547691294e-01
      -1.3197920542160897e+00 2.4121172039050476e-01
      3.5910554490800928e-01 1.9421172234100791e-02
      -2.0701771047010862e+00 -2.5217297298279145e-01
      -1.7530783333495623e+00 -8.4019526216274654e-01
      5.8681390887397311e-01 1.0786140634139083e+00
      4.6864881855221707e-01 -4.2953227774671549e-01
      7.3325034542268797e-01 -4.2113843961320691e-01
      2.6112610933694574e-01 -1.8021906488364142e-01
      1.5241717354713225e-01 -6.8471909110982676e-01
      2.4004125637978915e-01 -2.5729605660419184e+00
      2.5220967612270333e+00 -1.7587284981636513e+00
      -6.6241232798544504e-04 3.3746441068174976e-01
      5.6584888026036906e-01 1.3411077417725317e+00
      -8.6292700812654877e-01 3.4973743774530935e-01
      -3.2969493865376270e-01 -1.9552736833141933e+00
      -3.2702903474675837e-01 3.0275953135389297e+00
      1.0910154913312629e+00 9.6601211946318943e-01
      8.5307761445468144e-01 -1.6720876587011191e+00
      -1.6596891874608397e+00 2.1270037007203188e-01
      -8.8173575184958930e-01 1.1210505321041708e+00
      -8.2174432104756590e-01 -1.9882072058574498e+00
      2.1481709586115052e+00 1.3810423419718547e+00
      -2.9606426782633831e-02 2.2682252174462592e-01
      -1.0147599238588700e+00 -1.5329311933848266e+00
      -1.3902773376205337e+00 4.1170502917189900e-01
      4.1454425024704715e+00 -3.5892911313839093e-02
      8.4941217506347685e-02 7.1755565557265300e-01
      -6.5516082663915798e-01 1.7342129184849775e+00
      -9.8095384241768530e-02 1.4270031059143395e+00
      -1.2655856910809116e+00 -8.6990542312007457e-01
      1.1741943220383197e+00 1.6868380478490860e-01
      -1.4698333371798387e+00 -1.6066594384856661e+00
      -9.4873386658993919e-01 -2.3301856953170882e-01
      9.2002346220955800e-01 4.5708610332364713e-01
      -6.9104036885827202e-01 -6.7816845829648631e-01
      5.9513855384035030e-01 -1.3346972850273711e+00
      -9.8805596820305008e-01 -1.5853670933235751e+00
      -1.7762615498787096e-01 -1.6012202647521623e-01
      2.6859285121226715e+00 9.0036451088486236e-01
      2.7923723820914176e-01 9.3478030966908918e-02
      5.4763190536537831e-03 4.6827742124104527e-01
      -4.5981449622769088e-01 2.4400818891476557e+00
      -8.0309990854073954e-01 1.1431136162779894e+00
      -5.2365377028832141e+00 5.9812896322605547e-01
      1.7561178227830587e-01 -9.3681338507593670e-01
      2.2471403729955650e-01 -2.0435416200065619e+00
      2.7302240274651166e+00 -1.6478740091681694e+00
      -3.7738811613885921e+00 -1.2717517786683459e+00
      6.1898978620434342e+00 2.1907669038025590e+00
      7.4020123154579609e-01 -1.1157719873143944e-02
      7.0714580059421772e-02 5.0114352976321408e-01
      -4.6793487422426733e-01 -7.7190795658587485e-01
      2.1143744986424911e+00 -1.1708409673223035e+00
      -1.3208352730989159e-01 3.2605468510248174e+00
      2.5634073232852326e+00 2.6090322828967727e-01
      1.8825144225137416e+00 -1.3761222292968258e+00
      -1.6250140406921501e-01 -2.5898533577481535e+00
      3.9283291032114998e-01 3.6563972827361049e+00
      -1.1471732763718456e+00 3.6379966207691000e-01
      1.4714241968241071e+00 -1.6665726815496686e+00
      1.8392523080980678e+00 1.3436516794620409e-01
      1.4774937108075272e+00 -2.2708077955352315e-02
      7.7087999885617509e-01 2.6647260299349353e+00
      -4.3073899872280502e-01 -5.6258599770314188e-01
      -5.9172340095487941e-01 -1.2363131011886822e-01
      -4.7559364162391976e-01 2.5689676766892117e-01
      -1.6715731489748295e-01 2.2646327339563133e-01
      3.7060388658706844e-01 2.7486046214694193e+00
      -2.8863158105753337e+00 -1.9529961337944355e+00
      -1.7090228082177898e+00 -1.6853643894020381e-01
      -9.8845851418336206e-01 1.3032238028416820e+00
      2.2736160273744446e+00 -5.0431432362763684e-01
      6.7871233491014732e-02 1.6509911161846182e+00
      -4.9556358200438094e-01 -6.6345940614901600e-01
      2.2635590016970086e+00 -3.5214597948547319e+00
      9.4872792561679908e-01 -1.7703123322035614e+00
      -2.6677536957810588e-01 2.7158749372882074e-01
      -1.2161341104058054e+00 -5.8311984985480170e-01
      -5.1156805878345502e+00 2.6230710660688947e+00
      3.8660488680630323e-01 -1.6853540428457072e+00
      -2.5182656469507703e-01 3.1316976875269944e+00
      1.8471690279043373e+00 5.5337822279399440e-01
      6.7059081987340119e-01 8.8923089669557476e-01
      1.1004860138742545e+00 -7.9252387232517241e-01
      6.0133173706834786e-01 9.8925721845558301e-01
      -8.1546683056450198e-01 7.3668516587503577e-02
      9.3190249925945368e-01 1.4380441710056013e+00
      -1.2305037331828705e-01 1.9019591999069507e+00
      -8.8909972022718320e-01 9.2327374180590982e-01
      -1.6370452347942881e+00 -1.4407570340380260e-01
      2.9958823213471830e+00 6.7998601583460175e-02
      -2.2971611738576470e-01 7.8895034563393951e-01
      -1.1755166674240012e+00 1.1583388177673788e+00
      -1.6792150662360100e-01 1.7923884434417061e+00
      -1.7238485832811012e+00 3.9686816836127808e-01
      7.5864229297584629e-01 8.1585105663683788e-01
      8.2455151703621388e-02 -5.8749128259472738e-01
      -6.2067816494768535e-01 -7.0580579159011203e-01
      2.6156349644494066e+00 -2.0601022316797875e+00
      1.2025970485995963e-01 -7.6125216951597230e-01
      8.7071474160671314e-01 -1.0293276897394948e-01
      -1.0999616326527850e+00 6.4985736604965738e-01
      3.7126369672319331e-01 1.8325790553948398e-01
      9.8132795502479597e-01 1.9589231907733125e+00
      -2.4363507019507669e+00 8.4933314716342342e-02
      7.6497564472132284e-01 -2.9298793954330343e-01
      -1.6730314394304806e+00 1.1051080075595947e+00
      -2.7667966233523837e+00 1.7146718824284084e+00
      -7.3813719170247827e-01 -9.3402009209119646e-02
      1.9027162530495201e+00 -7.0221049174330019e-01
      -1.3081350262679201e+00 -3.4013810223836320e+00
      1.1130949625984883e+00 7.4610263749188332e-01
      2.2323036269917096e-01 -1.6477381193418006e+00
      7.8798422843099547e-01 -1.8297127413975411e+00
      1.8530101397149865e+00 1.0924454205021992e+00
      4.1148812812867774e+00 2.1246576920942220e+00
      -1.9746277311436397e-01 1.3951948333227939e+00
      2.4837846435988711e+00 -3.6420642966519967e-01
      2.0995625381878638e+00 3.0141067787660454e+00
      -1.1318740957726077e+00 1.8234890606348114e-02
      4.2661690783936618e-01 1.5075679998671123e+00
      -1.6407352574696781e+00 1.7071961117206051e+00
      2.1183260049865496e-01 7.6819957274935258e-01
      2.7459843233667960e+00 -7.4077023772889133e-02
      2.5882322780844080e+00 -3.7887385920519046e-01
      1.4254632400825265e+00 -8.0000987657175240e-02
      2.4628874940439363e+00 7.8841256642026139e-02
      1.0219242364328864e+00 -7.1771991229873344e-01
      5.9426646201150701e-01 1.2965223335158111e+00
      -5.3349489826542174e-01 -8.9825599721933036e-01
      -1.4492554289395234e+00 3.1354363534073535e+00
      -2.9639111768634996e-01 -8.3864171305652402e-01
      -9.6458566527395151e-01 -1.1933024340158327e+00
      -5.3808935039531858e-01 -9.1550707137786724e-01
      3.7000228050595951e-01 1.8895863306384026e+00
      -2.8236092896581816e-01 -3.0908568228500188e-01
      -2.1080184612627056e-01 -1.7828350920138893e+00
      2.5902993888763626e-01 1.1979453040868830e+00
      7.2222812116149915e-01 -2.0002625007272905e+00
      1.9502861346594225e+00 -3.2418384130175162e+00
      1.2692697570940148e+00 2.7572907788462003e-01
      7.6608353688190212e-01 1.0909306190648238e+00
      1.2921179274403700e+00 -4.2996836326397880e-01
      -4.0915744362736577e+00 -1.0853651897316314e+00
      6.9485085289092041e-01 2.7721747130321481e+00
      -3.7350095232055103e+00 3.8820632787917786e-03
      -1.2318730621988878e+00 8.3258343290524683e-01
      2.1908736770601642e-01 4.3670392940116622e+00
      1.2032144053621854e+00 -5.1443381799439448e-02
      -5.3227102496680856e-01 3.8878031669002531e+00
      -2.2751504844724535e-01 8.2404241671675216e-01
      -2.0388722679449897e-01 -8.1499332706100647e-01
      1.3466302828821330e-01 -3.6366199975374686e-01
      1.9159559730873434e+00 9.7542921027952242e-02
      4.0933513710019402e-02 2.4654246112905969e+00
      -2.8635579736364134e+00 2.3998646766570739e+00
      1.9939070146353505e-01 3.3262917416518245e-01
      7.2997758084189879e-01 1.1833467296436619e+00
      -1.2462683532046766e-02 2.1948810793828408e+00
      3.3091833108810524e+00 -4.1621895386634571e-02
      -2.3909960122503695e+00 6.0448734825798878e-01
      2.9128151345940920e+00 -2.7653665816324141e-01
      -5.8966572445478971e-01 -4.7919318388560078e-01
      -2.0489587824641176e-01 7.1382735989370527e-01
      -6.8929312566022916e-01 -4.1425007141878467e-01
      -1.5315618097726211e+00 -1.8882827313567576e+00
      -8.5595947367943503e-01 -7.8227307928922352e-01
      2.3837727432809035e+00 1.0542952270522477e+00
      2.2910492220539450e-01 -1.2392750265879322e-01
      1.8992802380576437e+00 -2.6631851439832815e-01
      1.2640611887736211e-01 3.0861317000187420e+00
      -2.8913041469474937e-01 1.6435106266775874e+00
      -3.9257033750508228e+00 6.8615029284183116e-02
      8.4545499684378089e-01 1.9351705354284905e+00
      5.8830079236551180e-01 1.4500996222560512e+00
      -4.8384975132006219e-01 -2.2680776822924469e+00
      4.4957349397084229e-01 7.4704341380382469e-02
      1.7973906287668420e+00 -3.7323314920286528e+00
      -3.7497466371115135e-01 -1.9394678602720437e+00
      2.0437585583698898e+00 3.0892828303271680e-01
      2.4353824356156926e+00 1.5404582433356080e+00
      -9.9136677066947820e-01 -1.7377074531730656e+00
      2.9657953369987147e+00 -5.2233011445256317e-01
      -2.6131030765255442e-02 -2.4490306239596107e+00
      2.3814783076903132e+00 -4.1769131903290603e-02
      -3.1023094457813341e+00 3.5139690163216826e+00
      1.0863716108932864e+00 3.9612336791365715e-01
      1.1531390495532079e+00 -2.5579553872213214e+00
      1.8451737501137835e+00 -2.4437845521361891e-02
      -5.8501955064733968e-01 1.4201996040876772e+00
      1.0857330702434860e+00 1.1583744645047941e-01
      -5.7280101866138866e-01 4.8179398255431227e+00
      -3.3508931753285520e-01 -1.4713536704801065e+00
      -1.2383137120799972e-01 2.3924882846660900e+00
      -1.7876372795173818e+00 -2.1824377797645619e-01
      2.4001099550463323e-01 -1.0313447396283941e+00
      1.6029329178776586e+00 -1.7198775168261671e+00
      3.7400725754060384e+00 -1.9090581279769656e+00
      -3.5583597562039215e-01 -1.3749727997011856e+00
      2.7433955338206739e-01 1.3469488101120524e+00
      -7.3412573367611601e-03 -5.5138196116584504e-01
      -6.2053095906948497e-01 1.7153060557405999e+00
      1.4148555241966396e-01 -1.0026818915841409e+00
      2.5528888406689592e+00 1.5309479950788396e+00
      1.9404953570345134e+00 -2.6632305538677872e+00
      -2.5843719685658448e+00 5.2426936692768211e-01
      9.1908829496735400e-01 1.4859691601484835e+00
      9.3671938592977000e-01 -8.0291696696044956e-01
      -2.5079677596090644e+00 2.2213387866851037e-01
      2.3429080896620380e-01 2.4222803919930076e+00
      -2.4196915517232545e+00 7.8480118042477520e-01
      -1.0687300651951168e+00 1.6146557036681453e-01
      -6.1045781958558043e-01 3.5182078203298817e+00
      1.0577478091586381e+00 7.3247681618354188e-01
      -1.0062030733605647e+00 -1.1300402594319374e+00
      3.7644849179574169e-01 -6.6877934772956760e-01
      -1.0179330967116880e+00 -1.0816724263298385e+00
      -1.2716627552303272e+00 -4.3252823910570832e+00
      2.8938569982349192e+00 2.7988413048860887e+00
      1.2890170328881405e+00 1.2998779892465148e-01
      -2.2764833403112936e+00 2.5922289395707812e+00
      8.4769073681931512e-02 5.4147081743764292e-01
      1.2669008295552506e+00 1.4169319714464890e+00
      8.1655134557521908e-02 1.1711972783462730e+00
      4.2392968140420129e+00 7.9398390495300064e-02
      3.2058877965197997e-02 -7.0201204178387433e-01
      1.9612724858450876e+00 -2.5880646218438068e+00
      5.9903797735989850e-01 1.0274845659908101e+00
      -1.3914859379456090e+00 1.5765427580288685e+00
      -1.8920574078875727e+00 3.8383433553395880e+00
      5.4175236459644421e-02 1.1364588443396384e+00
      -2.0974922104321756e+00 5.0132509269209069e-01
      1.5612953895174717e+00 -5.0699696643097114e-01
      -2.7831630647494641e+00 -6.3583012623517210e-01
      1.1596035958284923e+00 6.0891137055424246e-02
      -1.0012267809952160e+00 5.4747992814241819e-01
      1.4862291664657608e+00 2.2666903484703158e+00
      -2.1722816115739625e+00 -2.4360346242846216e+00
      -9.9515742623151368e-02 -7.6997857967444805e-01
      2.7952132507123411e+00 6.3903725483889662e-01
      -2.0718781104029463e-01 -1.8521012023259225e+00
      -1.3759996073824443e+00 -1.4525057713544304e-01
      -3.5859071916590990e-01 -1.7357963731833820e-01
      3.8904922799148822e-01 -1.6383936109036128e+00
      3.0522754105195538e-01 6.1515490344470702e-01
      1.7898036998482758e+00 1.3076734438890276e+00
      -1.8087369343367982e-01 1.1110083469362831e-02
      -2.5084080813081515e+00 4.2283684679601724e-01
      2.8498699157931500e-02 1.8669837840308556e+00
      -3.4205075177299444e+00 -2.0514765272788442e+00
      -3.1956199478676863e+00 3.2713742142834072e+00
      1.6294342651412042e-01 1.3942091295875119e+00
      4.7711198659370563e-01 -2.1074880344638789e+00
      1.1176777192382543e+00 -2.0035709498497220e-01
      -1.1057900290105882e+00 -1.2322343760587916e-01
      5.6356112613524045e-01 3.3679988306950840e-03
      2.5907885445101351e+00 1.9304200593342613e+00
      -1.1727173841582769e-01 8.1211283440306259e-01
      -5.0332294199122296e-01 -1.1526387056391745e+00
      -2.1145008420127303e+00 7.7294518458251293e-01
      4.4347440447052416e-01 -1.6321780981578291e+00
      -5.2710009106300393e-01 -1.4955145546314568e+00
      2.2879472500855296e+00 -5.1778815484558482e-02
      5.7011408557841048e-01 -5.3675370474913497e-01
      -9.2783296905399981e-01 3.5941180482569708e+00
      -1.1411921112527503e+00 5.8307614977554789e-01
      2.6254847840609918e-01 -3.3643372028051777e-01
      -1.0358083817147823e-01 -3.0026893190506675e-02
      -1.9275648651989001e+00 1.0707250670521751e-02
      2.0409704521134158e+00 -1.0017596786154110e+00
      -1.4088542438406082e+00 -1.6676488289449360e+00
      -4.4651311710536969e-02 1.4425993236293690e+00
      -2.1547718923363263e-01 -2.7240412619086309e+00
      -9.3922800652105443e-01 -5.4389302349120328e-01
      -1.4819786694855641e-01 -9.1140439734815837e-01
      1.6267646841161238e+00 5.7349089994869185e-01
      -1.5912604323441126e+00 1.9970065402375941e+00
      1.7202158162866507e-01 5.5538285759890427e-01
      1.1190276806340436e+00 1.6699299412874044e-01
      3.1399662954751240e-01 8.1815274961571793e-01
      1.0478653756174126e+00 -2.9370200308449307e-01
      -1.0170180513239346e+00 -2.2861997049431961e+00
      -1.9426380226865554e+00 -3.3411505211015255e-02
      5.6902926907386164e-01 -2.6902416557278026e+00
      9.7232230183990009e-01 1.0530838224522610e+00
      -1.9413008590188108e+00 1.1384005749134596e+00
      2.4513351110616266e-01 1.3668846947993225e+00
      -1.8800523921050232e+00 -3.1533125022336272e-01
      -1.6158698424238219e-01 2.3563018666243374e+00
      -7.7200214482898055e-01 -3.8260465799323844e-02
      9.8586112364333345e-01 -5.9116833030368843e-01
      -1.7800378952735805e+00 -1.1421591038016361e+00
      -8.2610292548938680e-01 -3.4121606100309881e-01
      -3.9238249488037585e-02 3.8085078641744602e-01
      -6.8570985242352689e-01 -1.5089394442650292e+00
      -6.8722422377704362e-01 -1.7071762302309608e+00
      -5.7933244732873490e-01 -3.2477987916155464e+00
      2.0768077955376030e+00 -3.0971508891137589e-01
      1.6078254194965380e+00 1.8406987618098636e+00
      3.0050988630058777e-02 -2.6416204667690535e-01
      -1.2719290797060134e+00 -3.3221970576655271e+00
      -8.6998824521226259e-01 3.1432021140412894e+00
      -6.9124917243237527e-01 -4.7136223428190455e-01
      -1.8381622992232900e+00 7.5357921735322453e-01
      1.9374003720141584e+00 -1.1854381882410521e+00
      -2.5163966522536878e+00 7.8507550649774893e-01
      -1.1410445766758168e+00 -5.9784484783735392e-01
      -8.5446095080840012e-01 1.2186163755968358e+00
      2.4271535453837276e+00 -1.1238484262353010e+00
      6.6928886424559342e-01 1.9278509542739028e-01
      -1.1293418400643767e+00 -1.4238832949575113e+00
      -2.6299717549912777e-01 -1.2800126363668707e+00
      9.4564890957411618e-01 4.9225480490512424e-01
      2.9229202964941576e+00 2.8031960566194586e-01
      2.7291589427244378e-01 -2.0450067610035827e+00
      3.3223693489410748e+00 -5.1442420090435559e-01
      -4.1752353633046274e-02 1.2156534016549270e+00
      2.8334480960960531e+00 -7.6261054892235569e-01
      1.2968279161158407e+00 1.7214626098735217e-01
      8.8897494984846293e-01 -3.2361709285520819e+00
      5.4533084914600349e-01 -4.3291444707143717e-02
      6.9283991041750526e-01 1.5534225748225363e+00
      8.7059331564274800e-01 -9.7729408589025868e-01
      -1.2234893974748573e+00 -1.9749894982324212e+00
      6.9780984224478260e-01 -2.0006713392150541e-01
      -3.5214558272299518e-01 7.9899704031996555e-01
      -8.3189223807816737e-01 -1.0366382309383875e+00
      1.3634148044662999e+00 -5.2656804098287147e-01
      -2.8279246385813459e+00 -1.1145730610050268e+00
      -2.9888537692809978e+00 -7.6961253362555726e-01
      -7.2247726071247798e-02 -8.6294935967082531e-01
      1.4286432449681550e+00 -3.3013329952402587e-01
      5.7391437263051875e-02 -1.8271133023171426e+00
      -4.0749230226186270e+00 -3.9310925510926614e-01
      1.8936820244218691e+00 5.2450274319571744e-01
      -2.7287163972839490e-01 -1.4514947707375139e-01
      1.3301981831253211e+00 6.4435608326183003e-01
      1.3635700540856166e-01 -1.8231362628187364e+00
      -5.1644267049145882e-02 -3.1589639304599326e+00
      -2.3099287576995549e+00 -1.5009746737660101e+00
      1.4326428619454539e+00 1.1443901330046475e+00
      -1.0614801707390262e+00 6.0590365118639500e-01
      1.7938354594041642e-01 5.6856673268462088e-01
      -1.7548020408315372e+00 -4.3889713842113898e-01
      -1.0458767585544314e-01 9.0148743857237179e-01
      3.0364134362842682e-01 4.2165639287565746e+00
      3.0917394393050786e+00 -4.5870110995563051e-01
      -1.9962184793804196e+00 3.0536287247107050e+00
      -1.0035203347795840e+00 1.4048467343699744e+00
      7.2462126206713096e-01 3.6344292173575155e+00
      -8.6391642091779230e-01 1.6282750171166986e+00
      -8.7587908855740595e-02 -2.2028072822444211e+00
      -2.6748115607240845e+00 1.2139574885603779e+00
      1.4623198598836876e-01 -5.5647000008898384e-01
      6.3469996958316632e-01 3.3781013580329583e-01
      -4.7693198642757412e-01 -2.7275292718126338e+00
      -1.8834373829947804e+00 8.9147634817201427e-01
      7.2331194849170233e-01 3.4829353685874376e-01
      1.2428957768094759e+00 -7.2946624548886829e-01
      -1.8846219035173424e-02 1.4357797672376755e+00
      2.8819696168408832e-01 -1.2179055471933751e+00
      -1.4912319439360230e-01 -2.6612925084905004e+00
      -4.0827043725277532e+00 1.2683076998191196e+00
      -7.4680706163449040e-01 1.3083467451784152e+00
      6.9804396008112191e-01 2.9108203045931397e-01
      -7.4368237818780647e-01 -3.1891341057011555e+00
      -2.5840363549057943e-01 -4.6997114549688551e-01
      4.4118104468998343e-01 6.7457066657564013e-01
      1.2905508332654487e-02 1.5934972631387843e+00
      -2.0422403883257575e-01 1.0799510683373483e+00
      -2.7707397709626549e+00 2.5641548324636904e-01
      -2.0269424373789113e+00 -3.3867111426396539e+00
      -6.3603482376676546e-01 2.3039910086777193e+00
      8.8717353007930999e-01 8.0071724324823723e-01
      1.6616285595904627e+00 -2.2611286312962153e-01
      -5.7158408600003474e-01 -1.7222890706602059e+00
      8.4065895631293053e-01 -9.7624601803099495e-02
      2.3660897412863569e+00 3.9111742683669365e-01
      4.3027229569362655e+00 1.3757316739653956e-02
      8.5695959806187383e-02 1.0171719928911063e+00
      8.3613075281280946e-01 6.4397078990803061e-02
      -3.4120136749777646e-01 -4.0878475117118909e-02
      2.8017895086454261e+00 2.1912384562905372e+00
      8.8495049195790987e-01 1.9843562935548481e-02
      -4.2822582964530147e+00 -2.8481946578690156e+00
      8.3377477715464710e-01 -1.1098010659238723e-01
      1.9875852158251686e+00 3.0853194207058583e+00
      1.4838409559513717e+00 9.9239487137893781e-02
      -4.2709155476761262e+00 -1.1204466435656943e+00
      -7.7232844380351884e-01 1.6003278390778009e+00
      3.8837417697766639e+00 7.4166390334314702e-01
      -1.9955138789349387e+00 3.7742171759238280e-01
      1.1117361570521462e+00 1.9278733414295992e+00
      1.0743743347085022e+00 -5.7024407179662862e-01
      -1.6315116534233456e+00 -3.7816547307976660e+00
      1.5001916926225556e+00 -6.8561048387207513e-01
      1.1956197161461184e+00 -1.0653726720579753e+00
      1.6534819197745737e-01 -5.9220856126818455e-01
      -7.5540409954935372e-01 5.6064220776559326e-01
      -6.6500176300453906e-01 1.4441460823016934e+00
      -2.8997515327998830e-01 -2.3073029750824237e-01
      2.8002754357751605e+00 -1.5114306873861805e+00
      2.6752394765474663e-01 -1.8875483710272538e+00
      1.9029537000462748e-01 6.5055767869786518e-01
      -3.6084418645460583e+00 -4.1203331611903010e-01
      6.1395654466709437e-01 9.3921827786474354e-01
      -9.2032529685007941e-02 6.9160864972885461e-01
      -4.3500959994527028e-01 -3.8639575501425494e-01
      -6.3263062801505465e-01 9.5029411516939466e-01
      4.0902059743684116e-01 1.9225088455335666e+00
      -2.5941175193811405e-01 6.0464392754733440e+00
      -3.0525748035739526e+00 -3.0105938880954990e+00
      2.5120096813132413e+00 6.2958125133058340e-01
      -9.6975746671190577e-01 -1.1198801087621491e+00
      4.3794243699300145e-01 1.9668716425038089e+00
      2.8367059621239898e-01 -7.4718499098114710e-01
      -2.4980360026826000e-02 -2.3147715670017899e+00
      -3.7164774271832073e+00 4.3059828134423961e-01
      -4.2428356036664255e-02 2.4786445761606302e-01
      5.1227498153929165e+00 2.2234127349918409e+00
      -4.8133933096083914e-01 -4.1091466247637918e+00
      2.1425621800697074e+00 -2.4676839194698927e-01
      1.6586409003604730e+00 1.3785477162186224e+00
      -5.0154626021396399e-02 -6.9575983729617885e-01
      1.3936825038183547e+00 -1.8604874630522630e+00
      -1.4599586647787905e+00 -6.2296000896852013e-02
      -4.1487173218525897e-01 -1.8135101412504624e+00
      -3.0033122227160831e+00 1.3048163628677685e+00
      -1.1726402128306479e+00 1.8461326667551052e+00
      2.5590193992569715e-01 2.7853437604210851e-01
      -2.2403144102717783e-04 -1.3722471606071380e+00
      3.0836160391624806e-01 -1.6224927483402640e+00
      3.8362587550042448e-01 8.7881622085541555e-01
      -6.4767651840731966e-01 8.2824982271411918e-01
      -3.5982575513361553e-01 8.5490675347989176e-01
      -1.1198551253819353e+00 9.7841562755668285e-02
      -3.0772399636209774e-01 -2.7916833959279135e+00
      1.6718616000287869e+00 3.5291485554286511e-01
      1.3126334909887525e+00 -6.2346515211838494e-01
      1.1722171542384254e+00 -1.1973860858740071e+00
      -9.6537496380506371e-01 1.9412526933968137e+00
      -2.4399937918234353e-02 -1.0445369039618997e-02
      5.5027063849635327e-01 -1.1018513704627937e+00
      3.7962850999369975e+00 -2.3508610233379672e+00
      1.4584511385858054e-01 2.3071369019737178e+00
      1.9428513186125489e+00 -1.6372550449029151e+00
      -2.2945694632139588e+00 -4.1446952870535408e-01
      1.9423202024499082e+00 9.3810715085065305e-02
      4.1158678893114703e-01 1.6312569585976818e-02
      1.5206186007674065e+00 -1.5235435938281987e+00
      2.1963285308235142e-01 -6.3256164984273597e-02
      1.8844522507026182e+00 2.3047149597434888e+00
      1.0074701386401586e+00 -6.3944451215052001e-01
      -2.2599607238500106e+00 8.1511595403352632e-01
      8.1274845825906961e-01 9.6717944189526761e-01
      7.9897696565730991e-01 1.0207245427413829e+00
      1.3613424442640767e+00 3.2500550295376551e-01
      -2.1979038382500433e+00 -1.0544726289175888e-01
      -1.4486879417538931e+00 1.0562599756600934e+00
      -8.5293123194397547e-01 -2.5250720434721368e+00
      -1.2701251673402394e+00 -1.6780946526790759e+00
      8.1505356705179899e-01 -1.5047117816905100e+00
      -2.4879335202449829e-01 3.7951257307899922e-01
      -4.5316598256705696e+00 3.9585515806145760e-01
      -1.1479977084251355e-01 1.5638968155331308e+00
      1.9918707490792933e+00 3.6288961131298986e-01
      9.0707144818037877e-01 -1.7341641277149822e+00
      5.8246678925739062e+00 4.5032193384300140e-01
      5.6789436430136864e-01 1.1443306866506047e+00
      -2.3729357973433274e+00 3.7111863693279257e+00
      4.5745348288783694e+00 -7.7668867823310117e-02
      -9.2366319259118299e-02 1.4623526763388144e+00
      -3.2120433823938819e+00 -8.9844230783469270e-01
      3.1422998573182082e-01 -3.5484945591986455e-01
      2.4445274455003294e+00 2.1946331537098576e-01
      -1.7021274800149033e+00 1.5207946349736670e+00
      2.1535663863109571e+00 -9.2658879858704635e-01
      4.6688470678291738e+00 -3.6645155311350996e-01
      -2.6833855632680108e+00 -2.8870824888679436e-01
      -1.4351356652510985e+00 1.0483025140320537e+00
      1.4647389087889047e+00 5.3580299089147722e-02
      4.2123298186944880e-03 1.8774518568656033e+00
      7.9623687244562080e-01 -1.4007813291144577e+00
      1.5763745253566649e-01 5.3563605166421091e-01
      6.6750339677975001e-01 4.7059270291612043e-01
      2.8518508440220049e+00 -3.0857155635300209e+00
      -4.5932052281792196e-01 1.2932032295121527e+00
      2.0428953332609001e-01 -2.5045499379810782e-01
      -1.0632446341994152e-01 7.9781863774671324e-01
      6.7040124325861650e-01 -1.0591382744969058e+00
      -4.5423287562405070e+00 -1.6266996947893164e+00
      7.6565164150552911e-01 6.0241689700667145e-01
      -1.2008779662536109e+00 -9.8112666746709043e-01
      -7.4036680019779166e-01 4.3715477106828972e-02
      1.5736444018692661e+00 -1.1476618675309133e-01
      1.2768322081326513e+00 -2.9101047186171769e+00
      -4.3846328084341984e-01 -3.8016808596187157e-01
      6.8738407068948260e-01 -7.9250198125183535e-01
      3.0703143768347130e-01 1.0112575532860868e+00
      -1.8658503863816562e+00 1.1207376504195989e+00
      -7.5202312372804658e-01 2.3025382043949287e+00
      3.7954076715055646e-01 -1.2814733730345764e+00
      1.3903281041913169e+00 4.5761437200214932e+00
      4.4605355708587235e-01 -1.9084493572606054e-01
      1.5577459100654623e+00 -1.5051209424652956e+00
      -1.1025260068649214e+00 -7.2979772114346786e-01
      -2.8782981783201522e-01 -4.6570886679140368e-02
      -1.7617268538596988e+00 -8.0189831182358629e-01
      3.2097179417144500e-01 3.9560353952250735e+00
      6.3583576857473090e-01 -6.9497511900845632e-01
      7.9291889080319300e-01 -7.9064435708656711e-01
      6.9434344295515993e-01 4.6504134994441915e-01
      1.2740911489156168e+00 3.2599905853458294e-01
      4.4210939003153432e-01 -5.7395247593946291e-02
      -8.7289732496977579e-01 -9.5569666147083299e-01
      -3.2184926293580318e-01 -1.1560236963174030e-01
      -6.2418766531079917e-01 1.2195512131241089e+00
      -4.1401359387816905e-01 2.6489722627238974e+00
      1.6422561520320494e-02 8.4897054014486528e-01
      -1.7301100130664157e-01 1.1025485688013859e+00
      9.7538752552910302e-01 3.2528130522991489e-01
      5.5667474146035512e-01 -5.2819099619712828e-01
      -1.0975574766014520e+00 7.0334123286857753e-01
      -4.4871045128719950e-01 1.1701606439922774e+00
      -1.0022390958069387e+00 -1.5622986757899378e+00
      4.9253731766680325e-01 -1.7436121652251507e-01
      -4.9639360768184641e-02 1.3197099769280960e+00
      6.7530404706427618e-03 9.3143606996662609e-01
      -2.2413755369789850e+00 3.5497302372434503e-01
      1.4586175373973898e+00 1.8054364703945398e+00
      -1.4326242962428868e+00 -4.6423639724771154e-01
      7.7143219924525064e-01 1.6076030474357716e+00
      1.7347603948053127e+00 1.4460435158435347e-01
      3.2704501209124013e+00 1.5078275821570242e+00
      2.3425508969793665e-01 1.0942588297343525e+00
      2.2717048158285373e+00 1.9493064275491134e-01
      1.0070072331641848e-01 -9.9873697279087770e-01
      -1.0812783667160983e+00 1.1171134750445668e+00
      -9.1305789357157524e-02 1.2555193656790176e-01
      1.1683139617562974e-01 -1.0831025196876212e+00
      -9.5103953529668717e-01 -2.8355380896511934e-01
      6.2866418153597605e+00 3.7217187562779735e-01
      -6.2226566784141402e-01 -5.1212732423282981e-01
      1.0394464740707980e+00 2.9236403248552385e+00
      -2.3735335870337063e-02 7.8030624727726849e-01
      -2.6978002708082843e-01 8.1100958954834421e-02
      4.4697746366299156e-03 -1.0327991132646941e+00
      -3.0994207503701716e+00 -6.2130022704556331e-01
      -2.0093389140957948e-01 3.9369298520926527e-01
      -1.6448331012575657e-01 1.5462648292363479e-01
      4.8110211486027517e+00 9.9228482418735720e-02
      -3.1016575593593082e-01 9.5000188571561750e-01
      5.1962053193901370e-01 -2.2106500876984933e-01
      9.9298443528805964e-03 -1.3154652009205561e+00
      -1.0088969403192503e+00 6.3307602617811576e-01
      -3.3680254869158205e-01 -2.1566076391071515e-01
      1.8011308379759163e+00 -1.6528395423962132e+00
      4.8654338832688708e+00 -7.4296479786269976e-01
      1.8823209615254088e+00 3.5003903478907422e-01
      -3.9258115604542468e-02 -2.1342657192623871e+00
      2.4884796670618436e-02 3.6725817382803294e+00
      2.9744131053213869e+00 2.6867622328015833e-01
      1.5370254006064193e-01 1.6489462791197080e+00
      -4.1543224128511635e+00 3.5900975125606904e+00
      8.7772655113753928e-02 4.5782837497173299e+00
      9.5469402624661104e-01 5.3015681225468159e+00
      -6.4584113426251089e-02 -4.9510916023044862e+00
      -9.1346561867006120e+00 6.1064008437220774e-01
      -4.9160650473241072e-02 2.6653736317196697e+00
      1.4250390826720776e+00 -1.9152791070346116e+00
      -1.9378836835179153e-01 3.6543193942344034e+00
      1.4089531377322648e-01 7.3179046768201583e-01
      -4.8223973444819762e-01 -1.0267847812863617e-02
      -2.7780939625237633e-01 -1.1476410763288720e+00
      8.2275008731077937e-01 3.1719971554694038e+00
      4.8649703636146313e+00 2.5244063765812950e+00
      -1.1105989930114808e+00 9.4962356409460857e-01
      7.3994506358139511e-01 -3.1417355304990209e+00
      3.6862533738220560e-01 -6.0301099987437790e-01
      -2.9663458906996856e+00 7.5477358306207842e-01
      2.6513882966256175e-01 -4.0372235012826801e-01
      -7.4188974015172970e+00 -5.1975186608187973e-01
      -4.6940882934241296e-01 -4.2747170485806085e-01
      1.1401690529725005e-01 -2.9724149409120737e-01
      -9.8786824357710701e-01 9.0531111721940427e-01
      2.5300166954334058e-01 5.3513129132860771e-01
      2.2335745333268942e-01 -8.7773963746170011e-02
      9.5587951441109853e-01 -3.8920161796674746e-01
      3.6322848104800722e+00 5.6413826603620687e-01
      -6.2956937358583687e-01 5.1504048301216643e-01
      1.3821080975598770e+00 2.4424937385007994e+00
      4.4009170215113027e+00 -3.4493625488684579e-02
      2.0401881293771557e-01 5.8639476524892076e-01
      -1.1189553792270792e+00 3.6208011818102126e-01
      -5.3673633511216745e-01 -3.0813033691089925e-01
      -1.3668193044973322e-02 1.1526130376503818e+00
      -1.7676821315365907e+00 8.9406010281274657e+00
      -3.0109569059129990e+00 1.0480295289833783e+00
      1.6899990787099994e+00 1.1810327464731896e+00
      -6.0933430962782309e-01 1.4318896398514085e+00
      -2.0208916625149516e+00 1.8877478764510333e-01
      -3.9880475383403280e-01 1.1084378224198460e-01
      5.1177549325178451e-01 2.3362758341340273e-01
      4.3911552551513608e+00 -4.0298347634209913e-01
      -1.7923728959473475e+00 -2.0880663050802245e-01
      -2.0739812633086285e+00 -1.7854455061144552e+00
      -2.3929618036645968e+00 2.6921397468251898e+00
      -1.8714132203831588e+00 1.1849994727814110e-01
      1.6070802873890491e+00 3.8128130835481508e+00
      -1.5983803672827255e+00 -2.5962344691881820e+00
      -3.6643562867137092e-01 1.9962118771826243e+00
      2.0416207284354887e-01 1.0939602319719413e+00
      -1.7920530113024116e-01 1.2710885744972613e+00
      -1.4779889792790870e-02 -1.8864918154343000e+00
      -1.2995736877287400e+00 -3.2186218646860382e-01
      -3.4776563881272247e+00 2.9050437023106174e-01
      2.2969705621124206e+00 9.7702753734572623e-01
      -3.7482094302675231e+00 -1.5509162246623314e+00
      3.1487476890055017e+00 -1.3530008251291339e+00
      -1.3973322940348867e+00 4.4314079208860839e+00
      4.6616573538184441e-01 3.5113045715640590e-01
      -1.3554653376768097e-01 3.2153384673468977e+00
      -1.5749133993333355e+00 -5.9263053017936984e-01
      -9.0144504944413528e-01 -2.1043926962401036e+00
      -4.3350482410425109e+00 2.0856057676704434e-01
      -1.8050817089301718e+00 5.8104251721515077e-01
      -1.4646764184520082e+00 -7.6212475922869194e-01
      3.6753309801867524e+00 4.4936938667656096e-01
      3.0632331398060684e+00 1.0916058925118752e+00
      -2.6757735026710283e+00 5.9644307590146308e+00
      3.9154418208528461e+00 8.2976904757584224e-01
      7.6612599718110672e-02 3.1708213816071179e-01
      -2.2484534098018476e+00 -9.3090531271445920e-01
      -1.6237379526174813e+00 -1.9933503329613109e+00
      -3.2473996001043179e+00 1.5491855206843337e+00
      6.3889349180416632e-01 -4.9725674625846210e+00
      -2.1224674271395755e-01 1.1223325459291420e+00
      -3.6387315789244217e+00 -4.9247882504269963e-01
      -1.0954527655162709e+00 5.3980814178373215e+00
      -1.7243477755822640e+00 -9.7918705088849256e-01
      -5.2175394225812335e+00 9.3212032522589972e-02
      6.0943268813171922e+00 6.7662246921874780e-01
      1.4950472205310066e+00 -2.4715498695901168e+00
      -3.3976384146629018e-01 1.2240226880783441e-01
      -6.2437300956898721e-02 3.3069829642938031e-01
      -1.2492817615053664e+00 -4.5585564543058080e-02
      -2.7471698840109915e+00 2.1114863741844321e+00
      -3.8922527926698547e+00 1.6397326178226481e+00
      8.3905130297636965e-01 4.4485792505840331e+00
      1.9039886989365129e+00 2.2154258627776686e+00
      1.5723077076705982e+00 1.6759071497150302e+00
      2.8849829534857858e+00 1.2080280640156931e+00
      2.7131651691148179e-01 -7.1906769697102177e+00
      1.4413137290425888e+00 1.8148169486649790e-01
      2.6151883157048053e+00 6.9225391244538848e-01
      -9.6850352968050757e-01 4.1306215155341547e-01
      6.4978992836983673e-01 2.6905377840979257e+00
      6.1727869934387523e-02 1.9333667897892970e+00
      -5.0227211455357434e-01 -6.4989570419533693e-01
      -2.4926429262352823e+00 -5.7845716735551012e-01
      1.6515384455142601e+00 2.3595735901097705e+00
      -1.9303683903452844e+00 1.5681935814883172e+00
      -2.6584578388530500e+00 -1.3847153859585073e+00
      2.8319224070995441e-01 1.3459856323261217e+00
      7.3114073012751934e-01 -2.5371339226888129e-01
      6.3044411296110847e-01 -6.6543896829812743e-01
      1.3507918911704688e+00 1.6629096607714053e-01
      -1.3716416290638149e+00 2.3401900423884432e+00
      2.6894173225289051e+00 -1.9118778742660775e-01
      1.2442850639713886e-01 -1.2067245390515224e+00
      9.1152102786304401e-01 -1.1020008999704849e+00
      -2.4327058753410882e-01 1.4404309492534764e+00
      -1.3378619880748497e+00 3.1493158958581127e+00
      8.2213968231269877e-02 -1.8494567635952912e+00
      -1.1201263141770459e+00 -2.1415180231683979e+00
      1.2769746239313389e+00 2.3415143579297468e-01
      -1.4333025847392747e-01 -1.6184850342878307e+00
      3.3571153520628982e-01 1.2020786056836612e-01
      -3.4275832338803429e-02 -2.3183301424216554e-01
      -3.0524209215085891e+00 6.7864769289505844e-01
      -1.7186378187180531e+00 6.1730592408594875e-01
      -1.8220912598625365e+00 5.5830935890160649e-01
      -7.3654717662989222e-01 3.8753167799697436e-01
      -3.6030080626118749e-01 -2.7571343535839041e+00
      -2.0942770602651941e+00 -4.4856674878028491e+00
      1.9418113509842867e+00 1.3646391383599650e+00
      5.6463278339534628e-01 5.5524762336229050e-01
      -2.6699010660896403e+00 9.7802469771026761e+00
      1.0815158423165179e+00 8.9912696439992709e-02
      7.8437832735952986e+00 -9.8030841790283745e+00
      -5.4318647307226069e+00 -7.1520652769402806e-03
      4.7550150827921325e+00 2.1253168837640275e+00
      2.0654132264790976e+00 1.0794777263925577e+00
      -6.3459844420839695e-01 1.3651029508807515e+00
      -4.9552770417906054e+00 4.8107952279016269e-01
      1.5349459227415466e-01 -1.7141012885610046e-01
      -5.6078114485532737e-01 -1.7514340762115330e+00
      1.8257111429005982e-01 -2.1910524876011552e-02
      -4.7823698694325495e-01 1.2547940740698542e+00
      7.9022017474225192e-01 -1.1713782024751176e+00
      1.7772077241814996e+00 1.6228806738898243e+00
      -8.3070853293735314e-02 -1.4923984144712824e-01
      -1.2127447386307417e+00 -4.8313505857198610e-02
      2.7224708656409330e-01 -2.0198566841034177e-01
      2.0259584485398099e+00 6.3032209963657360e-01
      -3.0347310964636098e-01 8.7999185052878488e+00
      -5.9954455355958658e-01 -2.6403104986165417e-02
      2.7948997777043633e-01 -2.4528447073976550e-01
      2.7107314255593984e-01 -9.0852735026948250e-01
      -2.4143115297763978e-01 8.2208236765723298e-03
      -5.3841758904949852e+00 9.6561609257587733e-01
      -9.4207990143591575e-02 3.0784963497001860e-01
      -6.2742055714393388e+00 3.4349884173012449e-02
      6.7412238446777531e-02 -1.8063331385724188e+00
      -1.0180741560086400e+01 8.4749584491026250e-02
      7.7031156450047922e-01 -9.1904896096940769e-01
      1.2723152388957071e-01 7.6347755382935620e+00
      6.1506330348860250e-01 9.3301367277726310e-02
      8.9902354951902053e-01 5.8540562241019750e-02
      1.3395002190693499e-02 2.6837424921272446e-02
      2.3957576178117460e-02 -2.6821544549140430e-02
      -2.0043090921720963e-02 1.8906353028815021e-02
      -7.9879851620216786e-03 -2.9384466344974568e-02
      -1.7010534531382519e-02 3.0257951797496491e-02
      1.9547668380609711e-02 -3.7206367048513980e-03
      3.2649084006069549e-02 -1.2549700820882831e-02
      2.2027853301848213e-02 2.5173966425761338e-02
      -5.9492413668341447e-03 7.6537364319964000e-03
      2.8779346007827795e-02 -1.3676273886313133e-02
      1.7062410267448529e-02 -2.4701470116840679e-02
      1.0349213399550613e-03 -1.8549364163964216e-02
      -1.7932758481440277e-03 -2.0528506780064602e-02
      2.7719119536705427e-02 -2.8321641879670748e-02
      -4.7442279088145177e-03 -5.5449333733097054e-04
      -7.2351175539557139e-03 1.7539268024908291e-02
      -1.1198549975332799e-02 -1.5561845143405337e-02
      1.6411409123914301e-02 -2.8125557904759825e-02
      6.6333641287473480e-03 2.8099826408276599e-04
      -3.8894430906690485e-03 1.2498282843271504e-02
      2.8260682800294510e-02 6.2898398474763471e-03
      -2.1915226622441063e-02 1.9251091826023938e-02
      -1.8778407807745146e-02 7.0068289390669046e-03
      -3.2081761512620106e-02 2.0974666535812602e-02
      1.8957399067253442e-02 2.5847159983104599e-02
      1.0541448611983337e-02 -2.1157739800985606e-02
      -2.4049598605598455e-02 -1.9686357218694252e-02
      1.9425735407825124e-02 -5.0154426720266775e-03
      -1.5083586001046530e-02 1.7858953623331154e-02
      2.8844781993596301e-03 -1.2097719311998026e-02
      -9.4901112079070690e-03 -9.0103207053903872e-03
      2.9413561943121428e-03 -8.5756129090241179e-03
      1.3049150128435391e-02 -3.1720762941216986e-02
      1.2774938648665430e+00 2.8490642940957596e+00
      -3.8796051420329367e+00 -5.1530069532237166e-01
      8.0106301617180276e-01 -8.4831868901613077e-03
      -5.8746143274872142e-01 3.9305786075243430e+00
      1.8357950675640395e+00 8.2124403377596722e-01
      -2.2530365276772904e-01 1.0525923892821178e-02
      -6.0839281363849163e-01 4.7388218392614762e-01
      -4.9844743504914168e-01 -5.8296487482623061e-01
      4.6330142367882016e-01 -1.7674124192519010e+00
      1.1635924030403855e+00 9.8246654097160990e-01
      7.4667117509507086e-01 -7.9572850933381023e-01
      1.5601273275736391e+00 -6.9332093961996977e-01
      7.8037082433900262e-01 -1.0319155049298314e+00
      2.1680936754146449e+00 -5.7901152530081867e-01
      3.0158285337609447e-01 -1.3829012140195537e-01
      1.1388743327468120e+00 -3.9820141639991000e+00
      -1.4731143215888389e+00 6.8386209421023991e-01
      2.1521331705807687e+00 -2.1809231443371417e+00
      -3.5573498313506375e+00 1.0103206525324160e+00
      3.1724394633728930e-03 -5.4634954905656707e-01
      2.2638720660719449e+00 -2.4744120771229648e-02
      2.7876545303047719e+00 8.7204420207460095e-02
      -1.6604411989723327e+00 1.2700377574634567e+00
      3.4224602219092177e+00 -1.9922067767172869e-01
      1.4200927179605349e+00 4.6309998042417705e-01
      4.7194151498373228e-02 4.4088342360737348e-01
      2.3775665653857181e+00 1.9387489254505506e+00
      -1.3892761239077187e+00 2.3236189686581805e+00
      2.4567037747867113e+00 -2.8226075706472553e-01
      1.0560011112222474e-01 -1.0764525855449794e+00
      -3.2310662946964555e+00 -1.3540117175220441e+00
      8.2587002401914120e-02 -2.9942128092971156e+00
      1.3083234020898551e-01 -4.9730815452739113e-01
      3.3064962596186396e+00 5.2763921332683603e+00
      -8.7081029477242411e-01 2.2193301003502084e+00
      -3.0496526496742959e-01 1.3277684142340209e+00
      -3.1269551336098975e+00 -3.0749099955848362e+00
      -9.2938518872679476e-01 -1.8219808958911099e+00
      1.4462907769808426e+00 7.9597475184127664e-01
      2.0938433098920717e+00 -8.9284482117518538e-01
      -3.7752934618498712e+00 -6.7567687248126940e-01
      -1.2553839844461252e+00 2.9749243564898085e+00
      1.1154189943122872e+00 -1.6693688653084151e+00
      5.7044326516720867e-01 -2.5807375580324314e+00
      -2.5606004290783874e-01 -7.9834859376428513e-01
      1.4076218677368211e+00 6.1895440381143523e+00
      4.2507033707982346e-02 -1.3324096814110360e+00
      -6.4343143780074652e-01 2.5048620919033819e+00
      3.2756738671328361e-01 1.7452041668254539e+00
      1.8843309301861073e+01 -5.6062362191226234e-01
      1.8442152447390496e+00 4.7517079449729653e+00
      2.2594153436303435e+00 4.3351680115203850e+00
      -1.6840240689153616e+00 1.7359040473545360e+00
      4.7579756989971500e+00 -2.1413990823944378e+00
      -2.8650904383308157e-01 -2.0144148491064775e+00
      2.3142993162423551e+00 -3.1886158569317558e+00
      2.5145897155649499e-01 5.0337852980485458e+00
      1.3154469333206087e-01 5.6029430015503989e-01
      1.1774320668965009e+01 2.2170978257074978e+00
      9.8374782711215913e-02 3.0345010813655851e+00
      -3.5205125371698829e+00 3.7324657504294301e+00
      5.1567449080097527e-01 -5.8438832392064288e+00
      -1.2065076208477954e+00 2.0069440453040270e+00
      -9.8522523619787930e-03 2.4770909302181177e+00
      3.6264158893062497e+00 3.3083630223999114e-02
      1.3147469660034969e+00 -1.6326309155663623e+00
      3.9667942187783036e+00 1.9754019738000590e+00
      -6.7706877195341617e+00 2.0493401366436320e-01
      3.9810758894284243e-01 2.8513074109704890e+00
      -6.2918137581812125e-02 1.1485908814917534e+00
      -7.9444261341968386e-02 7.6156233758501413e-01
      -3.8801211505021871e+00 -1.4642384054676336e+00
      2.7218515785312536e-01 7.6167052100533283e-01
      -8.4207223339274284e-01 -2.6105051164169972e+00
      -1.0208088201267467e+00 1.8576542700793972e-01
      -4.0943233153002306e-01 -4.5391270678111404e+00
      1.3859000857905037e+00 -6.4758573592718272e-01
      2.4822086346693202e+00 2.9352092840255978e-01
      -1.5834564546164536e+00 3.4963571080365705e+00
      -1.0323102328727519e-01 -1.1076252272196321e-01
      -2.3472016687541508e-01 -8.3919424844625490e-01
      2.0281846892773553e-01 -5.1110059693055743e-01
      -7.0410369831372044e-01 -2.1672751918696105e+00
      -2.0369704319794741e+00 -2.9553807310153130e-01
      -4.7066328324488742e+00 -2.0924656640442021e+00
      1.3108605839583058e+00 -3.6211615834235618e+00
      3.3546529756367698e+00 -1.8506533524248785e-02
      7.1230779285207992e+00 -1.2268733063994985e+00
      2.0731018391220966e+00 2.1084034450589392e-01
      -5.0686117663940300e-01 7.8972247915921312e-01
      -8.5037637448909034e-02 -2.6648322593279659e+00
      2.9448870451458087e-01 2.2673192307682126e+00
      -3.1600049534807555e+00 -9.9087328172653344e-01
      -2.8452217642620830e+00 3.1329635030980123e+00
      4.1930410233163844e+00 -5.8440749569622874e-01
      -4.9570006237367963e+00 1.6061347421377403e+00
      -2.7245401009761157e+00 3.0608177239343620e-01
      3.6064472844898482e-01 1.5513367005376517e-02
      -6.2821926720879875e-03 -5.1697567085539336e-03
      1.3012634572125365e-03 6.0286935141351562e-03
      -1.8704671510690891e-02 2.2781650256817325e-02
      9.6827994959205708e-03 -1.2710362840096185e-02
      1.4325236862779424e-02 -1.3797449501749793e-02
      -6.4298432901091964e-03 -1.7538218892524694e-02
      2.8417672707072078e-03 -2.7701408770566156e-02
      -2.4461366134139319e-02 9.5137169996723382e-03
      -2.8667664512961443e-02 1.2164515956371568e-02
      1.2533517299747247e-02 9.2854180704002153e-03
      5.0562757426818612e-03 1.6442479321819945e-02
      5.1955602643032010e-03 -3.5916073131778002e-03
      3.1241482621934418e-02 -8.8908200461376154e-04
      1.8670151614732160e-02 1.3910467620825137e-02
      5.9514090432617598e-04 2.2812047375482303e-02
      9.3738318795403772e-03 -2.5441760345492042e-02
      -2.5474065814644679e-02 2.0058205381583330e-02
      2.6243796709312459e-02 -2.5998331628327764e-02
      1.8257240561068071e-03 -1.7509250287469295e-02
      -7.0954339909863572e-03 -4.4570637485858815e-03
      3.7611911085802235e-03 -1.0874042470857307e-02
      1.0929502327288700e-02 -2.6606664535407703e-02
      4.2185286641525229e-03 8.9405847132678646e-03
      1.9367708643476553e-03 1.8628933932840944e-02
      -2.1227906440844765e-02 1.5946001908834283e-02
      1.6352067354618281e-02 -1.3407248187075895e-02
      2.3056858075809115e-02 7.6289024369267603e-03
      3.0943364711931109e-02 -1.0350430272038467e-02
      -1.9937597558803522e-02 -7.0648652851739643e-03
      2.4206820578803252e-02 -3.1737670795863211e-02
      2.9707725814341123e-02 1.0687107477979577e-02
      5.4108157985813211e-03 -2.1964319604691534e-03
      -8.5666052028009740e-02 -3.6293295119167696e-01
      -4.3228898279052387e-02 1.3228573718638598e-01
      -4.3227638711183619e-01 2.5031879528811646e-01
      -5.4179406324932018e-02 -5.9492922842625029e-02
      -4.5072661034990823e-02 3.6136622044800559e-01
      1.1012046939209882e-01 -2.2098788231095718e+00
      2.0450802709996915e-01 -1.2168262466175900e-01
      6.4820068660350574e-02 -1.8491537841072939e-01
      -3.3940270597185607e-01 1.0819818264119882e-02
      -3.2982073872471991e-02 8.4822210579751325e-02
      2.1073155911776942e-01 -6.9383141898891665e-01
      1.8714737937551804e-01 -5.5652538944478719e-02
      -6.6692616335568685e-03 1.3642594589348708e-01
      -3.2375218282602863e-01 -2.7800085043969530e-01
      3.5557170464450810e-01 -3.2409028257303202e-01
      1.2606161933894430e-01 -8.1827108781249347e-01
      5.8073416360027297e-01 8.1889673034668126e-02
      -1.4503488927552979e-01 -9.5499008899048943e-02
      -9.2134219543401508e-02 -1.1937816354266602e-01
      -1.9306566030867528e-01 -1.4611246509778862e-03
      3.8387715184027067e-02 5.9794271352539806e-02
      9.4362720174047010e-02 -2.5294903458032123e+00
      1.2860375585571787e-01 4.6590360828752536e-02
      1.4093085634999017e-01 -3.2554637069908893e-01
      1.0333936082614718e-01 -4.1100383441457736e-02
      1.2076897980500313e-01 3.8402832919584812e-01
      2.4860814010707216e-01 1.5959317011068876e+00
      9.6592889185987352e-02 -8.5711067746066891e-02
      -4.6349772074381831e-02 2.7908902229290757e+00
      -8.0924984530634098e-02 -7.9408410946789382e-02
      4.7050611587125901e-01 -7.8295568435383642e-02
      4.9106396059535268e-01 4.7919535665857615e-01
      5.3056768286257189e-02 2.7792479354956909e+00
      2.2494213955891298e+00 -6.6809792019959624e-01
      1.9542901526517540e+00 -1.0442231787630500e+00
      -1.7387741828272598e-02 -9.4661217514664864e-01
      6.5313064553651701e-01 2.4807397714771837e+00
      1.5371298909897984e+00 -1.7485637128969067e+00
      -1.7477269538712517e+00 -1.6275316544224980e+00
      5.0144281683101852e-02 -1.0819314961475974e+00
      1.5698574171725912e+00 5.4477644882935361e-01
      1.3392874974485829e+00 -9.3250037484490100e-01
      1.0581215189940080e-01 1.0515327330828712e+00
      1.0977633655006919e-01 5.8691280651012168e-01
      -3.2984408180191811e+00 -2.8885687181143749e-01
      -1.2708304747419683e+00 -1.0693925756293812e+00
      -2.4914434280103377e+00 -6.9652006072744943e-01
      -3.0780886971832371e+00 -3.0000845385550270e+00
      -1.4345107801852204e+00 5.1578426557724344e-01
      3.1874891845286524e-01 2.8159496429565363e+00
      -8.7457993924696331e-01 1.3343345576321117e+00
      -4.9522544284623538e-01 6.7572594306260669e-01
      5.3975799442625174e+00 3.2483285872041643e+00
      -2.8548104126903278e+00 1.0556041841665307e+00
      -6.0219187419990972e-01 -2.4701517180259431e+00
      2.4233781968427954e+00 -3.2023688999269284e-01
      3.0427264441357510e-01 -1.2827291850707696e+00
      7.0679206114973891e-01 8.5976314035143253e-01
      -1.5171801805947909e+00 7.5654188489368523e-01
      5.0219449516246639e-01 1.7228964528583399e+00
      8.0740808679506537e-01 5.7380066575602950e-01
      3.4514149013735551e+00 5.6991477870161934e-03
      -2.2606939029571840e+00 -1.1852388455484171e+00
      -1.5884169981632759e+00 -1.5640123360972604e+00
      -1.2842935325847309e+00 -2.4847068561733381e+00
      -2.1181915365807821e-01 2.9788840881452611e-01
      3.2118168835540795e+00 -1.1650921527922751e+00
      1.5186994622086234e+00 3.2891885977555069e-01
      -8.4570897136241441e-02 7.0101674603163500e-01
      6.2515137683359323e-01 -1.9475627439161229e+00
      -2.8186459495393739e+00 -2.1262742536863999e+00
      1.0908102557983119e+00 -7.2700728048893315e-01
      7.2777517030481054e-01 -3.4195465463743346e+00
      -3.2260396154762199e+00 -3.7292473116728728e+00
      3.3044820441962734e+00 1.6589143519238676e+00
      -1.3047710039422584e+00 -8.1923749832674053e-01
      2.8206285154802535e-01 -9.7573232092938667e-02
      2.4609961720936733e+00 2.3520117979315991e+00
      5.6586208504670807e+00 5.9219883377914595e+00
      9.7701917332610810e-01 -1.1133200658504656e+00
      1.6569527750509908e-01 5.6061898778733554e-01
      6.9930337792010444e-01 6.5893546309531659e-01
      -5.1654195270598813e-01 -2.5085093577207322e+00
      -9.9505732413122294e-01 4.5232166038798394e-01
      2.4429585590006710e+00 -2.0594699491295874e+00
      -1.1556304914613902e-02 -3.8983366081338198e+00
      -2.1515326046144499e-02 2.2743281487768530e-01
      -8.2154106849166297e-02 1.3921315294407405e-01
      -8.4453570557820978e-01 -1.5400056003525023e-02
      4.4738568760680062e+00 2.8820154073906696e+00
      1.1973992475779560e+00 3.1306184974327058e+00
      1.6533038924585031e+00 -1.2862243336953001e+00
      1.1069978427749314e+00 -2.1615395973274865e+00
      -1.3886994098699081e+00 -3.3754688165866682e+00
      -2.0997662082158715e+00 5.4719862198535318e-01
      -1.4877012084842276e+00 1.5341027710136854e+00
      1.5050516926063835e+00 -4.1334231839204516e-01
      1.3093511882535471e+00 2.0661897667918390e+00
      1.3909158056282300e+00 -8.8426291903315757e-01
      2.6881314680754623e-02 3.4313542112839448e+00
      -4.8286709876407458e-01 2.7818369086576161e-01
      3.4598773949349932e+00 1.1142003787362120e-01
      1.4557757360063124e+00 3.5708452344841030e-01
      1.4686074814024965e+00 1.4284354160296144e+00
      4.3161119407993465e-01 -6.7351359636164065e-01
      -1.0815763126006044e+00 2.9530501394765158e+00
      1.9988224665364576e+00 -2.1886151218478855e+00
      1.0439027986196285e+00 -2.7858341170094986e-01
      -8.3100217809928226e-02 -1.8379096120405571e+00
      -2.9512574180657918e+00 1.3567404687153319e+00
      -8.0843680569715826e-01 -3.2045267013071719e+00
      -4.6764810135346373e+00 -4.2877375336778295e-01
      -2.8121526329986666e+00 -3.2573772892077062e+00
      1.0527245378952929e-01 3.2388218787102868e-01
      2.2991206294876863e+00 3.6345447153415384e+00
      -2.4092112307112523e+00 -1.4167584056232785e+00
      3.8538677083683881e+00 -2.1421471541893395e+00
      -8.1270476542898396e-01 4.0253099559525840e-01
      -3.5442256976470671e-01 1.1262001649195712e+00
      -2.9029703533423379e-01 2.7939077039459712e+00
      4.5277064697662874e+00 -3.3136201664139442e-01
      -6.3421940487788930e-02 -2.7408820722108058e+00
      -7.2047987226173682e-01 1.3477741897554059e+00
      -1.4634562548390058e+00 6.3205189646385795e-01
      5.0116714363181716e+00 -4.4580989695568443e+00
      -4.9773865126217237e-01 6.2957067711571824e-01
      9.8065142972737507e-01 2.2187841662439252e+00
