<?xml version="1.0"?>
<opencv_storage>
<opencv_ml_ann_mlp>
  <format>3</format>
  <layer_sizes>
    65 65 30</layer_sizes>
  <activation_function>SIGMOID_SYM</activation_function>
  <f_param1>6.6666666666666663e-01</f_param1>
  <f_param2>1.7159000000000000e+00</f_param2>
  <min_val>-9.4999999999999996e-01</min_val>
  <max_val>9.4999999999999996e-01</max_val>
  <min_val1>-9.7999999999999998e-01</min_val1>
  <max_val1>9.7999999999999998e-01</max_val1>
  <training_params>
    <train_method>BACKPROP</train_method>
    <dw_scale>1.0000000000000001e-01</dw_scale>
    <moment_scale>1.0000000000000001e-01</moment_scale>
    <term_criteria>
      <epsilon>1.0000000000000000e-04</epsilon>
      <iterations>5000</iterations></term_criteria></training_params>
  <input_scale>
    1. 0. 1. 0. 4.1562489646717395e+01 -2.9062646414687341e-02
    1.5602350693735804e+01 -1.2521561234309328e-01
    5.4705562408894055e+00 -3.8112947434183636e-01
    3.2796700613039134e+00 -1.0901989585853045e+00
    4.3233914695674276e+00 -2.9650830433950848e+00
    4.0849604965213651e+00 -3.0605497420798193e+00
    4.0534286961255512e+00 -2.9641796754421055e+00
    4.4584822830894097e+00 -3.4420152969795303e+00
    4.1604078379615874e+00 -3.1669477999769096e+00
    4.6585664234527897e+00 -3.7799544100665110e+00
    4.5715736945532139e+00 -3.5184448554882906e+00
    3.7166329165890430e+00 -2.3014053176939075e+00
    3.7497685857031011e+00 -7.8697080838256073e-01
    8.4975476070821951e+00 -2.5314113296897883e-01
    3.2452909567416548e+01 -8.4072745945533461e-02
    1.0785157564469520e+02 -3.7816145581288360e-02 1. 0. 1. 0.
    8.1569827006097171e+00 -2.6681858222223331e-01
    3.9137055323021843e+00 -8.2841905294096618e-01
    3.4637774635801293e+00 -1.9169164704322164e+00
    4.0918211265388971e+00 -2.8485247167863768e+00
    3.7275291547869931e+00 -2.5259080767629380e+00
    3.5730921241904099e+00 -2.3524210261602283e+00
    3.6019486937996201e+00 -2.3886732373879549e+00
    3.6385819371417356e+00 -2.4850073798723598e+00
    4.0764627144378540e+00 -2.8988900273864679e+00
    4.1583757331091293e+00 -2.8364697588237227e+00
    3.9358795406405496e+00 -2.6801450786213197e+00
    4.6902262353101873e+00 -3.4783945557137663e+00
    3.9128266336181978e+00 -2.5621639600079371e+00
    4.6824039450631370e+00 -3.2760282769961315e+00
    4.6988312322991632e+00 -3.1876450167911163e+00
    4.5887807812385466e+00 -3.0741264447175087e+00
    4.6761140727664863e+00 -3.0366127846065534e+00
    4.5132410925746029e+00 -2.7289876314775308e+00
    3.8700720771555526e+00 -1.7258198238353339e+00
    4.2281583609863693e+00 -6.8539366266058321e-01
    5.6513279547210804e-01 -2.2129526988628800e-02
    1.6498785832748105e-02 -8.3319272243577458e-01
    1.3227136066683525e-02 -1.3232704024107582e+00
    1.8405075836351679e-02 -6.4413261003384492e-01 1. 0.
    2.9958572775795977e-01 -3.0501141152058556e-02
    1.2396175419050123e-02 -1.3803138295295518e+00
    1.1673406607031747e-02 -1.8669851143552632e+00
    1.3457422147595287e-02 -1.1512254864098033e+00
    9.4188799245351340e-01 -2.2129526988628800e-02
    5.6513279547210804e-01 -2.2129526988628800e-02
    1.2310197376697666e-02 -1.1642204972791301e+00
    1.3975112766210891e-02 -2.5103762524944702e+00
    1.4013359406713315e-02 -1.1522301288389245e+00
    5.3800230979507635e-01 -3.0810704966237855e-02
    5.6513279547210804e-01 -2.2129526988628800e-02
    1.2882932322513529e-02 -1.3643674836164059e+00
    1.2383390321289304e-02 -1.9478291057937538e+00
    1.2863528719053731e-02 -1.1340179654791440e+00
    6.4586605196812350e+00 -2.2129526988628804e-02
    3.1598073913604341e-01 -2.9695693545824929e-02
    1.3509905128436110e-02 -1.0356998781795361e+00
    1.2427094621433240e-02 -1.5043414708839438e+00
    1.2754125687563208e-02 -1.0026378414962196e+00 1. 0.</input_scale>
  <output_scale>
    5.2631578947368418e-01 4.9999999999999994e-01 5.2631578947368418e-01
    4.9999999999999994e-01 5.2631578947368418e-01 4.9999999999999994e-01
    5.2631578947368418e-01 4.9999999999999994e-01 5.2631578947368418e-01
    4.9999999999999994e-01 5.2631578947368418e-01 4.9999999999999994e-01
    5.2631578947368418e-01 4.9999999999999994e-01 5.2631578947368418e-01
    4.9999999999999994e-01 5.2631578947368418e-01 4.9999999999999994e-01
    5.2631578947368418e-01 4.9999999999999994e-01 5.2631578947368418e-01
    4.9999999999999994e-01 5.2631578947368418e-01 4.9999999999999994e-01
    5.2631578947368418e-01 4.9999999999999994e-01 5.2631578947368418e-01
    4.9999999999999994e-01 5.2631578947368418e-01 4.9999999999999994e-01
    5.2631578947368418e-01 4.9999999999999994e-01 5.2631578947368418e-01
    4.9999999999999994e-01 5.2631578947368418e-01 4.9999999999999994e-01
    5.2631578947368418e-01 4.9999999999999994e-01 5.2631578947368418e-01
    4.9999999999999994e-01 5.2631578947368418e-01 4.9999999999999994e-01
    5.2631578947368418e-01 4.9999999999999994e-01 5.2631578947368418e-01
    4.9999999999999994e-01 5.2631578947368418e-01 4.9999999999999994e-01
    5.2631578947368418e-01 4.9999999999999994e-01 5.2631578947368418e-01
    4.9999999999999994e-01 5.2631578947368418e-01 4.9999999999999994e-01
    5.2631578947368418e-01 4.9999999999999994e-01 5.2631578947368418e-01
    4.9999999999999994e-01 5.2631578947368418e-01 4.9999999999999994e-01</output_scale>
  <inv_output_scale>
    1.8999999999999999e+00 -9.4999999999999996e-01
    1.8999999999999999e+00 -9.4999999999999996e-01
    1.8999999999999999e+00 -9.4999999999999996e-01
    1.8999999999999999e+00 -9.4999999999999996e-01
    1.8999999999999999e+00 -9.4999999999999996e-01
    1.8999999999999999e+00 -9.4999999999999996e-01
    1.8999999999999999e+00 -9.4999999999999996e-01
    1.8999999999999999e+00 -9.4999999999999996e-01
    1.8999999999999999e+00 -9.4999999999999996e-01
    1.8999999999999999e+00 -9.4999999999999996e-01
    1.8999999999999999e+00 -9.4999999999999996e-01
    1.8999999999999999e+00 -9.4999999999999996e-01
    1.8999999999999999e+00 -9.4999999999999996e-01
    1.8999999999999999e+00 -9.4999999999999996e-01
    1.8999999999999999e+00 -9.4999999999999996e-01
    1.8999999999999999e+00 -9.4999999999999996e-01
    1.8999999999999999e+00 -9.4999999999999996e-01
    1.8999999999999999e+00 -9.4999999999999996e-01
    1.8999999999999999e+00 -9.4999999999999996e-01
    1.8999999999999999e+00 -9.4999999999999996e-01
    1.8999999999999999e+00 -9.4999999999999996e-01
    1.8999999999999999e+00 -9.4999999999999996e-01
    1.8999999999999999e+00 -9.4999999999999996e-01
    1.8999999999999999e+00 -9.4999999999999996e-01
    1.8999999999999999e+00 -9.4999999999999996e-01
    1.8999999999999999e+00 -9.4999999999999996e-01
    1.8999999999999999e+00 -9.4999999999999996e-01
    1.8999999999999999e+00 -9.4999999999999996e-01
    1.8999999999999999e+00 -9.4999999999999996e-01
    1.8999999999999999e+00 -9.4999999999999996e-01</inv_output_scale>
  <weights>
    <_>
      -2.5682488904807368e-02 2.4904193724546345e-02
      2.5174033636219256e-02 1.4731863933791379e-02
      -2.0267689784514362e-02 -1.6822790642892400e-02
      -1.8197461667975062e-02 -2.2954143662520365e-02
      8.3576541739475117e-03 2.1084556908152505e-02
      8.3601450776176079e-03 -1.4885810359865023e-02
      1.6550792992678483e-02 -9.0691831483850540e-03
      4.3248099886675885e-03 -5.6954897725600626e-03
      2.0819211425129033e-02 1.6554031990729766e-03
      3.1248145323602306e-02 -1.9772252123090108e-02
      1.9870036440901479e-02 6.0884661826592660e-03
      -2.8284895672105580e-02 -1.4294564254816712e-02
      1.1138075694844374e-02 2.8732208824541864e-02
      3.5076325183127765e-04 -1.6252898127208648e-02
      3.1515744034611881e-02 -5.2429677502790727e-03
      -2.4853060242123720e-02 -1.8872721361151579e-02
      -2.5665379243542324e-02 -9.4957335359956846e-03
      6.8435296185759978e-03 -1.7881262395589917e-03
      -1.8749899901251040e-02 -2.1020325275377404e-02
      -2.0509368602578949e-02 -2.7721048572561437e-02
      -3.8331901368104574e-04 2.0526005927939617e-02
      2.7107860115797269e-02 1.5861521209692708e-02
      -2.5069913543625907e-02 1.7047743543432275e-02
      -7.4043151393401452e-03 -2.6849124533587350e-02
      2.4580035764297115e-02 -2.4447176938645725e-02
      2.8708600225710441e-02 1.6507648108065633e-02
      -6.7546854795963694e-03 -2.4581745358855229e-02
      -7.7465056608642079e-03 2.4936866018331290e-02
      -2.2086946387193232e-02 1.8776198622867321e-02
      2.5565085813245372e-02 -2.2404623898492796e-02
      7.3571448967548391e-03 6.0523080250549149e-03
      2.9534014400111306e-02 2.4990565656039725e-02
      -2.6912435287777686e-02 5.4850714550927701e-03
      -1.9466457653699837e-02 6.9844012810735294e-03
      2.2512433893386682e-02 -2.3206685626703062e-02
      -2.5289356894481578e-02 2.3386230244609986e-02
      1.2655044708560327e-02 -8.3448319078102857e-03
      -1.3753032560661746e-02 1.3534466848133262e-02
      -1.8072650538440711e-02 -1.0726165708434652e-02
      -2.4400590707398306e-02 2.0960269654810883e-02
      -2.1933021141726291e-02 1.7836965056626138e-02
      -1.6365018346645350e-04 -3.2259600589145725e-02
      -2.4862596615904495e-02 3.1075047550963159e-02
      -2.0215091122517794e-03 2.6758568705552099e-02
      3.0075115490757723e-03 1.4040116559163790e-02
      1.3598015345070526e-02 2.9399968116406650e-02
      3.1428001057350573e-02 -2.2963148879822436e-02
      -1.1160394974173938e-02 -1.8038706019920803e-02
      -2.2824817416202264e-03 2.0068929678490840e-03
      3.1474880975087029e-02 -1.8028050074545179e-03
      3.2076544926593252e-02 -1.3757533252062467e-03
      -1.3337224392471734e-02 4.5436961248532109e-03
      1.2916488266913870e-02 -2.1137258837192401e-02
      1.5386297156868765e-02 1.9300762521383279e-02
      -1.4090490651932202e-02 -5.4957381730059004e-03
      -9.0962084268366578e-03 2.3706895118324123e-02
      -5.8558453516866452e-03 1.9701366877887115e-02
      -2.2340793801699278e-02 2.6738217114688420e-02
      3.4549810849757875e-02 -1.5947781004069113e-03
      -1.9870928296644965e-02 -2.7585203084837959e-02
      -4.8411311424569692e-03 -2.5578513284274206e-02
      -1.8192832301425568e-04 1.1654424350813533e-02
      1.5369558874299000e-02 1.4920812387047408e-02
      3.0276855207754839e-03 1.2899232036423593e-02
      1.7212519254848003e-02 2.9788939259321981e-02
      1.3216289270767928e-01 9.1391416892847455e-01
      4.2918927557050193e-02 -7.2850683836845176e-02
      1.0746898814569263e-01 -4.5957969386472314e-01
      1.1017400722819244e-01 -9.2387160343789421e-01
      -1.7085656409316505e-02 -1.0218014439301508e-01
      -3.8381796988185585e-01 1.6703758571769807e+00
      -6.4756517006701619e-01 1.5845618141381840e-01
      -1.8918169928461184e+00 -7.8107919302192672e-02
      1.2795515357457701e+00 8.5674742273177243e-02
      2.0047871951137184e+00 -1.0189022518785218e+00
      -5.9961835348005976e-01 1.2858209135720891e+00
      -4.4621966072061747e-01 9.8591700897511625e-02
      -5.8634433783887752e-01 1.1365081121660074e-01
      -1.4638022128755213e-01 1.6739400471493934e-01
      2.7235679129859386e-01 -2.2289514670112004e-01
      -3.3571767568989080e-01 -6.2184295548474967e-02
      1.5889222168192116e-01 6.5033875710214684e-02
      1.4986590015724204e+00 -6.0990020911781240e-01
      -2.2449217891910003e-01 9.9287994159344406e-01
      5.7447339072478121e-01 -3.6444396961322945e-01
      -2.9875330739441052e-02 -1.1130282206008643e-01
      -5.2073210957251403e-01 9.1649477842026872e-02
      -5.1976095785645438e-01 -1.0519223613555539e+00
      -4.3985980167823951e-01 -3.5519572909322877e-01
      -4.8693219952324779e-01 4.1171574674164525e-02
      -6.9827671961348647e-02 1.9221294649175186e-01
      -1.8427003964811428e-01 -7.6061907429530923e-02
      -2.9249558936088671e-01 5.7560646727637022e-01
      4.5732176272900027e-01 6.5475889841001111e-01
      -3.7265759010915396e-02 -9.7282627671971611e-01
      1.6272714370101642e+00 -1.7242976349296961e+00
      1.8028392224022477e-01 1.2619343196421057e-01
      -2.5582939309540242e-01 1.3294820121557174e+00
      1.2261494330460601e+00 1.9867671825339854e+00
      -2.8547336334891465e-01 -9.0985325878843826e-01
      8.2463788560384133e-01 -8.1312417958845273e-01
      6.6383890357441500e-01 -1.1053725797744525e+00
      -1.5304914202263813e+00 -3.7456532981079249e+00
      7.5977867413532052e-01 2.9307992848154449e+00
      -1.3964034945797450e+00 -2.0042652961998235e+00
      -5.0627257893611687e-02 1.7534408206001759e-01
      -1.1927802755274219e+00 1.2860316093965727e+00
      -9.9990527534305618e-01 -3.0607257545433053e-01
      7.1511010908318107e-01 -3.0008452605310326e-01
      1.6799959939303730e+00 -2.1313469844370769e-01
      -4.5838889022541296e-01 3.3925773414985561e-01
      -1.0214230581015409e+00 -5.8508091093184145e-01
      -5.7511709480113038e-01 8.1421325038091852e-02
      6.7964115722961668e-02 1.9792721275685059e+00
      3.6316124863521948e-01 -2.6139777338329102e+00
      4.4856938922778877e-01 6.5846314508860873e-02
      2.9810011890545778e+00 1.4392786641530325e-01
      9.5217895017866239e-01 -2.6049771818545109e-01
      -1.2835538472258587e+00 7.3492783437997944e-01
      1.7572576051163715e+00 -1.5022630888559469e+00
      -7.9800635092996314e-02 1.1749570352209349e+00
      5.0492038688945962e-01 -1.3121964837275970e+00
      -6.9048980480274846e-01 -2.6050948512995982e+00
      7.6356021709072708e-01 9.5453295945646166e-01
      -7.2204044700071190e-01 1.7269730437037794e+00
      2.8223331033290588e-01 8.1446406230448221e-01
      -9.3275564038639547e-01 -2.8261364445791100e+00
      1.6855802258894435e+00 1.6382116681288406e+00
      -7.0160894062191637e-01 9.3331862469675519e-01
      3.7932765925747430e-01 3.7201126252587774e-01
      1.1721817530513328e+00 4.5617418861989800e-01
      1.7996632980236912e-01 8.0704600868653364e-01
      -1.1060231451075074e-01 -3.8418814918750083e-01
      -9.0633583234062243e-01 1.4217234298969361e+00
      -2.4320035848656762e+00 -1.5546389186493892e+00
      2.8990931134105508e-01 5.6479802154729153e-01
      1.2874399852762781e+00 -1.0219213617852703e+00
      5.0846429403545612e-01 5.1667313692046253e-02
      1.7894197363666475e+00 -1.4831931613690383e+00
      6.1871179184042924e-01 -6.9046062171217648e-01
      -1.3143626556836552e-01 9.2414281343313920e-01
      8.3790319058402740e-01 1.4400435491255190e+00
      -5.9768933771190158e-01 2.5512425878497663e-01
      -4.9116191963308312e-02 -3.0277016923836630e-01
      -3.9991113135692047e-01 -2.8432687194287809e-01
      -8.5503694142788700e-01 -2.4046211794118304e+00
      2.4384169329566592e+00 5.9149785905585617e-01
      -1.4034231130832118e+00 1.8028721102231740e+00
      -4.9816068675322511e-01 -3.0156339521207509e-01
      -8.9927204947946870e-01 1.8528814884462100e-01
      2.5450095000966810e-01 9.0901748727190479e-01
      -1.1159009859745692e+00 1.6778904947742026e+00
      2.1556780392229533e+00 -3.0255755624489666e-01
      6.8268651729670526e-01 -1.4981205407074444e-01
      3.6234725558545600e-01 -7.5393624613746368e-01
      1.4106431221255140e+00 -5.3427007672162175e-01
      5.5570188527846986e-01 -6.9397287698126184e-02
      -2.2576304389624990e+00 2.5560627399528935e+00
      -7.1964035225635281e-01 1.2717869207644095e+00
      2.7731437294882189e-01 -2.0114534430432784e+00
      -6.5863642575927223e-02 -2.5510833125237808e-01
      5.7426714502856920e-02 1.4279385219535969e+00
      -1.2558984721273372e-01 -1.2902694135118882e+00
      -4.5467244311832417e-01 8.7182153652326599e-01
      1.8865946519735701e+00 2.1668964986940233e+00
      -8.5694691628406960e-01 -9.1196912490806692e-01
      8.2729360585622125e-01 -1.1505010233926400e+00
      -2.0701679364974339e+00 5.5981784372680654e-01
      -1.1184771640400197e+00 -1.2077442124218427e+00
      1.9951256480954938e+00 -2.8416080059746549e+00
      -6.1811579516721830e-02 -8.2249694014864161e-01
      -1.5459650478001086e+00 1.7797633650029562e-01
      -6.9881025438241290e-02 2.0696609747527345e-01
      -1.1361008509787487e+00 -1.1905900923953758e+00
      6.5993095088065501e-01 -6.3804779187681848e-01
      1.8082183352338577e+00 -1.0273340656665385e-01
      1.6650520257529884e+00 -2.0501952313598322e+00
      -1.1850156370399285e+00 -9.6432294954642961e-01
      -9.2847376975847307e-01 3.4275774092111749e-01
      1.4512396530339156e+00 -1.1966819857567079e+00
      -6.0003973159357116e-01 1.5616760488953938e+00
      -2.1426174923826991e-01 -3.0942639023427188e-01
      1.6149540503989102e+00 -2.1540051086387052e-01
      -5.2719954841690719e-01 -1.2634631251441388e+00
      1.5225970310472903e+00 8.0307326644971899e-01
      2.8077568483850865e+00 2.6684698560416720e-01
      3.4718443866221900e-03 -6.1027016466553319e-01
      -8.9129913288168972e-01 -4.9724991605118229e-01
      -5.4993676569455041e-01 7.4733820520824379e-01
      3.5496995791452463e-01 -1.1128714482102051e+00
      -2.2514223473409687e+00 2.0346493536854839e+00
      2.3135338591408732e+00 -1.9111736795856684e+00
      -9.2215051057996855e-01 1.5741874472203590e-01
      9.6394324072140936e-01 -1.9371021790943130e+00
      -1.0359048789484306e-01 -1.0459576118275342e+00
      4.6601623052122190e-02 -3.8333730069362755e-02
      1.8595441413722928e+00 6.3244238813190035e-01
      2.9731678115826217e+00 -2.4074247888889451e+00
      -2.0267017347190275e+00 -2.5687138330232950e+00
      3.4166211545505720e-01 -1.3337160028732691e+00
      -2.4534387800626392e+00 7.7417911442210463e-01
      -1.6387980565425060e+00 -1.1136563745556018e+00
      -1.2312850897686471e+00 -2.2602346519384663e-02
      2.7565047734650305e-01 -9.2484356806498380e-01
      -1.4927664447655644e+00 -8.3578883017423666e-01
      9.3411834584781273e-01 -1.9849467527473363e+00
      8.6751100478102161e-01 2.3145033400324419e-01
      -8.8144726088117076e-01 3.3189361073975548e-01
      -4.1591259409128889e-01 -1.3810980560437169e-01
      6.1337985432080344e-01 1.4982435031897792e-02
      1.9063625145325844e+00 2.2123140378678667e+00
      -1.0161066228827822e+00 3.4148254993453891e-01
      1.7116935832613761e-01 8.0009982027042570e-02
      3.6596851830491556e-01 -2.0375335721009340e+00
      -2.7816407828713183e+00 2.1433076243129476e-01
      2.5961831259609558e-01 1.6057672535557244e+00
      -1.1993771715334931e+00 -2.7005645710125417e+00
      -1.8619295913527617e-01 7.7921133366494000e-01
      -2.0715112306525332e+00 -1.8854238072478929e-01
      -4.9867948642856302e-01 -2.2684988006328624e+00
      2.3469135046997808e-01 -2.6355303821472948e+00
      2.5573391752225549e-01 -3.1650376941779668e-01
      -6.2517096186899901e-01 -8.5713168940721740e-01
      1.5165252692542275e+00 1.1177057919846694e+00
      5.1089973776439990e-01 -8.2462575010395411e-01
      -2.1905803769813922e-01 -1.9164114157688728e+00
      7.4482268139712249e-01 -1.1665022446564002e+00
      -8.3816330817502638e-01 1.6966778792120805e+00
      -7.6715180911383509e+00 -1.6512333352130451e+00
      1.6461786335542381e+00 3.2131764139706767e+00
      -1.2708882958683863e+00 7.8477966093204898e-01
      1.4326040414036163e+00 3.8798890184578707e+00
      -1.3640058756122175e+00 1.6485344323619355e+00
      1.0001460403169611e+00 -4.3209232240635842e+00
      -1.3146303469121343e+00 2.0162650206956627e+00
      -1.5124311977209745e-01 3.4092213779075969e-01
      -3.0974887454301898e+00 -2.9863781955409219e+00
      1.7291023544962867e+00 2.2650820143864089e-01
      3.0457404376448088e-02 -4.3321640310406467e-01
      -5.5447861834254848e+00 2.9421047295023919e+00
      5.3297156790164546e-01 1.2484124132414978e-01
      -2.7635044491987086e+00 7.0978291190264664e-01
      -2.2341346741519250e+00 -1.8996894699881166e+00
      3.8131245746682638e+00 -1.5752224809182551e+00
      -3.6735784632824271e+00 1.8694279320142477e+00
      2.5779254982453859e+00 -3.7064781522272039e+00
      2.4093867419344259e+00 -3.8739635690555507e-01
      -3.1729088945582626e+00 -3.9789729479484741e+00
      -2.9902554890985017e-01 -1.0121288175442897e+00
      1.6944485599419392e+00 1.6954543671138900e+00
      2.0550154921339261e+00 -4.8051436355272248e-01
      2.3503376790753228e-01 -3.7098968716770031e+00
      -2.6834960821494325e+00 1.7545132507067036e+00
      -3.8078448858571492e+00 -1.2916501740490594e-01
      -1.1818082514191268e+00 -1.4448033375830873e+00
      -5.8499466492309471e-01 6.3141240550266686e-01
      5.7238221093000352e-01 1.9715373424077283e+00
      1.2484120657555766e+00 5.0542342070632282e-02
      -2.4347405564512923e+00 -2.2882210395385438e-01
      -3.6536317204390105e+00 -1.1914585268181754e+00
      2.7963736576142360e+00 -5.0823802434912579e+00
      1.4572410637379212e+00 -8.9646391695306260e-01
      1.9208427715630116e+00 3.0194840170529491e+00
      6.6550791339693227e-01 -7.0980556512958348e-01
      1.5255513693036333e+00 -8.0645679855469110e-02
      1.0220543460818159e+00 -1.7637359635364183e+00
      -1.5041710752908977e-01 -4.6659062508391118e+00
      3.2330812503812760e+00 3.5765555240891944e-01
      1.3438124929503272e+00 -2.8532840996011823e+00
      2.4645840576007341e-01 2.8909450142020238e-01
      -4.4569849116526000e-01 1.2017530348762172e-01
      4.5790401699962974e-01 1.9406477501687662e+00
      5.3058983349884743e+00 -1.9903871647675713e+00
      -1.4051363169870484e-01 -1.5268954699002135e+00
      6.4164716975082825e-01 -1.0196882288331739e+00
      -9.6740604217799328e-02 5.2846835560918306e+00
      -7.8285577192695566e-01 -5.0741799874112203e+00
      2.1055359938159346e+00 8.0308739885805736e-01
      -9.0137209695927634e-01 -4.2140829153684689e-01
      2.1598338412745424e+00 -1.4772744213587066e+00
      -9.0362984594596063e-01 4.1448474357059634e-01
      -3.3943424509290891e+00 -2.4569852164711045e-01
      -2.1642432790093475e+00 5.4646554046839979e-01
      2.1093521284892263e+00 1.4678518721709413e-01
      -9.1414704644058564e-01 2.4619709075787055e+00
      -3.4190672131268860e+00 -4.9738451721340303e-02
      9.7141630901996490e-01 -2.6414341457777457e+00
      2.3609257507089443e+00 -1.1105716702199868e-03
      -2.8412908975714917e+00 1.9211624341500539e+00
      1.8172598888207976e+00 2.7851983942148570e+00
      6.8779144879934861e-02 -2.8331935005257693e+00
      -5.9236454652688408e-01 6.4056320317978321e-01
      -1.3150578451895130e+00 1.4310846326526079e+00
      1.8195901221236623e+00 3.5701423083625516e+00
      -5.8260690710432304e+00 3.5910799886686812e-01
      6.6435011974153035e-01 -1.8335930757682506e+00
      1.5407147413279040e-01 5.0223108019778562e-01
      5.4415130513812537e-01 -1.8218845913595654e+00
      -2.2211804519721068e-01 2.3257773688937609e+00
      1.3570968352777575e+00 3.1087862105252531e+00
      -2.8222021994515123e-01 6.5278941017146144e-03
      -1.5226402232188888e-01 1.5144394468932051e-01
      -9.1919486890534396e-01 1.7374104801966939e-01
      2.1513074115363464e+00 -2.8466129208538300e+00
      4.0522432951084895e+00 4.5529801884680907e+00
      -6.5057929147966420e-01 1.3104125999997782e-01
      3.3800854897293711e+00 1.2338336458589558e+00
      2.9103254674988253e+00 3.2241869766419571e+00
      6.9300665358521896e-01 -5.9649491187640846e-01
      -4.6873970099010815e+00 1.1559663686134058e+00
      8.3285435974722349e-02 3.1825750272632805e+00
      -2.6140414028321044e+00 -1.1174410493383504e+00
      1.4177945030634569e+00 1.3928649874762435e+00
      2.1734842903302170e+00 -1.9662465068272275e+00
      -4.7034235669465989e+00 -1.9325615263955862e+00
      -9.9069793371263093e-01 4.6975095033386536e+00
      2.0249101342530887e-01 -8.2818167950126842e-01
      -8.2825251508297326e-01 2.7524615739966707e-01
      -4.8475724971780643e-01 -7.7836314335914425e-01
      -5.6579863680088038e-01 3.5721860017487578e-01
      8.7141686545078922e-02 -2.1286238819175658e+00
      -3.9311398281757448e+00 -2.9650342339201541e-01
      -7.4521837842317307e-02 -1.3660723226189639e-01
      1.7169747117601614e-01 4.0098347803216439e-01
      6.2968546847581752e-01 -1.3560996456714403e+00
      5.9509202127144589e-01 -3.2724952741433111e-01
      2.2229931117560828e+00 -1.6070092806712077e+00
      2.0859950315395417e+00 -3.9041933243786255e+00
      2.1654918674808235e+00 -3.6821467387263085e-01
      -1.7373518286279677e+00 -3.2074961034786300e+00
      -2.9224122397391992e+00 9.2540339052785558e-01
      -4.2353435465984921e+00 -1.9503197492767128e+00
      -5.8100416159894930e-01 5.8660680530849406e-02
      2.7017425801169450e+00 1.1585873111748979e+00
      -6.6352475273147304e-01 1.4785096094624470e-01
      -7.1422592618165259e-01 4.6816013826454173e+00
      -1.9525042847069662e+00 1.2142848257050594e+00
      -2.3829381248426659e-01 1.0608285483239026e+00
      9.9369589851884210e-02 1.4431816041771708e+00
      -1.8074368429264506e-01 1.3250564857268390e+00
      -2.3257343273436507e-01 -5.8168308997408769e-01
      -3.5439054134808248e+00 6.6581178445991068e-02
      -6.4468221660870828e-01 9.9947079066450206e-01
      -2.3685224025177901e-01 1.2214474482738027e-01
      -2.0593355029580547e+00 -2.2994366660400840e+00
      -4.9377355218492042e-01 3.9676741293864143e-02
      -2.9503211850677116e+00 5.2074543322180933e-01
      -6.2197190006517582e+00 4.1146053457899695e-01
      -1.7418299346225887e+00 -2.9863302159998384e-01
      -4.2544919698961881e+00 -4.8682132126420663e-01
      2.6478862916446015e+00 -2.0182947074198085e+00
      6.7600451896599378e-01 9.8497274752547770e-02
      2.1583798900723927e+00 1.2773350146497944e+00
      2.3606228236222987e-01 3.6844132363078206e+00
      -1.1309907341309924e+00 -1.0418894198860349e+00
      7.3301394534326492e-02 1.4258242113449615e+00
      -4.1047988899429528e+00 5.6324632510229899e-01
      -8.7190309185079495e-01 -8.7122708083982703e-02
      -1.0989355249978956e-01 1.3373375061480817e+00
      2.5037589847436572e+00 -2.8669729900403187e+00
      2.1502288908689509e+00 1.7478284193865987e+00
      -1.8869575619592809e+00 -3.6504451732433385e-01
      -4.1454901406882688e-01 2.3297386298731984e+00
      -2.3529202706581205e+00 7.0056134513805179e-01
      4.8132479388813021e-01 -6.6138547282697835e-01
      -2.2194782153535064e-01 1.1524630022283913e-01
      1.3307403117979164e+00 3.3936124773104570e+00
      6.7979811369513854e-01 3.1320701000904172e-01
      -5.2669782935878862e-01 2.0516180829446129e+00
      -9.8598795876270873e-01 -1.0843185544977592e+00
      9.8165363613076963e-03 2.1949811622952675e-02
      -4.7826061812194220e+00 3.0642829428021506e-01
      -1.6010974704237519e+00 -2.1119403268753376e+00
      1.5085665910209873e+00 -1.7164266344125125e+00
      2.7411684886599097e-01 1.3282138529857117e+00
      6.9988562618606767e-02 -2.4670994677367597e+00
      1.7459000800462146e+00 6.4511474451466866e-01
      -1.7150427365727441e+00 -7.0514162334386044e-01
      -3.8975243298100026e+00 -2.4222983859917799e+00
      1.0231216941589423e+00 -7.1900008717061570e-01
      -3.3138723424772381e+00 -5.2547586110308195e+00
      -3.1750011348097806e-01 3.5026322465560535e+00
      -9.4909150040913637e-01 -3.8551011687533272e+00
      2.1320487232956200e+00 4.9692641124731846e-02
      -1.5953102613318750e+00 2.6228969678808345e+00
      9.1559026479905570e-01 -3.1379288592652341e+00
      -4.9245232540271938e-01 -4.1223330069820915e-02
      -3.3782863897232018e+00 -1.7674991926631298e-01
      -4.2654447698110309e-01 -7.0597206479203256e-01
      2.8781578385908428e+00 8.9635007617884857e-03
      4.4755138022600527e-01 -2.8758544460048499e+00
      -1.2374966784539494e+00 2.2806605364132566e+00
      -7.0669130767074750e-01 -3.3315566412392532e+00
      1.1835459717624933e-01 2.8448893178834955e-01
      3.6255082988654501e+00 -1.2218892109383483e-01
      -1.4816269557627024e+00 -3.1532967955112108e+00
      2.0913957002620007e+00 1.6222044427407569e+00
      1.5722675285570212e-01 -4.7775582517871271e-02
      4.1841548198769185e-01 1.1272743878917773e+00
      -1.0875161115876297e-01 2.2859870011400680e+00
      -7.0896626342878066e-01 -4.9754336667384513e-01
      -1.3690107905720064e+00 1.7709194236813497e+00
      -1.6855116467596916e+00 -5.2868360224209852e+00
      2.5422187592565201e-02 -2.0429342485477071e+00
      1.7646761773324453e+00 3.6074925020235143e-01
      1.6866748435699638e-01 -1.7666506791476497e-01
      -2.2611127193352436e+00 -1.3031010168271806e+00
      7.6236816714721067e-01 -9.9638959526552928e-01
      4.7053585564582301e+00 2.3399432759163790e+00
      6.9927209853710737e-01 -3.6859425739270713e-01
      -3.5327952553092286e+00 -1.8262626943754516e+00
      -1.2271625562832073e-01 -2.4348092998051563e+00
      7.5630599528763984e-02 -5.3650046521365069e-01
      -2.3676989478007626e+00 -2.7538724498861095e-01
      8.0091365268420189e-01 -2.6572701197189379e+00
      9.8496092822926917e-01 -1.0297428394597972e+00
      -2.0391133063778484e+00 1.5501648372251806e+00
      -1.1363369555585007e-01 2.2919907958533283e+00
      -2.2192596848665223e+00 -9.8518618997011442e-01
      -9.1550447010446911e-01 -2.9378671485981287e+00
      -1.3470653260671265e-02 1.3652764693985217e-01
      2.8860898161133042e+00 3.4602699669359616e-01
      1.0746023634619439e+00 -2.9094687052124102e-01
      5.6446137825894493e-01 2.1719571161985263e+00
      -2.2130526912028956e+00 1.1070926575876037e+00
      2.2089277879724406e-01 -9.5119853747508254e-02
      1.7289816410051864e+00 -7.1227046093054136e-01
      -1.2348015438263552e-01 -1.6121166482418379e+00
      1.4610687795735369e+00 -1.7843630769943359e+00
      2.6256700844662668e+00 1.1993374107451087e-01
      3.0489299790340374e-02 9.9531123948798406e-01
      2.3170147548728748e+00 -2.7443206573993182e+00
      1.4839327195781653e+00 1.3219802588630647e-01
      -1.4393893994739611e+00 7.9294673315908859e-01
      3.8784332034632918e-01 1.1592242141471836e+00
      2.7242834312600177e+00 1.6553515902187389e-02
      1.7502794445936909e+00 -1.5638301584826049e+00
      -2.0826060764753977e+00 4.6198793693631096e-01
      -1.9864742551005918e+00 5.1053920360059868e-01
      2.2181784260495232e+00 -1.0363459579106853e+00
      -4.2126638344887213e-01 2.5452972692469338e+00
      -1.8182938798529749e+00 -1.2255989500707689e+00
      -1.2723327970467022e+00 9.4430560691404752e-01
      7.4732031752687278e-01 -8.1653387323799398e-01
      -1.9051527159234469e+00 1.9003128463889385e+00
      -6.7403868718587201e-01 5.1036769290425399e-01
      1.3642546200529299e-01 -1.1210668412330780e+00
      2.0784403531675002e+00 1.1778139637972269e+00
      1.6122983386604397e+00 -3.1455444437964681e+00
      2.1568940384095994e+00 -1.8590362040312824e+00
      -1.8265436718293253e+00 -1.1259837061954028e+00
      -1.4376322025320812e-01 -6.1449964749285224e-01
      -6.3507524887333278e-01 -2.9842335941475086e-02
      2.3968969008299452e+00 -4.7022272596921538e-01
      1.2803433337596062e-01 -1.6759136324843957e-01
      7.6178648152293327e-01 4.5007422744084807e-01
      -2.4364660815782040e+00 -2.2459880718948452e-01
      2.1327972408550271e+00 3.1382510928205636e+00
      -1.4858283017164753e+00 -9.0616233802324553e-01
      -2.8916134849722721e+00 -2.5969311932170464e-01
      1.5445151000897490e+00 1.1756782234423764e+00
      2.0148013073898934e+00 -1.4542777735796477e+00
      -2.0121507188209455e+00 -5.3224364874830496e-02
      -2.7671352625884427e-02 1.5464841411430912e+00
      -1.2576451764606955e+00 1.1955137071542372e+00
      -3.3537419180007209e-02 1.4794089294797697e+00
      1.0516401751080804e+00 -1.5307949685906956e+00
      -1.1601514145458987e+00 3.1145139197038434e+00
      1.5574014563338420e-01 -5.0643039252857736e-01
      1.2414193759843343e-02 -1.3272220770157033e+00
      -4.3016613868469006e-01 6.0363469862100472e-01
      2.9467527935345796e-03 9.4888942465769166e-01
      1.1330965269917079e+00 -7.4775601833286365e-01
      6.0380164417590154e-01 1.3726480180640142e+00
      1.0798839606802155e+00 7.9065221054455981e-01
      2.5941258182032001e-01 -6.1589840730545997e-01
      1.3687013011876799e+00 -7.0809961002903632e-01
      1.8670068477011550e+00 7.8641011101125269e-01
      1.9226254475141211e+00 4.3418653526689666e-02
      3.6272129243526852e-01 8.2553500094123455e-01
      9.2017464989846398e-01 7.2709839774889096e-01
      2.0040004601038372e-01 -8.9344310191798326e-01
      -2.1607461983474723e+00 -9.4770128843441037e-01
      -9.6036783580469209e-01 1.7878044535208339e+00
      4.5475202692906252e-02 1.7675944892861700e-01
      3.6079180543811956e-01 -1.2729582982116028e+00
      4.7744438354673152e-01 -3.8935548973546991e-01
      -1.2214973387705428e+00 7.6748686740489613e-01
      2.6728125471494435e+00 -1.1640751647265648e+00
      -5.6632409063889631e-02 -7.7493500992233288e-01
      -4.7527282213217281e-01 -1.4989926664780617e+00
      -2.7448445109017328e-01 -1.7817457896802498e+00
      9.6142604865604564e-01 1.1039458217941347e+00
      1.3542773504382459e+00 1.0639839061131842e+00
      1.3476475082233910e+00 -9.0238290826053913e-01
      2.2177521991130922e-01 9.1945229809002146e-02
      -3.0150091796532439e+00 1.0674910243132700e+00
      -7.6015784211779291e-01 5.9337444137547567e-02
      2.0520405245640543e+00 -2.5113031244079145e+00
      6.0291307824547258e-01 1.3653801919556336e+00
      2.7530310286427201e-01 8.4686973266080948e-02
      3.2295934111978664e-01 9.0198512019788690e-01
      -2.1431502281708381e-01 -4.1870357081967127e+00
      -1.8155841935906798e+00 1.9644169569847105e+00
      -3.7818262022638088e-01 -1.6517266499634728e+00
      -4.5844003644136744e-01 6.4005400619226660e-01
      1.0298369611188183e+00 6.7638451069705141e-01
      1.2228112092827697e+00 1.1851212217426391e-02
      1.9922716762763903e+00 -4.0380577819790292e-01
      2.0240765721647005e+00 2.1634898247820837e+00
      1.1444645432503424e+00 -7.8630776518413059e-01
      6.1441316558213305e-02 1.8639186932355234e+00
      -7.6688813334871875e-01 -2.6719958992785706e+00
      -9.1008861898653959e-01 -1.3576627261569392e+00
      8.5153325651675871e-01 5.2046054096400662e-01
      -2.0193435121553209e+00 8.8842923003533969e-01
      -1.2858882198887940e+00 9.7964174719563446e-01
      -1.3944669388382567e+00 3.9976477251464353e-02
      4.4695998927381397e-01 2.0453150584897026e-01
      1.7992356642652088e+00 -2.0129224326354955e+00
      2.3674490565149271e+00 -1.3829370135996966e+00
      3.0868750792842361e+00 -2.1801948082673399e+00
      -1.9496309891868961e+00 2.3191291789249773e+00
      2.0559852759501129e-01 -2.2937885975170902e+00
      -6.9731083585043963e-01 -1.3895682570631189e+00
      1.0346778458069410e+00 1.8740329927491109e-01
      8.5912953686888460e-01 8.5258598865365209e-01
      -1.7106242302602657e+00 4.5914098302229309e+00
      -5.2056350666416895e-01 -2.6426928834451768e+00
      -2.9714522625384174e+00 -1.2546727019126651e+00
      -1.7788508893081523e+00 -9.1027996771636788e-01
      -3.4322138924803908e-01 -1.1524813037833814e+00
      -1.5296057641713037e+00 -1.2305121005065947e+00
      6.9912652873236480e-01 3.6898192812444086e+00
      -1.4596746774696185e+00 -1.5666880663087170e+00
      -4.1739562350248377e-01 -3.4209788880193620e-01
      -5.3980688558921175e-01 6.1610574598398005e-01
      -1.5909378899737052e+00 -1.9291003039903560e+00
      1.1610989101227345e+00 -1.2462312453372497e+00
      -6.4164967753851077e-01 -2.5786919149942986e+00
      -1.8269933257313480e+00 -2.1809519937730117e+00
      -5.5561901152672033e-01 8.0002717590769323e-01
      -1.5721517910399327e+00 -2.3375299724231674e-01
      -1.4194874861174347e+00 2.3177168246074517e-01
      1.8774822311101813e+00 -1.1640807094424310e+00
      -8.6512933160756744e-01 8.3278923096482504e-01
      -4.2173688041666840e-01 2.9189130981899574e+00
      -1.4882333887405537e+00 -1.2988593179323238e+00
      1.7630721431563023e-02 5.1818003696809245e-01
      -1.8584123412435949e+00 -6.3033360292750795e-01
      1.1035942292126331e+00 -7.7178182245896024e-02
      2.5462113788710639e+00 -6.4391467767737220e-01
      -2.2355204815156395e+00 3.0064147202036344e+00
      1.3959310582540618e+00 5.8159538275705920e+00
      3.1344245532700939e-02 1.1725899304406775e+00
      3.4310460047451274e-01 2.2091498437548535e-01
      8.5447669042553731e-01 -1.9747758314568346e-03
      -1.7915804045101685e-01 1.9511151610390426e-01
      1.1577652486890984e+00 -3.2647052805573018e-01
      1.3474940325484719e+00 -1.7896049395473173e+00
      -2.6715832616287072e-01 5.7603950692128492e-01
      -4.6097034462758230e-01 1.1931060672044118e+00
      -1.7706312824184676e+00 -2.1776984823100629e-01
      -2.2590958521561011e+00 1.3398399979088638e-01
      3.1474890399958072e-01 1.2964675325186085e-02
      6.8065101280348261e-02 3.4218691624403945e+00
      -8.1330885824761598e-02 -3.5727139837684909e+00
      -3.0443773420349368e-01 -2.8697484453277605e-01
      6.8995563780091806e-02 2.5513500185346588e-01
      2.1908558083991014e+00 7.7709684816003466e-01
      2.9323903931684087e-01 1.3054616264543859e+00
      -1.2540838094353243e-01 1.9326156789300125e-01
      -2.0349767842629593e-01 -2.6657942511194213e+00
      9.3591806374715691e-01 -9.6171076228438068e-01
      1.4659880610961465e-01 2.7720423802531752e-01
      -3.1583992261448696e-01 -3.7747209978727347e-01
      -1.3370799885321338e-01 -5.7368315019207153e-02
      -1.0688036746758165e+00 -7.7227057350475692e-02
      -1.7261125575351752e-01 -1.4042161698663133e-03
      -1.0316532776768052e-01 1.3155964661074870e-01
      7.4483456845989948e-01 5.8531184213830925e-02
      4.9094302918340854e-01 -7.2552535164763537e-02
      1.3672888451089580e+00 7.1190592122708962e-01
      3.0331182316311162e-01 1.9476664017872172e+00
      -1.8276681373942016e+00 -3.3122627007168959e-01
      -1.2115413362453916e-02 -1.9318962573222215e-02
      2.3390380842459993e-02 -2.4282408156062186e-02
      -2.3635069282499605e-02 1.2955592820467267e-02
      -2.0521052560547988e-02 -2.0238836211761951e-02
      -8.2273525864661520e-03 2.2894060442686513e-02
      2.4222481903519763e-02 1.1481543846797252e-02
      2.8572403092622309e-02 2.9156518589456629e-02
      -3.0025835203363792e-02 2.7509215013642247e-02
      3.0322984817013458e-02 -2.1699766769345343e-02
      4.5705144434192279e-03 2.5754197095006797e-02
      2.9184349011212096e-02 -5.5763712149390996e-03
      9.1128227282048398e-03 -2.9524736480520314e-02
      9.1083039112800045e-03 2.8060347261279393e-02
      -2.9824766376344774e-02 1.5655099849567478e-02
      -1.1764934442550187e-02 -2.7572704498228105e-02
      -2.5364741048548609e-02 1.3711790696752083e-02
      3.2587432956777185e-02 1.7517332460358470e-02
      -1.3656429669859590e-03 -2.0311992304282614e-02
      2.8935015011164536e-02 -1.3560503511795767e-02
      1.6237616022801785e-02 4.4318430930518227e-03
      -1.4306897436688898e-02 1.3897040582611419e-02
      -1.2903931912012431e-02 1.8958078869502903e-02
      -2.5702793823850514e-02 2.0761748797007741e-02
      -3.1815757650667013e-02 -1.1812230649020197e-02
      1.3255757830062940e-02 -2.4584662945829776e-02
      -9.0915106724586674e-03 2.3728185786978562e-03
      -2.1719238609574309e-03 1.6388827750274702e-02
      1.3443035031277195e-02 2.0085857176779850e-02
      2.7512092564953799e-04 -1.9627889209768899e-02
      2.4562847060318572e-02 -2.3022398970220764e-02
      -3.0950777024383478e-03 -4.1581217729733163e-03
      -1.5293706244015820e-02 8.7050229494143178e-03
      -1.3670242189961634e-02 -8.7252222913910896e-03
      -1.4449303320184405e-02 2.2721364870379731e-02
      -3.0205834452016446e-02 -1.8195873362737248e-02
      -2.7533671630504450e-02 -1.4372368111392881e-02
      -2.3998914985682199e-02 -2.1676191291021503e-02
      2.2768261554366426e-02 -4.5094865710348085e-04
      2.8123636835111546e-02 6.8340256796193153e-03
      -1.6268864214528233e-02 2.6591888280112729e-02
      -1.0228233456059695e-02 -2.7223302269942053e-02
      2.8109177478245623e-02 1.9198927204406822e-02
      -1.1904874885046483e-02 2.3360864696746107e-02
      2.4324858239720866e-02 9.4958175512155230e-03
      -1.6159296294144738e-03 -4.7650428202645669e-03
      -1.3842756982812043e-02 -4.4394107104439307e-03
      2.5471680348909596e-02 -1.1203530236492410e-02
      -2.0742952268483794e-03 -2.2361112125624603e-02
      5.7119752053219246e-03 -3.0849427701994604e-02
      2.0709448678667291e-02 -9.3761987447577438e-03
      -1.6346750152584192e-02 1.5099674272617627e-02
      -1.1854882617362728e-02 -1.7894988816172210e-02
      -8.8743501956980546e-03 4.5719777687371448e-03
      -2.1146221746358707e-02 2.3732674120230897e-02
      4.5706505792696426e-03 -1.0326558892867524e-02
      1.7132663063668067e-02 2.5865488733886100e-02
      -1.2449459525686329e-02 -7.5277156815213965e-03
      -2.0190567679582681e-02 2.4669695580885765e-02
      2.3893994444240833e-02 1.1582343008986648e-02
      6.6715171463299170e-03 1.7888434654716599e-03
      -3.3132691302520533e-03 -1.8150965837795914e-02
      2.3659818959070964e-02 -1.7892853352321072e-02
      -2.4485007840462234e-02 -1.4523687664489270e-02
      -1.9577183046605301e-02 5.8746376383861159e-03
      -2.4159951818011945e-02 1.6773532344145824e-02
      -2.5074280176526718e+00 -9.3028482306754623e-01
      -1.1988225750686912e+00 -2.8192669931056034e+00
      8.3663556874257872e-01 -1.1185064696478697e+00
      -1.5215230611926958e+00 9.6515394399010501e-01
      -2.5847542547837317e+00 -6.2306218443285610e-01
      -1.4098676650426298e+00 1.2028573710468127e+00
      2.3804630346589466e+00 -7.4672144709480481e-01
      -1.0540333067039180e+00 -4.6804384603154808e-02
      7.6860183220865630e-01 -5.5739670033787869e-01
      -1.6796775130014092e+00 1.5359383853859647e+00
      -8.5054952689668750e-01 8.2669280872504025e-01
      1.4712517374939675e+00 -9.4026157769045798e-02
      -1.8592159386195399e+00 -1.2806746934335460e+00
      7.4936011386266779e-02 4.5644400531867035e-01
      -1.7218317776625074e+00 3.5352838389500603e+00
      1.1046939809937084e+00 -3.0321713479142015e-01
      -7.4640080968463640e-01 -1.1177178507765342e+00
      7.7862818340825390e-01 2.6564822293739234e+00
      2.4363153527027999e+00 -2.0513489895589340e-01
      -2.0768099386321648e+00 -2.3364650711921955e-01
      -2.2467727921292271e+00 1.2878892305767187e+00
      1.1957211401831160e+00 1.7089070923901659e-01
      -3.2739453610958125e-01 2.3649854396406145e+00
      9.5426252149370727e-01 8.0212323809341224e-01
      -2.7151390576072154e-01 1.3399174421159414e+00
      -8.3500653180619233e-01 -1.8543072685004198e+00
      1.2357121959198778e+00 -1.1752293278940473e+00
      1.6426125281829489e+00 -1.7892810958649286e+00
      2.4497465644436711e+00 7.1655690198536526e-01
      1.1684752118001824e+00 -1.5781527318050117e+00
      3.3993528554259514e-03 -4.1498024058835470e-01
      -1.8718798127471741e+00 -1.4256624321788642e+00
      -2.5375616961736303e-01 -9.0407393480492843e-02
      -6.6196919903724316e-01 -2.4716242189384445e+00
      1.0278520386529459e+00 3.0119930095710640e-01
      1.8427930178791571e-01 -3.2144762550247875e-02
      1.0358476138638859e+00 3.6897075133680796e-01
      -3.5279048443383659e-01 1.0842861132697439e+00
      1.6578411623327398e+00 6.1340302481987041e-01
      -1.2019147124981946e+00 7.9764154736863624e-01
      6.2641447015618884e-02 8.0404843586273900e-01
      -1.2250319318277079e+00 8.2738243307206505e-01
      4.5451170279781933e-01 5.9911662465293336e-01
      1.0606393212181715e+00 -2.6550824678619550e-01
      4.5425379702389190e-01 6.3302005943411555e-01
      -7.1399379362382298e-01 -1.7647959521915504e-01
      -2.1612707500161421e+00 -1.2820485937281900e+00
      1.7998986983661358e+00 -1.1793820784736686e+00
      2.6141007217403217e-01 -1.1203052833681499e+00
      -3.7501665957740682e-01 2.5421271789538298e+00
      2.3502974427556983e-01 -5.7842074573221158e-01
      -1.9565903423889921e+00 1.9365616421998838e-01
      -5.2910148817457614e-01 -1.5277823568844380e+00
      -1.0777375864884177e-01 1.6585674938341215e+00
      -9.7295600804222004e-01 2.1740397288097965e-01
      8.2297133469109829e-01 7.9002161854461594e-01
      -8.1187847589371309e-02 1.9950275404524513e+00
      -1.0744208781003644e+00 -1.4781620786208587e+00
      -3.1425722576459852e-01 2.9811741375290374e-01
      -5.8751255982555972e-01 2.7688632607359720e+00
      -1.1085541218042948e-01 -1.4534087634924691e+00
      1.0113220613734595e+00 -1.6466888289471902e+00
      -2.9569855695226827e-01 4.0394052812545649e-02
      1.8710487312464278e-02 -1.5802573787455474e+00
      1.9304308520498572e+00 -3.3629999641528469e-01
      -1.6913504471475362e+00 -1.2799209934432856e+00
      -5.9187841677344100e-01 4.5950153036657215e-01
      -7.8123396489731933e-01 1.3162410739204122e+00
      -1.0242140076209671e+00 1.0412733016966591e+00
      -5.4388033954078474e-01 8.2437973276038412e-02
      7.0035254683027626e-01 -1.2213330175242398e+00
      -1.0716135900620485e+00 -2.6073877827078866e+00
      8.9439913086061229e-01 -3.0034098873867789e-02
      2.0730271612220417e+00 -2.0831996904905895e-01
      1.4779843994568764e+00 -2.1524061121251317e-01
      -1.0119930124129317e+00 1.1298746008790013e-01
      1.4821564485438137e+00 -2.5048291519377370e+00
      1.3215621564753470e+00 9.3017293637456189e-01
      2.4682062247424578e-02 -6.2594102520125217e-01
      2.4685046200611493e-01 1.3183673241538552e+00
      5.3192213510296099e-02 7.2573942631849175e-01
      7.7418252834696932e-01 1.1340807441863447e+00
      1.9113329039691909e+00 4.6704110887361008e+00
      1.1865213576388796e+00 -7.4554754755957620e-01
      9.4869144613286105e-01 5.7126064543671229e-01
      -5.4155802452496227e-01 -7.8995565850078064e-01
      2.6155506374454043e+00 1.2418953952968055e+00
      -1.4867555657891216e+00 -3.3972075873319021e+00
      1.3742874411342881e-01 2.0933868737599056e-02
      2.7223741132630277e+00 -1.9955740402104303e+00
      -3.9687406672130315e-01 1.1721626289066408e-03
      -2.6709205803263174e+00 -3.1742975798340050e+00
      2.1645691175365309e+00 1.2918463955376471e+00
      -7.9585743902772699e-01 1.7458597363714854e+00
      -2.8780507505703881e+00 1.1139638963787608e+00
      -4.2835528202210496e-02 2.2277123523727327e+00
      1.7252604344007678e+00 -8.5819145773906480e-01
      2.2832874712190046e-01 -4.9407087150923026e+00
      -8.1409455400434227e-01 2.4444580214237646e+00
      1.2597129854854250e+00 5.9096883633536934e-01
      3.1690182405073744e+00 1.6517218678508907e+00
      4.4819067877073016e-01 -2.4660364967270412e+00
      1.0792521120293841e-01 -6.3620259319211969e-01
      -1.4963537103440097e+00 1.9319403394103623e+00
      -2.6826370677218221e+00 -4.9869311221176438e-01
      -2.5345971172388559e-01 -1.0620313126430103e-01
      1.2934610151939283e+00 -1.2941742914861283e+00
      -3.1651036362208855e+00 4.0239442003321130e-01
      -1.5860114352274359e+00 -2.3525618786089653e-01
      1.3216740471943504e+00 2.1070149119115064e-01
      7.9432263952221216e-01 -9.1909815221020555e-02
      2.3193349430219401e+00 1.0138214711269786e+00
      -6.0172382566677662e-01 4.5806928932009949e+00
      -1.1598209137646673e-01 -9.0367691679233120e-01
      8.7910201409601674e-01 -1.8517712398916804e+00
      2.1227566826310014e+00 2.9746907458426746e+00
      2.1203908007391532e+00 1.9030656839644529e+00
      -6.2916975242248430e-01 -1.3780486130737422e+00
      -1.7428106404619792e+00 6.1878405658239122e-01
      8.1172331916259888e-01 1.7407327436324125e+00
      -2.2853410182131815e+00 4.9184091614176501e-01
      -2.1960392973378959e-01 3.9250014664002020e-01
      -1.9406683791574029e+00 -5.1191867275147263e-01
      3.1027413281655480e+00 7.4521727419605777e-01
      8.6073459661972640e-01 1.3514182559483723e+00
      9.7771272767422104e-02 -3.6915207458296467e-01
      8.4560615827303842e-01 1.1359940812873057e+00
      -1.3514453392313177e+00 3.1864374218842972e-02
      -1.4302256024659621e+00 2.8306164121865520e+00
      -7.6527204649021829e-01 -6.9353388803456972e-01
      -2.8644724748942858e+00 5.0220640863985544e-01
      7.5686661172598502e-01 -1.8812086867396798e+00
      -2.0688736685507694e+00 -9.6470435102256846e-01
      3.7497884787185226e-01 3.2790394278266888e+00
      -2.8493324846330168e+00 -6.3912968464491948e-01
      4.4738992104487457e-01 -2.8154379865450813e-01
      8.0874199234967681e-01 5.2791814111515956e-01
      -3.4696853065346739e-01 3.8314227915814403e-01
      2.7684859996938052e+00 2.4477617015843931e+00
      -4.3724396745663252e-01 1.8922945076087778e+00
      1.0627999901114471e+00 1.1325444916474665e-01
      -1.2093909775186988e+00 2.6158322111829877e+00
      -2.6767103156832994e+00 1.2164320714414405e+00
      -2.5730459032546657e-02 9.9556072734523460e-01
      -2.3645491164728583e+00 1.0052030562304275e+00
      -4.0366364320956349e-01 -3.6983543880488927e+00
      1.8313807458474318e+00 1.2587842337857025e-01
      -5.8325962113694949e+00 -1.2440640499815668e-01
      -4.1028464970172438e+00 5.8235593261684471e-01
      1.9549100380357172e+00 -2.4249476933810934e+00
      -1.2152601146908943e+00 5.4080085745686857e-01
      1.0185272946495429e+00 -3.3223313124012144e-01
      2.9459550698697012e-01 -9.7003288043321223e-01
      -1.3832861487861043e+00 2.8797512278534965e-01
      1.0955215271914629e+00 -7.3807840249470524e-01
      1.0865166390402055e+00 7.8705434432531063e-01
      1.0333824954223079e+00 6.3197657562375635e+00
      -5.8552258013467562e-01 8.7857849704875346e-01
      3.2664053378715230e-01 -4.7555015623809007e+00
      -1.4356343085153640e+00 9.2368473113441696e-01
      -9.5011943007994260e-02 1.7760965763789556e+00
      -2.4074575284962689e+00 8.7384045991039838e-01
      -1.2510878677477746e-01 -2.7219009035045612e+00
      -1.2966709391836071e+00 -3.8873356476755688e-01
      1.5914479313394956e+00 -3.2407879743239310e+00
      -6.6333551694833517e+00 -3.1374679594355532e+00
      1.6090320177939099e+00 -7.4764996419869101e-01
      1.8029537545101409e-01 1.5493991961827369e+00
      -3.9842184697810412e-01 -9.0373379870953185e-01
      1.5848579056524317e+00 3.4434577236936448e-01
      -1.5174025198678881e-01 1.2771074581842783e+00
      -1.6265817899311772e+00 7.0176264867216198e-01
      1.9141176586063113e+00 7.2022649496279179e-01
      -1.7194815280426008e+00 2.0517460998164436e+00
      9.2366318669203562e-01 -5.8677676467745554e-01
      1.0912704749526665e+00 -1.2961893576292119e-01
      4.2751560681798489e-01 -1.7071054423483605e+00
      2.9929685864196648e-01 6.7835650280555182e-01
      3.0872531176399937e-01 4.2240998719633543e-01
      -1.6090710812897351e+00 -1.4127181038843679e+00
      1.4753385872501543e+00 1.2303594690154185e+00
      1.0567715617676650e+00 5.1989697169533744e-01
      -2.8245463087890488e+00 -8.4275910472317950e-01
      4.2712314009709376e+00 -1.3659564323520181e+00
      -1.3077842009447629e+00 -3.7976050789997466e+00
      -1.2628315086330670e+00 -2.9100323207001235e+00
      -3.3118379652242125e-01 -1.0924352858282982e+00
      -4.9906330044805491e-01 3.6490060312864028e+00
      4.1508225529916620e-01 -3.7703265525752214e+00
      1.1088163838500029e+00 1.5415349893154524e+00
      2.9384194241218955e+00 -1.5196399306570063e+00
      -5.5869595346793544e+00 -1.7119880553189311e+00
      3.7363535842388056e+00 -6.3460994293161911e-03
      -1.2830776036396163e+00 -2.3916846524021920e+00
      -1.1357290589863604e-01 -3.3736358107426818e-02
      -9.3625540268239926e-01 1.1862740429948146e+00
      -2.5116734445890656e+00 1.2221613953805457e+00
      -1.9393280185468893e+00 1.5431189270107346e-01
      4.6211307736083712e-01 -1.5451804832901062e+00
      3.1486869739002192e+00 1.1743317183969302e+00
      8.5633554034598569e-01 3.1851916459850922e+00
      -1.3799788211411701e+00 3.3751979759878252e+00
      -9.8116671405171285e-01 4.8288190244930161e-02
      -6.6477071390644860e-01 -2.6574122119166250e+00
      -2.2699699344702435e+00 -2.7422483870666214e+00
      -2.2506564385309244e-01 -3.1601070272374980e+00
      3.6011053671416979e+00 1.7856617729964586e-01
      -6.2079160577511512e-02 6.1967609408977886e-01
      1.3832670291827395e-01 -9.0981028554928317e-02
      1.8792016083751268e+00 9.5671085698959957e-01
      -6.5945055082497528e-01 8.5688631906368162e-01
      2.6846788558242807e+00 3.1695260676912214e+00
      8.0980018166902223e-01 2.2231191826471477e+00
      1.8060101383681715e+00 -3.1627281024476162e-01
      -2.3204170532697881e+00 1.2198484005038814e+00
      9.6504397443101952e-01 9.2593205133894330e-01
      -1.7143989890504665e+00 -4.8738488960412013e-01
      -8.2046980518335355e-01 -6.1650906369180791e-01
      -7.6061247977940394e-01 1.1222323058031057e-01
      -1.7672359190406211e+00 2.1719713526408944e+00
      3.8352643445479562e-01 -4.5154580089196497e-02
      -1.9304966927191465e+00 -4.2276844200917624e-01
      2.1695430553638984e+00 -9.1630208678498570e-01
      1.1945755995747025e+00 -1.9676265243852673e-02
      -4.1461450980138120e-01 1.5516837473419807e+00
      1.8314166278534549e-01 -3.5907775647261526e+00
      3.9800661871558356e+00 1.0693470979832960e+00
      2.3660338941240472e-01 1.6381900044088236e+00
      6.4491297962677430e-01 -8.8115659614791431e-01
      -2.4436299667892994e-01 1.0713632720395168e+00
      2.6486387981317945e+00 5.5912625320753084e-01
      2.6958723892971066e+00 4.5946901273365306e+00
      2.1566876834741175e+00 -4.8056239445106796e-01
      1.7329428712175012e+00 -1.2469840970735314e-01
      3.0359699329454832e+00 4.1157441895024155e-02
      4.2231890108934370e-02 2.5113080637025957e+00
      -3.3021372762149381e+00 -9.8199688383987527e-01
      -1.1016163139151094e+00 2.5713012664215773e-01
      -4.2971765383215201e+00 3.2465815811532810e+00
      1.0937222291631583e+00 -2.8320694787327411e-01
      1.3861018030588503e+00 1.0349866127780404e-01
      1.3889270186203861e+00 1.6748931463948485e-01
      2.5796672376835721e+00 -1.3749354595312988e+00
      1.0007127701555132e+00 -5.7352281203510946e-01
      2.5169424956123962e+00 4.4852357181477220e+00
      -4.0852410977994777e+00 -6.8243102544447298e-01
      -3.0008454656641139e+00 -4.2751485946647261e+00
      2.5029161913970142e+00 -1.0285818611490913e+00
      -1.1082848851741987e+00 -4.0610104954817822e-01
      -2.6422862100825459e+00 -2.8283050621065592e-01
      -5.2285901786577593e-01 -5.2049906899326448e-01
      -3.8123317663638599e-02 3.3245393786318400e-01
      -2.0812925483559281e+00 1.2286128697271770e+00
      1.9805059388434916e+00 4.0741024559877231e-01
      -2.8342546306707876e+00 3.0562062195051469e+00
      -2.8049839402846364e+00 -1.4500506481340217e-01
      -2.4496491196554285e-01 -5.3228520895683051e-01
      -4.5227212328305573e+00 -9.5368854752933843e-02
      1.0058448535751869e+00 -3.5905095539672991e+00
      -5.5507404308280650e-01 -3.5036818490272637e-01
      3.6375972479057137e+00 -2.0895778825170361e+00
      1.0413166128156583e+00 8.0864767359523082e-01
      -1.5572997397438431e+00 -5.8917616470557055e-01
      -1.1764275588771762e+00 1.0388176801406963e+00
      1.2354730935535585e+00 4.2707512208266438e+00
      4.8264639142609118e+00 1.5539795370121403e+00
      1.9827551464718314e+00 1.4032186853959145e+00
      -4.7173416209796176e-01 3.3028829778298421e-02
      3.0211157064106584e+00 8.7910343877020058e-01
      1.1604022712898812e+00 -5.3208484184080984e-01
      2.7388185454340014e-01 -1.4175880346438363e+00
      3.0832533125407355e+00 -3.1598215533482832e+00
      4.7832306925769732e+00 2.0394372365947664e+00
      -2.7724804889641635e-01 -6.5634943223783431e+00
      2.3759476704693472e+00 -3.2490951957228940e+00
      -1.3985605896667928e+00 -5.0217368910283868e+00
      -3.3231600137892642e-01 -1.2987930833247057e+00
      -1.3947658443665345e+00 -1.0947437265718407e+00
      -4.0592784727060653e+00 1.0768600588074606e+00
      -1.1844536129188701e+00 6.9074184038540007e+00
      9.0179371886073212e-01 -2.0748993002769613e+00
      -3.4329314796949753e+00 -6.7936921640681236e-01
      2.5382050681029584e+00 8.3407183764560400e-01
      -1.4256924560439701e+00 2.6251120310042547e-01
      4.2602027627939947e+00 -3.1491139866604048e+00
      5.5568349558354890e-01 1.9199046894422986e+00
      1.2250425300607310e+00 7.9367910763372151e-01
      -1.7013227364767042e-01 1.5983987515841333e-01
      1.3685714829712783e+00 -2.4357811000012997e+00
      5.1737724204062063e-01 -2.2361800942245380e+00
      5.1336717641486132e-02 3.8938055001891518e+00
      3.6650730943914850e-01 -2.8753192044231768e+00
      7.4476320638898794e-02 9.9293974587452627e-01
      -2.6408842519236120e+00 -1.4095499273216539e+00
      1.5441139783380315e+00 5.4080768744639351e-01
      3.6958933398633126e-02 2.9776829691185103e-01
      2.5358014468647108e+00 1.1665241220303524e+00
      -1.2684703586890946e+00 6.3153018303473829e-01
      4.2112510448549051e-01 1.7367098349503041e+00
      -7.2335995503173189e-01 1.9886513179348839e+00
      -4.0493927900724550e-02 -2.4153904531940551e+00
      5.3469688366765968e+00 -2.6122670135452097e-01
      -9.8881289300996145e-01 -8.3856411893429494e-01
      -9.7761096630526068e-01 1.8705807886186268e-01
      -1.2722215742099239e+00 1.4891903471012258e-01
      6.0399397027819701e-01 -1.9616422257820215e-02
      2.3733530502240434e+00 -1.7114346814528567e+00
      -2.6711039597467447e+00 -1.5037665723562008e+00
      8.3822478605814210e-01 9.7106990321726927e-01
      -8.0922304673693379e-01 -2.3357552733199527e+00
      3.2286159912191481e-01 -5.8166475935098794e-01
      1.3601285591631918e+00 5.9099095645331709e-02
      3.7581177112533348e+00 1.0403029071471028e+00
      -1.4395512070195124e-01 1.7560594014125963e+00
      3.2084291949638701e+00 -1.5928272570263253e+00
      2.2323998219133356e+00 6.8213263097184940e-01
      3.7773371170840724e-02 -5.8684259193939337e-01
      1.0589247873769125e+00 -2.0988214420898560e-01
      5.9991697349483797e-01 -2.2976343484870356e+00
      1.1172992286853920e+00 -1.4439402916760524e+00
      -1.0964810338113609e+00 2.3895600017139254e+00
      1.1911890209074951e+00 -4.7887914454556380e-01
      1.1022372442779644e+00 -6.1941811845814737e-02
      8.6138085223373173e-01 -3.2484791679043869e-02
      1.2172961228271952e+00 -7.3520612671136909e-01
      -2.6773376343081157e-01 2.9848166175435411e+00
      -1.0464026234024308e+00 1.8038911528611346e+00
      -8.8032788570607723e-01 1.8003831285140239e+00
      -3.3575220181340309e-01 -2.2018537465451011e+00
      8.3222589348753606e-01 -5.1837032766813795e+00
      1.0946367911809733e+00 1.3386949479519965e+00
      8.5447422340392998e-01 -1.1076951806820691e-01
      -4.9242423145032266e+00 -5.7821461057010269e-02
      7.1320221169383491e-01 -9.8484312853873790e-01
      -5.7598907939762245e-01 9.3252637067815003e-02
      -1.0834573424428722e+00 -3.6320089880649369e+00
      9.1147701489432253e-01 2.6941372273307418e+00
      1.3503127232591885e+00 7.2137296738706624e-01
      1.0364896719012567e-02 2.4996178222012947e-02
      1.6457161094738606e+00 -4.4248398036169165e+00
      1.9457738066126846e+00 1.1319249682813954e+00
      4.7322866307227013e-01 9.6850212890339560e-01
      -8.4128658268059742e-01 -2.9867093416959709e+00
      2.2156342655107304e+00 -2.8490480037216983e+00
      1.2420564699457457e+00 -2.5335060407077741e+00
      -3.5254292489841363e+00 1.0602656171794063e+00
      -1.7695614952078822e+00 2.8210999155670580e+00
      3.2667128399956051e+00 -2.0613496711191788e+00
      -6.7127602179871904e-01 -1.6709706357160048e-01
      -3.2944332736738384e+00 2.1437736613173367e-01
      -1.0551618164748453e+00 -1.3290818031266001e+00
      -1.4226398704251457e+00 2.1139996371564709e+00
      -2.4570244259083727e+00 1.8149560966884450e+00
      4.3697221380980500e-01 2.1710879587734855e+00
      -7.7519851870899048e-01 -2.6246104125001923e-01
      1.2217427611486095e-01 -1.1588333491243028e+00
      2.1658427041987927e+00 3.3727981152594793e+00
      2.6356818587798081e+00 1.1855419875725794e+00
      1.5165076166237490e+00 1.1801067326620138e+00
      -1.0473818492093043e+00 -1.4462681090124894e+00
      1.2245527332488226e+00 -2.1010098748874797e+00
      2.3272154678025663e+00 2.8248768154466610e+00
      2.2857696450361096e+00 3.9855517683801911e+00
      -1.6375668095716351e+00 1.1069518472121040e+00
      5.0897384490225361e+00 3.0428012630907569e-01
      9.8906272796565053e-03 -1.8952276409507072e+00
      -1.0616469016169390e+00 1.2860601683700346e+00
      1.2571817781750866e-01 3.7852499319893408e-02
      -5.9807594760391114e-01 4.1971739398986435e-01
      -1.1674370349851659e+00 1.0551269918023694e+00
      9.5075580078417610e-01 7.3461023447904325e-02
      4.5037242580760237e+00 -2.8512131366389033e+00
      -6.0328530317918250e-01 1.3687439862920461e+00
      2.2567128010428128e+00 1.3791374415187987e+00
      4.6818550215531918e-01 4.2001080086425899e+00
      -4.0927498538997060e+00 -2.0583246975272882e+00
      -4.0110094927698468e+00 -1.9738566561286062e+00
      -2.7266480562085693e+00 -3.7623952185020582e-01
      1.4426376631280822e+00 -2.8992679334191418e-01
      6.2072867552763233e-01 -2.0590954210117389e+00
      4.7133319745076703e+00 -1.4262344265101981e+00
      -1.4500110443599118e-01 -2.4875719506597034e+00
      -2.6761903082548749e-01 -1.7373872660856138e-01
      -1.6714330132819813e-01 -1.0014212457917797e+00
      1.4436471253487280e+00 1.6401100646013065e+00
      -3.2318277501898612e-01 4.3644803717562706e+00
      -1.0336722649811996e+00 -9.2391855569236703e-01
      -5.3944629318915083e-01 -3.3157992071327939e-03
      8.5472895173352992e-01 3.2454318170525354e+00
      2.2349153849114698e+00 -2.3389312092981226e-01
      6.8099542507534283e-01 3.4564588538070802e+00
      -8.8030342254528895e-02 -1.5645292226966317e-01
      1.1615418223124476e+00 2.8854984211753820e-01
      -6.9831425529768093e-02 -1.5695106636109127e-01
      -1.4399855385752114e+00 2.1578764406135745e-01
      4.1993678899370188e+00 -3.1680095562366475e+00
      3.0854029329499904e+00 6.6157824480533778e-01
      -1.3772606963959000e+00 -1.4647376254994726e-01
      -1.3148497442141500e+00 -2.1961818609339328e+00
      -7.6090195493149659e-01 -2.1503105105450393e+00
      -1.7236983858697543e+00 -9.8545091471583834e-01
      -4.1573724306369364e-01 -9.5583746657669000e-01
      -4.9891588230916568e+00 3.0399596796593622e+00
      4.8999006881854892e-02 -2.3996202080673745e+00
      -1.3197952745807930e+00 -9.2473786246006584e-01
      1.0435977536620924e+00 2.1613460113480232e-01
      1.4304783049514007e+00 2.2555309361926383e+00
      -2.7949954305090358e-01 -2.0280181101395139e-01
      -2.1330682741708822e+00 -1.9540983478130125e-01
      -9.2440891472018361e-01 -3.1904715711037102e-01
      3.2549922387209440e+00 3.7374809472268029e+00
      1.1391507593326568e-01 3.4271485656312146e+00
      -1.7513254642940705e+00 9.9061294512830178e-01
      -1.0556206483489376e-02 2.3041779072717455e-01
      1.3761128292956477e+00 1.9209686465399411e+00
      5.9534198635354973e-01 3.7919550660161799e-01
      1.2613094794820223e+00 4.3568069535934155e+00
      -2.6268508058324824e-01 1.9467384682351538e+00
      1.5515356960118307e+00 1.6223366522367844e+00
      -3.3855298596944152e+00 5.6960006374718186e-01
      -7.3238761021953105e-02 -9.8690428053498036e-01
      1.3260404593072033e+00 1.9825825313547434e+00
      -1.0391752296111694e+00 6.6977600411357863e-01
      1.4408221109815493e+00 3.8199925857329520e-01
      8.5087767457236729e-01 2.2969132834896100e+00
      -2.7225927445392801e+00 3.7846894142453485e-01
      -5.1553462875294642e-01 5.0722738302682979e-01
      2.9547681046284611e+00 3.1424946277289063e+00
      -1.8249477624186230e+00 3.5702268569900943e+00
      -6.5270903936172719e-01 1.2195051322455115e+00
      -1.1730764538385903e-01 1.8067260712245758e+00
      -3.5957966040751760e-01 -2.0900032521827110e+00
      -1.2030576666965529e+00 2.9395862839948250e-01
      8.2943124268480950e-01 -1.2826117380395690e+00
      -8.3326409228683029e-01 1.3583613256070390e-01
      -4.3889477386498532e-01 7.9258007225065541e-02
      2.4112549971197943e+00 -3.7327418665484335e-01
      1.0866978065360260e+00 1.1364426275745594e+00
      2.5820925576160697e-01 1.7826074324070098e+00
      -1.6944158528634938e+00 1.4927901023491068e+00
      -4.0490788636597781e+00 -3.5230430270486141e-01
      3.8919768255821735e-01 5.8566981180172784e-01
      -3.3118764895209090e+00 -2.0015232699471786e+00
      1.5826791773541102e+00 1.1364913036826545e+00
      -1.6503320091063558e+00 -2.1072789600497491e-01
      4.9391865621728783e+00 6.5066920140979145e-01
      2.6024653982417545e-01 -1.2386437303568869e+00
      7.3595520483165677e-01 2.2674975293747450e+00
      3.9910892303360095e+00 -2.9294120460562585e+00
      -6.2098930534268837e-01 2.3655721235055021e+00
      3.2248740667217302e+00 1.4791435759099909e+00
      5.2361265651955216e-02 -1.2813349233561955e+00
      -4.3413555451098995e+00 9.9465704821234235e-02
      4.1221856793447822e+00 4.4023031894498734e+00
      2.6038854665372585e-01 1.6342818759227378e+00
      7.2505245853488343e-01 2.3392768073029999e+00
      3.2608364216670654e-02 -3.9608380554752315e-01
      1.5736815431284348e+00 -4.4878293065116531e-01
      -3.6477220551824328e+00 -6.4025540707758355e-01
      7.9090449875878988e-01 -4.5199095491883590e-01
      -2.9736955687461715e-02 -3.3530252899128552e+00
      2.9941474304750290e-02 -6.4599007963887534e-01
      -1.0253349840050693e-01 2.2980168271334470e-01
      3.2424877495423763e+00 -8.1203547429525569e-01
      -2.2851398363145816e+00 -2.7583463473853642e-01
      6.9015180424330036e-01 -1.2229929503799646e+00
      3.5770679635705882e-01 1.2409810692358587e+00
      -1.5597990818326608e+00 -9.9264777230129253e-01
      -1.8717274241449250e-01 -9.2791433207238275e-02
      1.7521208872004350e+00 -1.0043769502500743e-01
      -1.9702171082367275e+00 -2.8004562556607221e-01
      -2.2924838065217510e+00 1.9538779855501442e+00
      6.6367455542960097e-01 -3.3890852858120937e+00
      2.5524629729342911e+00 7.2877692451728204e-02
      1.3998061848315320e+00 1.2537455184184940e+00
      1.6022207295364593e-01 -1.1335725261383620e+00
      5.2798296103622677e-01 -1.6839268590162564e+00
      3.1123002647664229e+00 -1.5427697742503529e-01
      2.2718487633617022e+00 1.3078386490624927e-01
      4.7174548482096335e-01 -1.9617058388962114e+00
      -2.6412749996427807e+00 1.5574832812782093e+00
      -2.2492307094586157e+00 -1.2195353706755321e+00
      3.0886196314001313e+00 -9.3992713025783048e-01
      2.0313029936087501e-01 2.7345273517565092e+00
      -2.1870087533650353e+00 -1.0749173257638647e+00
      -6.3976013707038829e-02 -4.0801475318388619e-01
      7.4455963258692096e-02 -4.9098309893320530e-01
      -1.6639666133891644e+00 -3.3582902793792607e-01
      8.4508765953120935e-01 -4.1378722933662160e-01
      -3.4284737493134582e-01 -2.2153082058121937e-01
      -1.7031344150568766e+00 1.5499142203415790e+00
      -2.3408567377268423e+00 2.0098441843402495e+00
      -1.1445917200276781e+00 -1.7869777378170397e+00
      2.2020400062819401e+00 -7.7564239627277487e-01
      2.6912581141276243e-01 -4.5798341920141900e-01
      4.4457704509309588e-02 1.2135956475341585e+00
      4.6370243747400099e+00 -4.2250653449736291e+00
      -1.0990328301730081e+00 -1.0449409660665597e-01
      1.9840652961558016e+00 -1.4696170833523361e+00
      3.2125319116725309e-01 -2.1122853522653924e+00
      -1.1282617500339935e+00 -3.2702602973497674e-01
      4.4913220947149451e-01 -7.4820896963773886e-01
      -3.3797452526050691e+00 -4.1321590148659232e-01
      -1.7399534303364812e+00 -2.4402937349696781e+00
      8.7655006455699935e-01 7.8092496633859765e-01
      -3.9181563451601451e+00 9.4589986805559889e-01
      -1.2497571836192423e+00 3.0986741962687239e+00
      1.6405690205805710e+00 -3.4648473351341125e-01
      2.6822893249326984e-01 -4.7484790292103990e-01
      -2.2106429520867672e+00 1.9921844678815395e+00
      4.2325649042152486e-01 -6.5422784381540200e-01
      1.2871084544812932e-03 -3.3629052245416413e+00
      1.2907394939568533e+00 -3.3996150833136722e+00
      1.7063494647432222e+00 1.3095048765287183e+00
      -1.7210895555190544e+00 -1.6192359483763117e+00
      -6.7401356561967978e+00 1.8437155788891182e-02
      2.3642682481294002e+00 -2.9850968691542074e-01
      -4.9949664803069371e+00 -1.7720878319388891e-01
      9.1875955401911802e-01 -1.9600910103471898e+00
      -1.0662922056254449e+00 1.7933582737935025e-01
      -1.9539047741365949e+00 -1.5311727385294469e+00
      -2.0430339145831633e+00 -1.3313064890828241e+00
      1.8341825708129647e+00 5.3234793325769497e-02
      2.5258875590935298e-01 -1.7521836826348771e+00
      5.1885925508550779e-01 -3.3804496673744716e-01
      -1.4040103115550764e+00 -2.0933408340054465e+00
      -2.6876806978774512e+00 -2.3869740942002120e+00
      3.5665054698467458e-01 -3.6943244140098558e-02
      -1.4980130205462136e-01 2.9974754475121579e-01
      -6.3022383853531594e-01 1.7310423047534787e-01
      -8.4383310475326179e-01 1.1562686615571345e+00
      1.0466011890429856e+00 3.0406234576731048e+00
      -3.3010392520975662e+00 -5.1573314895222855e-01
      2.2359816932318316e-01 -1.1563235970460170e-01
      1.2223891029977716e+00 -2.1986008571605051e+00
      -1.6035597188946151e+00 3.3893929833366110e-01
      7.0071766397976198e-01 1.9922808021766994e-01
      -2.3252553764511011e-01 1.4688939801637020e+00
      1.4561880240134961e+00 8.7664914324334142e-01
      -1.0675690075322386e-01 1.3723266015622972e+00
      -1.6224074795981158e+00 2.1665297298204728e-01
      -2.0772050676273079e+00 -2.9417085196181816e+00
      -3.2727116476463652e-01 -1.8205889496683563e+00
      -1.0652230240202967e+00 -1.1502373342063218e-01
      8.9412088955168312e-01 5.8567248935733018e-01
      -9.5522053345012264e-02 -1.0739055997488809e+00
      -1.7656538340604462e+00 -2.4238099173966545e+00
      -3.3039110319252057e-01 -6.2337150467506808e+00
      -2.2074950973645642e+00 1.2506447609025175e+00
      1.3895018392711900e+00 4.2578612390575699e-01
      1.6004742173566611e-01 -2.4841719655073713e+00
      -2.3142680476143691e+00 -9.6407951388482971e-01
      3.6604016387150545e-01 -1.6046787815944088e+00
      3.2878933010693034e-01 -2.3264212954346268e+00
      1.4349990845004819e+00 -1.3123100219300445e+00
      -1.4152024465609394e+00 -7.3847732954560014e-02
      -5.0546848225657115e-01 -8.6805023697090578e-01
      1.2410102937366874e+00 -3.2249069828455785e+00
      4.1333905016143166e+00 -8.0354404516237854e-01
      2.6010032587208096e+00 -2.2583646588987967e+00
      2.3689306888135236e-01 -6.1986586061519000e-01
      2.5846712580289710e-01 -3.0682875535392258e+00
      -1.3789479454799343e+00 4.3236349337252677e-01
      6.1850768968316050e-01 2.5215819800844956e+00
      3.3197199995149642e+00 -2.6739113164175801e+00
      -9.1935784436020695e-01 1.1099137104603331e-01
      -5.4526792675418101e-01 -6.8506921303278893e-03
      3.9376548544936035e-01 -2.1449740691444391e-01
      2.4779378951056263e+00 -8.1951330010817136e-01
      -3.0994159742653995e+00 -2.3386194164098337e+00
      3.1688872178207768e+00 -1.5039983118718308e+00
      -1.3598053672112485e+00 1.4005950804641849e+00
      1.6085193788732510e+00 3.7513337657419856e+00
      1.3665860384036703e+00 7.9622751622705878e-01
      1.3198191417160305e+00 -3.7898673509126912e-01
      -8.4230201231967650e-01 -2.4070669189822893e+00
      -1.0043879464117657e-01 4.1774973252376189e+00
      1.4131605466931569e+00 -1.2498598328932382e+00
      -2.8725778284757029e+00 -1.1723887364999221e+00
      -1.5177464318628044e+00 1.2231287601108549e+00
      5.5440586406063509e-02 -1.1400594406264650e+00
      3.3876493253754386e-01 -3.7842085379368084e-01
      6.5891056488165258e+00 2.5292164722219757e-01
      -5.8208266077979887e-01 -2.1708713642256825e+00
      -1.8631144837152203e+00 5.5680188757316063e-01
      -2.4257435517837689e-01 -3.6514547749108117e-01
      -7.0441177910744512e-01 6.7073440830870434e-01
      -5.1637282022610265e-01 -1.2199662930387125e+00
      -9.9892528794781266e-01 1.3317989789411953e+00
      1.9699833592872655e+00 2.7802427671184224e+00
      1.3702897173672086e+00 -1.4319743438720842e+00
      1.1480367952558490e+00 -1.1031643990519220e+00
      5.4688430627651352e-01 9.7296718724836959e-02
      -1.5318208856063145e+00 1.6866798507795369e+00
      -1.3983991745719861e+00 -2.2266408934511628e-01
      -1.7881439654164649e-01 6.9449744789861423e-01
      1.6224188349671274e+00 -4.4406685801663914e-01
      2.3840229922633354e+00 -1.7083419545294258e+00
      8.5372592639101588e-02 -9.3867060192723228e-01
      -1.7471305510901196e+00 8.0472637620272358e-01
      6.0747660593387720e-01 8.9086830649371296e-01
      2.5879005499784008e-01 -1.2830494435446926e+00
      6.1287631690160285e-02 2.2970805472650184e+00
      -1.3747149372992475e+00 -1.0180219242146544e+00
      -6.9933409539444369e-01 -1.0996633761604091e+00
      1.8393749341828514e+00 -1.4819229859770757e+00
      -2.0703817352789549e+00 2.5565877102798900e+00
      2.7266184691987216e-01 2.7071829029790856e-02
      -1.7428450670290856e+00 -1.8538857388267369e-01
      -1.5534880128207074e+00 2.3030759086448436e+00
      -1.9155323322156410e+00 -6.3825532681749719e-01
      -4.7783302681609757e-01 -2.0486547159683370e+00
      8.9972648433503599e-01 2.1762239720839918e+00
      -2.4455893429678359e+00 4.5791684023780160e-01
      2.1953300562300104e-01 -1.5368963576594417e+00
      5.8748461436827139e-02 -1.8463454691392485e+00
      2.3417336716201391e+00 -2.7647437423985584e+00
      -1.6530257829844519e+00 1.2933242913066259e+00
      2.5087564250086434e+00 -1.4010490820905868e+00
      1.8705407713322817e+00 -2.1690507372082730e+00
      7.2837396511681403e-03 -2.0028882103517304e-01
      5.8253986736407748e-01 1.5434853520501901e+00
      4.4205817245534500e-03 7.4422251934198869e-01
      4.6601231473892540e-01 1.0706588685005320e+00
      9.4193517906321478e-01 -3.8882556552586955e-01
      7.2213627532300650e-02 -5.7330667467550056e-01
      9.7681778017862297e-01 -3.6467178163914055e-01
      5.4964019998403202e-01 6.2555952308970064e-01
      -1.0996408310032786e+00 -8.2185009376604179e-01
      -1.5325677968047959e+00 -2.5859529790156346e+00
      -1.7697957124795978e+00 2.0367759573092864e-02
      -2.5784934695364514e-01 -9.4090106639214188e-01
      1.2015847950110929e+00 -4.1384524476295798e-01
      -2.0573838197175873e+00 1.3235707194661528e+00
      2.6007334436324631e-01 1.9542552977219160e-01
      -1.6699123110484502e+00 2.9125167942712277e-01
      3.0316129388292850e+00 -9.5659053767771021e-02
      -1.3248745833444326e+00 -3.4019047412231163e-01
      -1.6851608081503999e-01 1.2466347245893279e+00
      3.2001411354517270e-02 1.5542232827733982e+00
      1.3339264022998321e+00 5.1150675173916571e-01
      2.1744858370343348e-01 2.9023343524944978e-01
      5.5391980389203892e-02 9.4291425855310429e-01
      -4.4465825778387869e-01 -1.7526688527764422e+00
      -5.3670375701970385e-01 1.3662436173459505e+00
      -5.1168151115757177e-01 1.4315434882221967e+00
      -1.7038269458638966e+00 6.2678774944661009e-01
      -2.4322688914564230e+00 1.6488618702909802e-01
      5.0793834369064095e-01 4.5623615586132971e-01
      -3.6235940070199661e+00 -3.8543153789291389e+00
      -1.3044375314282741e-01 3.5382591027335802e-01
      -1.1313407220614842e-01 -5.3383400063603925e-02
      -1.8500833565830077e-01 -5.9386764369559433e-02
      2.4173198605582305e-01 -6.6277384423224020e-02
      -2.4157370477059830e-02 -6.2909971339271911e-02
      -7.4271705597078769e-02 1.9101856951483613e+00
      -4.9443935480832030e-01 6.7023975343929471e-03
      -2.1217243173983418e+00 8.7642910415109321e-04
      1.3394317066205170e+00 2.8950417902068506e-02
      2.2133965880460340e+00 1.8088070697102088e-01
      -2.7012203421550468e-01 7.9742534073838481e-02
      -4.0314774146379567e-01 7.1927233960733028e-02
      5.6794592850777550e-02 1.6979034031290096e-02
      -2.3786006689252689e-01 2.4564596730597593e-01
      2.0923213944691521e-01 -1.2363401968764143e-01
      -3.8036745702556046e-01 -4.6587848124760557e-02
      1.2687255406073469e-01 2.8024320855807482e-02
      1.6255095436679574e+00 3.1981465527187218e-02
      -1.5715342776916949e-01 -1.7244060793869428e-01
      5.8551284925579861e-01 -4.7535992854942244e-01
      3.0222022603574466e-02 2.3666723151191441e-01
      -5.7660452129096207e-01 5.1236088566445882e-02
      -9.2585916058032014e-02 -1.0812760146535345e+00
      -2.9413614249804765e-01 -1.8335185127980788e-01
      -3.7252503657379943e-01 6.1092467763236374e-02
      -1.7326273357676693e-02 9.7190225007015366e-02
      -8.3413688414406856e-02 -6.1890833853385195e-02
      2.6327041377844762e-01 3.3336393047169788e-02
      7.9954693270851682e-02 9.6369950464216747e-01
      -3.5589977721538449e-02 -8.8127310181773638e-02
      -2.3128022108801682e-01 1.4438103093486704e-01
      -9.7184138368816800e-02 3.2499676484849520e-02
      -2.2414054312118198e-01 -1.4436961253287131e+00
      -2.1007153721386254e+00 4.7787812687813284e-02
      1.6255048021263069e-01 2.0122137209735618e+00
      -4.5183600042715222e-01 -1.3661312507980043e+00
      8.1749586333789270e-01 -2.6226695975379561e+00
      -2.2682411249520107e+00 4.4290006373287696e+00
      7.9374428067581770e-01 -1.3561985314431184e+00
      -3.2825182916618884e-01 -3.6201383570782628e+00
      -1.1852797939986276e-02 -1.5507091471660515e+00
      1.7620487441914205e+00 1.7953909913239488e-01
      1.2846056163770961e-01 -9.4834999283437221e-02
      1.1144076718526363e+00 -6.2759435261065799e-01
      8.7361480996904473e-01 -2.5723768748112059e+00
      2.7536192617475264e+00 -1.1294870707027936e-01
      -1.1369608082145284e+00 -1.2592023483691843e+00
      8.6722122951342973e-01 1.1982742054100091e+00
      -3.2915746579145568e+00 1.0765768607836188e+00
      3.7121604484609905e+00 3.1222592074738267e+00
      -4.0763013498312800e-01 4.0798626012255590e-01
      3.9330801447070726e-02 4.8708593328273131e-01
      -2.2730875669881438e+00 -2.1704298840737195e+00
      8.2249315741434448e-01 -1.0913856329824094e+00
      2.4675363150448812e-01 -7.6999782619595913e-01
      -1.7295915823074037e+00 2.3724975981770829e-01
      6.9498046641307085e-02 8.7647835079398578e-02
      -9.9588094236672087e-01 -1.1776708291578901e+00
      7.7637328752340318e-01 -6.2394915932573736e-01
      -1.2261783213334660e+00 2.1188005295428360e+00
      -1.3891923037520875e+00 -8.9763189798906862e-01
      -3.9998860952517418e-01 -1.3299874030569989e+00
      -1.2736696217507221e-01 -1.6200029710382821e-01
      2.5198362966507335e+00 1.7967097879047509e+00
      1.2225946498695042e-01 -9.3901239754145793e-01
      5.9636068457651792e-01 6.1121841754010343e-02
      1.9366476093553888e+00 -6.6646988196335633e-01
      -2.2113181232978758e+00 -1.8047048109218766e+00
      7.7752397060936418e-01 -2.1591927346068407e+00
      3.8380225510211818e-01 3.6883393013753816e+00
      -3.3094668060876642e+00 3.6222257049369269e+00
      -3.1677603362897475e+00 2.3770169859866637e+00
      1.6182798499466824e+00 -1.9763783067805624e-01
      -1.1644336749926196e+00 1.8387211604208065e-01
      -3.7391953607774195e+00 -1.0781671337795078e+00
      2.7091423670382146e-02 3.4280791838397771e+00
      -1.7752166643884677e+00 -1.0576352257728732e+00
      1.6367579656399591e+00 -1.0996273189755528e+00
      8.7488287745059887e-02 1.6586610611474712e+00
      -1.3619026712112672e+00 -5.7033671624067817e-01
      2.3307934384815435e-02 -3.7737427457181996e+00
      -3.3731000285732335e+00 -5.0616569737409938e+00
      1.2652325168974872e+00 1.8559122086229722e+00
      1.5582154024990420e+00 1.1311111576300483e+00
      -5.7409281557069947e-01 -8.1245947336129409e-01
      1.6366928242268186e+00 -3.1857014872641920e+00
      -2.3406692122388333e+00 -1.3380490811142476e+00
      -1.4333965552886425e+00 2.4229712052381289e-01
      -4.2171656067557955e-01 1.4357082882090188e-02
      -5.5983021052584911e+00 1.2550586445095115e+00
      3.8039634739792034e+00 -2.4982465996995393e+00
      2.4224104004876152e+00 -1.1505781819990448e+00
      4.5513815413991715e-01 1.3101656367908550e+00
      -1.2621787493535936e+00 1.0595872116883767e+00
      1.9198017814859119e+00 1.0015578072430267e+00
      1.6842775742873933e-01 -3.5860861485591204e+00
      -3.0262287631720111e+00 2.8236122993838051e+00
      1.2195006835619118e+00 -5.2220231335615761e+00
      -1.0250300320250834e+00 -2.4710674943436768e+00
      6.1451728033526676e-01 1.7025783262741114e+00
      2.6422513377450541e+00 -1.4169397463483604e+00
      -8.7780717837264000e-01 2.1095709450546525e+00
      -1.2361575985643893e+00 7.2689408362155128e-01
      7.1296871210124846e-01 5.3068950447160663e+00
      8.5069322316218121e-01 -5.5704023948715731e-01
      1.7831970251692877e-01 -7.2860606518386895e-01
      -1.4378062234867433e+00 1.5952073146971977e+00
      -6.8051511416438448e-01 -4.7399096227864057e-01
      1.2581734902186128e+00 7.6016078687068345e-01
      -2.0209515676835492e+00 1.0901251727096317e+00
      2.3805316467274968e+00 3.0918426153407402e-01
      3.6033980884133759e-02 1.7628452725178223e+00
      -1.4041463348780847e+00 1.2383401047173677e+00
      4.8190162665307840e-01 1.2708150051328924e+00
      2.7878955475632692e+00 -1.1714482094214875e+00
      5.3650534196818633e-01 2.4776024512646533e+00
      -1.2453580863442881e+00 5.2160136153137793e-01
      1.3678313580235753e+00 -1.1752145415066433e+00
      -3.2603162209309364e-03 2.1091077628685442e+00
      3.2870919566707455e+00 7.1200911609236617e-01
      -1.1291517732540064e+00 4.9858466541245627e-01
      -3.4688352709689993e-02 4.5022672260510577e+00
      -4.4736956679373863e-01 -2.3006913923776056e+00
      -1.6608354565030279e+00 -1.9173936122032660e+00
      -2.7616117545228875e+00 -2.5636344741226241e-01
      7.3391396846221890e-01 -4.5977134171817108e-01
      2.7963556392867472e+00 -1.4070777255743170e+00
      -2.9990117457929683e-01 1.0259829407013767e-01
      2.5827851221944091e+00 2.9686236662514798e+00
      1.1973733400481492e+00 8.4451264053625630e-01
      -2.3287394057128149e-02 2.8569995895929883e-02
      -3.3413112658563652e-03 -9.4788726691479794e-03
      -3.1456693529840246e-03 1.0172204993438856e-02
      -2.2241614146991801e-02 2.2713486725103673e-02
      -1.1612045304967612e-03 1.2429422606311892e-02
      2.8734910150822676e-02 -7.9033211619588366e-03
      1.6375508982478280e-02 1.2697784470654375e-02
      -7.1547946070460921e-03 2.4429113408728009e-02
      2.7077366621005482e-02 -2.4092606226535525e-02
      1.0752384715712510e-02 4.1793303625787702e-03
      2.4081978473145297e-03 -8.7856788694299411e-03
      2.2124572644014327e-02 -2.7547166545687948e-02
      -1.3353986897938141e-03 3.8594583265298128e-03
      3.8976217757507505e-03 2.4901794590833796e-02
      8.1281194202168089e-03 -1.2279601002015464e-02
      1.5883249995424870e-02 1.5435283630121432e-02
      1.9985334484153874e-02 3.1546532335929897e-02
      1.8882511296170721e-02 -1.9636204042065571e-02
      2.0365159377095998e-02 -1.4071705203290709e-02
      -1.6128847130474099e-02 -9.6845543762206880e-03
      2.6440893938017809e-02 -1.2955915975037841e-04
      1.8422172583315095e-02 -2.8622302466263481e-02
      4.4599554097242517e-03 2.6862547456174560e-02
      -2.6506238218829328e-02 -2.8550777773248038e-02
      -2.2892416614881148e-02 8.5418266845222208e-03
      -5.0027887257444413e-03 1.7363852460168527e-02
      -3.7571439339470201e-03 1.3319711921180716e-02
      -1.7338377438652398e-02 2.7886315073435419e-02
      1.6067887431312502e-03 -2.5185356582837170e-02
      -2.7905511587632919e-02 -7.9361772531568956e-03
      -9.6160033456745460e-03 -2.1437732090569981e-03
      -1.1884026223748094e-02 2.6576139859719367e-02
      -1.8984739344800650e-02 4.9129594219987788e-01
      1.4393622925125444e+00 2.3496581473792025e-01
      -1.3406777832005001e-01 5.1463067186052192e-01
      -9.0007973275566244e-01 -1.0110713052074120e-01
      -1.9005752274108740e+00 5.2667571443341145e-02
      -1.0591900544368708e-01 -7.8433594300372855e-01
      8.5290220828189844e-01 -7.5195645581127624e-01
      3.1279174600090909e-01 -9.2781173758331215e-01
      -1.7538488952906245e-01 7.5225946104620522e-01
      1.5381242036844914e-01 1.0049553481281597e+00
      -2.4916123262720276e+00 -8.6269887569246251e-01
      2.7164285504601602e+00 -4.6283760403856966e-01
      6.9158330750834857e-02 -1.3801439771643014e+00
      2.1440609198529628e-01 -3.5093263029268872e-02
      6.4870913566729711e-03 2.7630362364316235e-01
      -3.2038540258336057e-01 -1.0637245566639807e-01
      -5.2230211139860414e-02 1.7521523149297888e-01
      1.2796952876967008e-01 7.8667971313109708e-01
      -1.3499839912194229e+00 -2.3482278946259777e-01
      2.3605293651021642e+00 4.3654929075770388e-01
      -1.0587085179158384e-01 -1.0883816255961011e-01
      -6.1053649280314914e-01 -2.2912689444688145e-01
      7.0168732735117520e-02 -9.5319954901808457e-01
      -6.3696797831559215e-01 -4.9616599864313532e-01
      -4.4857636887429636e-01 -4.3199343469035989e-01
      4.0845253532905933e-02 -1.1203330824609213e-01
      2.2663145938457316e-01 -2.4791564556926468e-01
      -5.9376892802695064e-02 -1.0505952139922758e+00
      1.1451410891083660e+00 9.0499817003913541e-01
      5.6463659843071223e-02 -6.0981243727244908e-02
      -1.9192943043499664e+00 3.8808721329182090e+00
      -3.9307441425567515e+00 4.4265542985896128e-01
      3.1794804331851723e-01 -2.7315569672940299e-01
      -6.3444288975651686e-01 -1.6818820101291698e-01
      -1.3021414065605337e+00 1.1218431418332568e+00
      -4.7750154227244263e-01 6.6933056424174145e-02
      -1.4378906275436454e-01 1.9356825632052805e+00
      4.5035573677029600e-01 -2.0065501029383745e+00
      7.1321688984516862e-01 7.4587272185144404e-01
      -1.6674939949361109e+00 2.0828711000607623e+00
      2.9080895343816597e+00 1.3412451273250592e-01
      -1.4175684536983291e+00 -4.1083723657841859e-01
      7.6057619346105965e-01 -2.7610906674876188e+00
      -1.2539098386356015e-01 -1.4167222614466326e+00
      1.1825223720354043e+00 1.9607632126249266e+00
      1.6345567757898021e+00 9.5343898398173144e-02
      1.7348035680313208e-03 1.5994669996399236e+00
      -7.2161494473634191e-01 -2.8362413681144855e-01
      -3.5605345636321517e+00 -8.8918631930805669e-01
      4.2054543124876744e+00 6.3850475842968613e-01
      1.3536712972973899e+00 1.6028954000325673e+00
      -1.7207718584702658e+00 2.5559609816342994e+00
      -1.5371906657513108e+00 -3.3781690161250522e-01
      6.2766874543360873e-01 7.9750907028528961e-01
      -2.3077056755373548e+00 1.5002658052228866e+00
      -6.0015651057670982e-01 1.1478426107394337e+00
      -2.3962128437787711e-01 2.5582437467645353e-01
      1.9396727496728547e+00 -3.6014624537606582e-01
      -2.5555342705325956e-01 1.0814900344137965e+00
      -5.1494642668554302e+00 -1.2777369295146710e+00
      2.3935968308219651e+00 -7.6441762426861648e-01
      2.8434534315143436e+00 -3.2333101513298024e+00
      1.9566459459942762e-01 1.8505940901989963e+00
      -2.2746708458866928e-02 1.7944627202915437e+00
      -3.9936037468750101e+00 2.9147491602919571e+00
      -4.0165246852006187e-01 3.6069191529534944e-02
      7.7420879845181323e-01 1.3624836221740764e+00
      -3.4445734716633827e+00 5.5956633422231794e-01
      -1.8025362255405708e+00 1.7099478501637051e+00
      -6.9670295321081488e-01 1.5108970896804825e+00
      1.4894541471328864e+00 -1.6133207025471867e+00
      5.4436218888262777e-01 1.1604062274749707e+00
      7.2166394047711648e+00 -2.8650767894572865e-01
      -1.6910884301928175e-01 -5.0259410056811338e-01
      -6.3002516004420288e+00 -3.1417631170768074e+00
      -2.8114284609308466e+00 1.7499427935662857e+00
      -8.1925764992440386e-01 2.4872692361137143e+00
      -1.1290009966403449e+00 -4.4126853357520168e-01
      2.8926096887111723e+00 -2.2930042285318164e-01
      -2.2734078502799946e+00 -8.3983338365157229e-02
      3.6307245454284387e-01 3.4435796325091528e-01
      -1.6177838101398392e+00 -1.4026055265328750e+00
      2.3263737124095679e-01 3.5787055675575635e-01
      9.2611372767629596e-01 1.1627361730071708e+00
      9.6819274275106282e-02 -4.3410371082711379e+00
      3.6010939322135442e+00 1.1672307452766593e-02
      1.1901721274452239e+00 -3.8187481498432621e+00
      -2.0613005246190119e+00 -4.8631614831367527e+00
      9.2541059805988179e-01 -9.0822674652231072e-01
      1.8800442350119956e-01 7.9717199644801484e-01
      -2.0615365230355526e-01 6.2343467165524302e+00
      1.1160838289521191e+00 2.5048938888752026e-01
      1.2500271494940474e+00 1.0299652217423227e+00
      3.9907410973809793e-01 -2.2853655989206847e+00
      -1.1610407186814138e+00 7.6956326669049202e-01
      -6.5293032290592490e-01 -1.4885171997591359e-01
      -1.1920390085616042e+00 3.3454142626429646e+00
      3.6679717107682136e-01 -4.2596823740353906e-01
      -3.0934761323872539e-01 2.6366368443525001e+00
      6.9092739223698596e-01 -4.2121244795638475e+00
      2.2893877112490437e+00 2.4603703351611381e+00
      2.0414496850351842e+00 3.7405778539854242e+00
      -2.5003696816505210e+00 -1.0965386981623726e+00
      9.1572178527137627e-01 8.9414644620088923e-01
      -3.4899754019910896e+00 -1.3127321534254959e+00
      2.2840877291175072e+00 -7.7428842956709307e-02
      2.4854239573549894e+00 3.8142433428460403e+00
      2.1785181119069041e+00 6.0528090412528501e-01
      -8.6163707387572330e-01 1.6368871018569371e+00
      -2.8158826033906519e+00 -7.1596339350169236e-01
      1.0016476746582206e+00 -4.1145356684646217e-01
      3.1312086236021830e-02 3.8854587598686402e-01
      -2.0423088405239640e+00 2.9021731321811148e+00
      -1.8211229011506036e+00 1.7713200714432054e-01
      7.7667773734345724e-01 4.6926155720630280e+00
      4.0084446649173673e+00 1.5192794111957246e+00
      1.8537557146386094e+00 -1.1439905580736251e-01
      -1.6122922907028754e+00 -1.8066718590800253e+00
      1.7002551465719782e+00 1.5800998124824912e+00
      -2.5916171470618349e-01 7.4207698789594312e-01
      -2.8417802037430211e+00 -2.7758991876593297e+00
      2.5965510192798766e+00 4.4134128207899795e-04
      -2.1228087331769707e+00 2.5644620793518662e+00
      2.9151666536218479e+00 -1.0135275548656715e+00
      -1.7220343470359976e+00 -2.0376370384273272e+00
      2.7845534053879428e-01 -3.0517243144308774e+00
      -3.2743173165551696e+00 -9.0254658697579115e-01
      -7.5475190835621808e-01 6.1912582172135189e-02
      4.1980714590132417e-02 2.8930306521330378e+00
      -3.8425394672425308e+00 7.3407896038851794e-01
      -1.9297776513521353e-01 -8.8482474993887686e-02
      1.5547484624727859e+00 -1.1912042155175166e-01
      3.9553105912089909e-02 -1.5737028620873800e-01
      7.6708879014144626e-01 -1.3044733822496740e-01
      -5.7545314782254289e-02 3.8631256907127633e-02
      -7.6682625175968369e-02 -7.1602928737461838e-02
      -2.3511947537202932e-01 3.4216479723159948e-01
      3.6644388511051368e-02 1.9228376256385402e-01
      -2.3862254847107645e-01 4.0260418659468979e-02
      -6.2670590377128987e-01 -1.8540409159613705e-01
      -9.8738206523840064e-02 -5.7624169708710860e-01
      8.0087373627149169e-02 -1.5268305716039297e-02
      -2.3845381110559835e-01 1.3324459591590097e+00
      7.6403539864682207e-02 -2.1636203595206963e-01
      -1.3206803262168251e-01 2.3646409565456789e-01
      -1.5535276195798753e-01 1.2689342370440101e-01
      -2.0409894250861510e-02 1.1297502892310096e-01
      -5.7664997165706021e-02 -3.3548954871828018e-02
      3.2987953729632302e-01 -1.9848931793336530e-01
      5.4619703679848830e-01 -3.9013934544367163e-02
      -1.2065366998937460e-01 2.5512042510680514e-03
      4.1213070682409902e-01 -9.5681482022625985e-01
      1.3711682481759299e-01 5.7187744908332150e-01
      3.8832243666629440e-01 -3.2609882644260502e-01
      3.8973400037770156e-01 5.1940132731068045e-01
      1.2201251951002093e-02 -1.3866230069128882e-01
      -3.0609686813878458e-02 5.5684171235078676e-02
      -3.8810456048502043e-02 1.5094133387369446e-01
      7.7880157038942535e-02 5.1063899254119449e-01
      1.1732309587766085e-01 -3.3727786028474593e-02
      -7.5009492953635556e-02 1.6215264486183485e+00
      3.3334545325814818e-01 -7.8948819862243433e-02
      -1.6091269448730421e+00 -2.1349664517941100e-01
      -1.1432122438134353e-01 3.7682691248067884e-01
      -1.1392137107063367e-01 -2.1890087078135743e-02
      -1.9433187022564335e-01 -4.4905729059041902e-02
      2.4147042711693664e-01 -5.9470380346403853e-02
      3.7454187712110281e-03 -7.4326083687499739e-02
      -3.7564405413361313e-02 1.9370943649385577e+00
      -4.8434095521672016e-01 5.6886743263011096e-02
      -2.1397733913023420e+00 2.0696190825930223e-02
      1.3866451619625648e+00 1.4191921143729174e-02
      2.2509279630193375e+00 1.6895807028694376e-01
      -2.7349433293010211e-01 4.7696434242656273e-02
      -3.9927370140524959e-01 5.2719308896324278e-02
      8.1066088159783653e-02 6.6606705463647081e-02
      -2.3771126985142568e-01 2.4161043132277923e-01
      1.9948478647982021e-01 -1.1227935272256880e-01
      -3.7196912495892059e-01 -4.1761873725108846e-02
      1.4374117689650964e-01 2.0585098568096882e-02
      1.6157682314096240e+00 5.0210041866542217e-02
      -1.5564478286309266e-01 -1.4350329977337370e-01
      5.4407121960769955e-01 -4.3657556326461378e-01
      -8.3464293362020027e-03 2.3607707495843758e-01
      -5.8030146421657358e-01 5.5699922928639865e-02
      -5.3682953338216224e-02 -1.0915572252224479e+00
      -3.1225186006250061e-01 -2.1492462608919968e-01
      -3.9710584174011665e-01 1.9493506846114467e-02
      -2.2951230601023300e-02 1.3901573737128470e-01
      -7.1725177561239112e-02 -5.7549474340112379e-02
      2.9665618802207583e-01 3.6434304621156190e-02
      1.0438439963726782e-01 9.5250040616097187e-01
      -3.8918816195595021e-02 -7.8843443297048510e-02
      -2.2617334137926864e-01 1.5263946312054205e-01
      -8.3138757329871207e-02 2.8616969334910453e-03
      -2.0232495714759224e-01 4.1121152669242667e-01
      1.3358564281587839e+00 -6.8510000257204218e-01
      2.4205879853798695e+00 -1.7096595619643731e+00
      -2.2080600104612031e+00 -2.9989598914731035e+00
      -8.6169186377563078e-01 1.1954641917513633e+00
      -2.5620111732805650e+00 1.8809863028979884e-01
      8.5163474856251997e-01 1.8588912004074263e+00
      -1.5868142571528441e+00 2.0370374530107740e+00
      -1.4954770131515385e-02 1.4354824643070227e-01
      1.6123565866695253e+00 2.2723118242423701e+00
      -3.0326080116220072e-01 1.5248764650114199e+00
      -5.1194422093303098e+00 1.4354217795444415e+00
      -3.7635027548651606e-01 2.6513048393011864e+00
      6.1454982657644014e-02 1.9332773126403041e-01
      1.8873997215630739e-01 -1.1557432100961764e-02
      -2.7881810366765376e+00 -5.3098174716485076e+00
      -2.7070558089896735e+00 -6.7983072741794037e-01
      -3.2297517003333770e-01 -1.4546334920597173e+00
      -3.4280607331374235e+00 1.0065584735206863e+00
      1.3115342765502602e+00 1.7513581342845728e+00
      -3.6846078031208642e+00 -2.0261677124294508e-01
      -3.5246914400798777e+00 1.6241448600282575e+00
      1.6664582385445337e+00 3.7563170079423731e+00
      1.3526240740378233e+00 -2.5689301264340245e+00
      8.9591583801936867e-02 -2.4172123355269228e+00
      -4.2106372454208181e+00 9.3248524476995176e-01
      -1.3094999169887955e+00 -1.7787381323314400e+00
      2.8771250607793157e+00 -1.1375908725796329e+00
      2.4120775805092163e+00 6.0089690464795593e+00
      1.0910986694247488e-01 -8.5540031292949148e-01
      -1.8982798242848389e+00 -2.6670599184038398e-03
      1.8514597859100932e+00 7.8524392039952661e-03
      4.8996135865105694e+00 4.4100325058231693e-01
      1.3939965135386538e+00 1.6492653517102926e+00
      -1.0968993477534088e+00 -3.9372213073611895e+00
      1.3795667375381855e+00 -2.8951130801180802e-01
      1.2150592093815853e+00 4.1382664166006045e+00
      -1.9827421907864264e+00 -2.7578115995379533e+00
      -2.2513426139931898e+00 -1.0763935375563287e+00
      1.1433131336790274e+00 8.0019455784078619e-01
      -1.2941870907911945e+00 -3.5489442610592711e-02
      2.6684624331210545e+00 5.1988393551111631e+00
      -3.0133709781391826e-01 1.0580715663279343e+00
      1.3651557574269386e+00 1.5928905216211309e+00
      -1.7239050040459776e+00 2.4619129187000577e+00
      1.5431967243137825e+00 -1.5858347914049256e+00
      8.6933089888616301e-05 3.4324245778588580e-01
      -2.3937818368164345e+00 8.8589553430256618e-01
      4.4150430335956541e+00 -1.8655093678077814e+00
      -7.5783690796014092e-01 -5.0387516395704135e-01
      1.4946070119064392e+00 3.7681793787086382e+00
      -8.8986269923673189e-01 -2.3790454488762256e+00
      -1.6564985135162216e+00 2.6215243260669143e+00
      2.6922724242495116e-01 -1.1985861397123014e+00
      -2.0145986139866756e+00 -3.4249470475330739e+00
      1.4098754416358339e+00 -5.1216839416893345e-01
      3.0401975032093596e+00 -3.2211223748179425e-02
      3.0526932706365955e+00 -9.0878854130132403e-01
      -3.4559683598635229e+00 4.2141606844737378e+00
      -7.8659495928254564e-01 -3.2966164346435969e+00
      1.7997338837404309e+00 -1.9997185422343493e+00
      -3.8722454169904381e+00 -1.5596772590951997e+00
      -2.2984557536184815e+00 -4.5197550888466853e-01
      -7.3724074030926262e-02 1.6210568098485032e+00
      -4.9046251417753567e-01 -9.9380453019952220e-01
      1.5006309970463078e-01 -4.5929908562346528e-01
      1.2966703378275466e+00 6.9540145135952514e-01
      -9.4733034176172171e-01 -1.1179999492781559e-01
      3.4903350002531948e+00 3.8511807239986912e-01
      -1.8539854075983589e-01 -1.4728642300218397e-01
      8.2672345424567772e-01 -1.0591536763473270e+00
      3.6852785311204808e+00 9.0513989809578499e-01
      -2.0719813435245563e-01 1.6620426809143920e+00
      2.0051536121921992e-01 2.3683489695280175e+00
      9.6277073680540518e-02 -9.3637877935671476e-01
      4.9841795326709026e-01 2.3304497834866233e-01
      -2.1040364596862480e+00 -1.5635976028817711e+00
      5.1573387603547127e-01 8.9143148462671862e-01
      2.4174602051488723e+00 -1.6927769780850066e-01
      -7.2440931915827803e-02 -3.0802068753037215e+00
      -5.1340866112016936e-01 9.4263784628194636e-01
      -1.0474931789627763e-01 8.0770230049998049e-01
      2.1040907629288603e+00 -7.5571437250023266e-01
      -1.5236055464886824e+00 -2.8034956961615377e-02
      -2.0613731776915096e+00 5.0911540297224112e-01
      1.4423166958858449e+00 -8.5760366493853013e-01
      1.3701536277528483e+00 -6.7559458555870744e-01
      -1.8609927020128728e-01 1.0923679884332340e+00
      4.6103448442597728e+00 1.0848331392211266e+00
      -2.4398321285937721e-01 -3.6489811625268898e+00
      2.3042588718483898e+00 1.0259084177566506e+00
      -1.2047973107559611e+00 2.6101381305786026e-01
      4.8873056361806511e-01 -1.6168147388048768e+00
      -2.4806103601114287e+00 2.0838119859259168e+00
      1.8162460683260886e+00 1.7634190278645210e+00
      6.5508396042309402e-01 -5.8433204723127255e-02
      -3.7827142539507554e+00 2.4576291991415505e-01
      3.4049040110792816e+00 -6.3513988124525000e-01
      3.5554466544087293e+00 6.8937117758093003e-01
