<?xml version="1.0"?>
<opencv_storage>
<opencv_ml_ann_mlp>
  <format>3</format>
  <layer_sizes>
    65 65 24</layer_sizes>
  <activation_function>SIGMOID_SYM</activation_function>
  <f_param1>6.6666666666666663e-01</f_param1>
  <f_param2>1.7159000000000000e+00</f_param2>
  <min_val>-9.4999999999999996e-01</min_val>
  <max_val>9.4999999999999996e-01</max_val>
  <min_val1>-9.7999999999999998e-01</min_val1>
  <max_val1>9.7999999999999998e-01</max_val1>
  <training_params>
    <train_method>BACKPROP</train_method>
    <dw_scale>1.0000000000000001e-01</dw_scale>
    <moment_scale>1.0000000000000001e-01</moment_scale>
    <term_criteria>
      <epsilon>1.0000000000000000e-04</epsilon>
      <iterations>5000</iterations></term_criteria></training_params>
  <input_scale>
    1. 0. 1. 0. 1.9875968354264205e+02 -3.8759689833491075e-02
    2.0769563086922766e+01 -1.0926667718909101e-01
    3.6823534741093402e+00 -5.3820787823533944e-01
    2.7944494065673200e+00 -1.7069890169984887e+00
    3.4458017583456870e+00 -2.7279924573120988e+00
    3.8414061832473383e+00 -3.1411170459035871e+00
    3.6481939535892294e+00 -2.3949963795057005e+00
    3.9644852395767209e+00 -2.1274408340390809e+00
    3.9989304599774420e+00 -2.1718152827544190e+00
    3.7981165997310660e+00 -2.4761471863079398e+00
    3.7622893925938672e+00 -2.8601155331871180e+00
    3.4067287635669796e+00 -2.3021732402064177e+00
    2.9757044114305207e+00 -1.4095999159961436e+00
    4.2286052679042561e+00 -4.9797931505198084e-01
    1.6430611815073942e+01 -1.1267010745406079e-01
    1.6891832496844975e+02 -3.9528470752104743e-02 1. 0. 1. 0.
    4.4530753199495843e+00 -3.2325932394194803e+00
    4.6868233931503234e+00 -3.7424081703081775e+00
    4.6058634535887935e+00 -3.7659140097183776e+00
    4.2583758081987177e+00 -3.0988179323382936e+00
    4.4698031778462273e+00 -2.9355751526158080e+00
    4.5945233840776067e+00 -2.8534903457312781e+00
    4.3931829536753648e+00 -2.6342991144311130e+00
    4.2594536603906663e+00 -2.7672379517505439e+00
    4.1804591337123762e+00 -2.9860870021268218e+00
    3.9966257534319274e+00 -2.8662442954004406e+00
    4.1637212004589799e+00 -2.8613061218940374e+00
    4.4281478359285771e+00 -2.7970598257107144e+00
    4.5939026312232034e+00 -2.7282497693066334e+00
    4.5579114604378814e+00 -2.7264803202206851e+00
    4.6168511130988117e+00 -2.8704711189395162e+00
    4.4407048066375596e+00 -2.8868752442677019e+00
    4.1002433216637941e+00 -2.9273666058174954e+00
    4.2026236682731275e+00 -3.1673610492263555e+00
    3.9652744887171609e+00 -2.7806301139131122e+00
    3.7393100124370831e+00 -2.3220231203059369e+00
    7.7867391900343308e-01 -2.7939937811355633e-02
    1.1817823046180918e-02 -2.0325549446946360e+00
    9.2768056412051957e-03 -1.1944285253933333e+00
    1.2325910829699046e-02 -1.4240272846314785e+00
    7.4622917237829001e-01 -2.7939937811355633e-02 1. 0.
    9.9687539774176142e-03 -1.4944266395506876e+00
    9.2801297639864781e-03 -7.4466164504762322e-01
    1.0057460130320939e-02 -1.0106806015047707e+00 1. 0.
    1.0535000080634682e+00 -2.7939937811355633e-02
    1.0028989323870566e-02 -1.3223011204559423e+00
    9.5470260498414367e-03 -1.4499862309770097e+00
    1.0217991669283397e-02 -1.0322004767008941e+00 1. 0. 1. 0.
    1.0974350906961666e-02 -1.4043231406295331e+00
    1.0542010052080370e-02 -7.3608228377685037e-01
    9.5071430955050804e-03 -1.1031400655450567e+00 1. 0. 1. 0.
    1.2386402346445826e-02 -1.3287846448570160e+00
    9.3005633616676728e-03 -1.2141950761223650e+00
    1.0623351938897156e-02 -1.3552148748010893e+00
    5.9698333790263203e-01 -2.7939937811355633e-02</input_scale>
  <output_scale>
    5.2631578947368418e-01 4.9999999999999994e-01 5.2631578947368418e-01
    4.9999999999999994e-01 5.2631578947368418e-01 4.9999999999999994e-01
    5.2631578947368418e-01 4.9999999999999994e-01 5.2631578947368418e-01
    4.9999999999999994e-01 5.2631578947368418e-01 4.9999999999999994e-01
    5.2631578947368418e-01 4.9999999999999994e-01 5.2631578947368418e-01
    4.9999999999999994e-01 5.2631578947368418e-01 4.9999999999999994e-01
    5.2631578947368418e-01 4.9999999999999994e-01 5.2631578947368418e-01
    4.9999999999999994e-01 5.2631578947368418e-01 4.9999999999999994e-01
    5.2631578947368418e-01 4.9999999999999994e-01 5.2631578947368418e-01
    4.9999999999999994e-01 5.2631578947368418e-01 4.9999999999999994e-01
    5.2631578947368418e-01 4.9999999999999994e-01 5.2631578947368418e-01
    4.9999999999999994e-01 5.2631578947368418e-01 4.9999999999999994e-01
    5.2631578947368418e-01 4.9999999999999994e-01 5.2631578947368418e-01
    4.9999999999999994e-01 5.2631578947368418e-01 4.9999999999999994e-01
    5.2631578947368418e-01 4.9999999999999994e-01 5.2631578947368418e-01
    4.9999999999999994e-01 5.2631578947368418e-01 4.9999999999999994e-01</output_scale>
  <inv_output_scale>
    1.8999999999999999e+00 -9.4999999999999996e-01
    1.8999999999999999e+00 -9.4999999999999996e-01
    1.8999999999999999e+00 -9.4999999999999996e-01
    1.8999999999999999e+00 -9.4999999999999996e-01
    1.8999999999999999e+00 -9.4999999999999996e-01
    1.8999999999999999e+00 -9.4999999999999996e-01
    1.8999999999999999e+00 -9.4999999999999996e-01
    1.8999999999999999e+00 -9.4999999999999996e-01
    1.8999999999999999e+00 -9.4999999999999996e-01
    1.8999999999999999e+00 -9.4999999999999996e-01
    1.8999999999999999e+00 -9.4999999999999996e-01
    1.8999999999999999e+00 -9.4999999999999996e-01
    1.8999999999999999e+00 -9.4999999999999996e-01
    1.8999999999999999e+00 -9.4999999999999996e-01
    1.8999999999999999e+00 -9.4999999999999996e-01
    1.8999999999999999e+00 -9.4999999999999996e-01
    1.8999999999999999e+00 -9.4999999999999996e-01
    1.8999999999999999e+00 -9.4999999999999996e-01
    1.8999999999999999e+00 -9.4999999999999996e-01
    1.8999999999999999e+00 -9.4999999999999996e-01
    1.8999999999999999e+00 -9.4999999999999996e-01
    1.8999999999999999e+00 -9.4999999999999996e-01
    1.8999999999999999e+00 -9.4999999999999996e-01
    1.8999999999999999e+00 -9.4999999999999996e-01</inv_output_scale>
  <weights>
    <_>
      -2.5682488904807368e-02 2.4904193724546345e-02
      2.5174033636219256e-02 1.4731863933791379e-02
      -2.0267689784514362e-02 -1.6822790642892400e-02
      -1.8197461667975062e-02 -2.2954143662520365e-02
      8.3576541739475117e-03 2.1084556908152505e-02
      8.3601450776176079e-03 -1.4885810359865023e-02
      1.6550792992678483e-02 -9.0691831483850540e-03
      4.3248099886675885e-03 -5.6954897725600626e-03
      2.0819211425129033e-02 1.6554031990729766e-03
      3.1248145323602306e-02 -1.9772252123090108e-02
      1.9870036440901479e-02 6.0884661826592660e-03
      -2.8284895672105580e-02 -1.4294564254816712e-02
      1.1138075694844374e-02 2.8732208824541864e-02
      3.5076325183127765e-04 -1.6252898127208648e-02
      3.1515744034611881e-02 -5.2429677502790727e-03
      -2.4853060242123720e-02 -1.8872721361151579e-02
      -2.5665379243542324e-02 -9.4957335359956846e-03
      6.8435296185759978e-03 -1.7881262395589917e-03
      -1.8749899901251040e-02 -2.1020325275377404e-02
      -2.0509368602578949e-02 -2.7721048572561437e-02
      -3.8331901368104574e-04 2.0526005927939617e-02
      2.7107860115797269e-02 1.5861521209692708e-02
      -2.5069913543625907e-02 1.7047743543432275e-02
      -7.4043151393401452e-03 -2.6849124533587350e-02
      2.4580035764297115e-02 -2.4447176938645725e-02
      2.8708600225710441e-02 1.6507648108065633e-02
      -6.7546854795963694e-03 -2.4581745358855229e-02
      -7.7465056608642079e-03 2.4936866018331290e-02
      -2.2086946387193232e-02 1.8776198622867321e-02
      2.5565085813245372e-02 -2.2404623898492796e-02
      7.3571448967548391e-03 6.0523080250549149e-03
      2.9534014400111306e-02 2.4990565656039725e-02
      -2.6912435287777686e-02 5.4850714550927701e-03
      -1.9466457653699837e-02 6.9844012810735294e-03
      2.2512433893386682e-02 -2.3206685626703062e-02
      -2.5289356894481578e-02 2.3386230244609986e-02
      1.2655044708560327e-02 -8.3448319078102857e-03
      -1.3753032560661746e-02 1.3534466848133262e-02
      -1.8072650538440711e-02 -1.0726165708434652e-02
      -2.4400590707398306e-02 2.0960269654810883e-02
      -2.1933021141726291e-02 1.7836965056626138e-02
      -1.6365018346645350e-04 -3.2259600589145725e-02
      -2.4862596615904495e-02 3.1075047550963159e-02
      -2.0215091122517794e-03 2.6758568705552099e-02
      3.0075115490757723e-03 1.4040116559163790e-02
      1.3598015345070526e-02 2.9399968116406650e-02
      3.1428001057350573e-02 -2.2963148879822436e-02
      -1.1160394974173938e-02 -1.8038706019920803e-02
      -2.2824817416202264e-03 2.0068929678490840e-03
      3.1474880975087029e-02 -1.8028050074545179e-03
      3.2076544926593252e-02 -1.3757533252062467e-03
      -1.3337224392471734e-02 4.5436961248532109e-03
      1.2916488266913870e-02 -2.1137258837192401e-02
      1.5386297156868765e-02 1.9300762521383279e-02
      -1.4090490651932202e-02 -5.4957381730059004e-03
      -9.0962084268366578e-03 2.3706895118324123e-02
      -5.8558453516866452e-03 1.9701366877887115e-02
      -2.2340793801699278e-02 2.6738217114688420e-02
      3.4549810849757875e-02 -1.5947781004069113e-03
      -1.9870928296644965e-02 -2.7585203084837959e-02
      -4.8411311424569692e-03 -2.5578513284274206e-02
      -1.8192832301425568e-04 1.1654424350813533e-02
      1.5369558874299000e-02 1.4920812387047408e-02
      3.0276855207754839e-03 1.2899232036423593e-02
      1.7212519254848003e-02 2.9788939259321981e-02
      8.4076310869020487e-01 9.0060596555834471e-01
      -2.7648753090987044e-01 1.2165935380265559e-01
      1.2657974877065921e+00 9.7307178581364706e-01
      -6.6464105545817587e-01 -4.5527334270418801e-01
      -1.7829005945103951e-01 1.0006638458008998e+00
      -4.1945812463177928e-01 -1.3152545993993109e-01
      -1.9299284823534539e+00 1.5527240769627064e+00
      -9.3975148030586697e-01 1.9298534304918391e+00
      3.7065633544373189e-01 -4.0058875868123855e-01
      -1.3529584419358884e-01 1.5906866564227711e+00
      -2.8250405424465881e+00 -1.5411270405192079e-01
      7.8293335763157251e-02 1.4668030815375305e-01
      -7.3428614166958756e-02 -8.2037955726202449e-01
      6.3925287203265235e-01 2.0085712654507364e+00
      1.9459152609364325e-01 3.7608005312177095e-01
      -1.2994766107187001e+00 2.7035613446433482e-01
      8.1774170431195381e-01 -3.7083192331231896e-01
      1.1639923356540605e+00 1.5157958426977800e+00
      -6.9459627521240286e-01 5.6714405404064872e-01
      4.0713788598691902e-01 4.0724834318541397e-01
      -4.2030054836336483e-02 -3.4515469622271955e-01
      -5.0823165926864078e-01 -2.6286453766225137e-01
      9.1721546395295409e-02 -1.7622371924371858e+00
      -4.2068676953423118e-01 2.1660697233997226e+00
      -1.0750862750787658e+00 -1.2994539360429361e-01
      9.6648298892070417e-01 5.4067741488697951e-01
      -7.1073890636931281e-01 -7.3740237675646214e-01
      4.0599525343746024e-01 -3.8297854892676364e-01
      -7.2948249276474875e-01 -1.4900644398168583e-01
      5.0512131470244070e-01 -1.0050533993135262e+00
      5.8985989282276674e-01 2.7834746321283906e-02
      1.8291658648393925e+00 -2.4779154658068181e-02
      5.2076655478069589e-01 7.2459907541136381e-01
      -8.6902868123558552e-01 -3.4277542896106561e-01
      5.3649667798860279e-01 -1.1984652574465462e+00
      1.0610611506232233e+00 -1.9973346488861696e-01
      -1.5237823918407592e-01 2.0045735241398752e-01
      -9.4599802802808597e-01 4.3378772241827146e-01
      -3.1136657477935269e-02 -1.3383939750362028e+00
      1.3980763315270051e-01 -1.1721827280169093e+00
      1.0878758245534308e+00 6.2943695981618020e-01
      7.1132476667215239e-01 -2.2952647167711007e+00
      9.2993735456936000e-01 -6.8904494533524721e-02
      3.8254138848164809e-01 2.1676278739507615e-01
      3.9900046474952006e-01 1.1159439925981529e-01
      5.2516369560271559e-01 -2.2384006922591221e-01
      1.2624094846752252e+00 1.4694971870627704e-01
      6.7695457155021010e-01 3.5204936767790229e-01
      1.1561893034142685e+00 1.5267645228762985e-01
      -1.4569590176031419e+00 -1.4678367939920153e-01
      1.2284523690059630e+00 -6.1429396561792904e-01
      1.6642447639857452e-01 1.2720778149273972e+00
      -1.0373382246548224e+00 -1.6527637674662463e+00
      2.6957285944169757e-01 -4.3955302373801575e-01
      -5.2741181532332615e-01 -4.8543144407259442e-01
      1.3024250505666524e-01 -6.7994333521786632e-01
      1.5702068022753943e+00 1.4649301960944483e-01
      -1.4632061021257312e+00 4.1862057580968232e-01
      8.0932672937933103e-01 -5.8223841569879653e-01
      1.0078320564230392e+00 7.5688533451443496e-02
      -8.1070164364811326e-01 -9.0921641748163495e-01
      -7.3611642935963106e-01 1.1204463728304770e-01
      -1.1714920914140699e-01 3.6900381711332753e-01
      -7.3169304214218556e-01 8.8348209829532440e-02
      -6.2133219746291590e-01 7.6139182290342355e-01
      -6.3272339632039609e-01 -6.7969098301707831e-01
      9.9950926232584419e-02 -3.2853900940990771e-01
      -1.0510730038432081e+00 -4.2302650263792729e-01
      7.7582886149704178e-01 1.0601147791029815e-01
      -4.1246135165502362e-01 7.2941336372864929e-01
      1.1456892351570303e+00 3.4378920476484348e-01
      -5.9961794704840965e-01 -3.9048226360752343e-02
      -1.1801519199636386e+00 -3.3254244646680531e-01
      -1.7259462283685892e-01 -2.7031318345432370e-01
      -3.6291893059987740e-01 1.1471241003083364e-01
      3.8926726908185078e-01 -2.6148657452769866e-02
      -8.1322600859804195e-01 1.0824510090394132e-01
      -4.9607138012841545e-01 -3.7426331216712794e-01
      4.5558137587688208e-01 1.3144037763702212e+00
      -1.5453000058306049e-01 9.8456823853049769e-01
      5.0129772298559094e-01 -1.1426758378435840e+00
      1.8209639683902507e-01 3.7501191846991827e-02
      7.7681204723034802e-01 -1.4111137311311868e+00
      6.8006676802093546e-01 6.3463439363469920e-01
      1.1175273240804768e+00 -4.9790405819261202e-01
      -1.5454654067116143e+00 -4.8164542470883837e-01
      2.4374708598590472e-01 -1.6764005878165225e-01
      -8.1503540389945384e-01 -1.1059570209810510e+00
      -1.0212044708748118e+00 4.6947502149173280e-02
      9.0416865468735841e-01 7.9570615187525784e-02
      -1.3711032748280982e+00 -1.9661763578334723e-01
      -2.1771850941417320e-01 7.4645808122282151e-02
      4.1282246990627736e-01 6.1621163624237385e-01
      4.9074371113002430e-01 -6.0661501620092217e-01
      -7.0191504616723532e-01 -1.1366460898559845e+00
      4.3389318768443950e-02 1.1969538342118113e+00
      1.1229621315376082e-01 6.4121428306269745e-01
      9.0589427317049998e-01 -5.8010677801061217e-01
      8.2029593286021907e-01 -8.1171680343740339e-04
      1.1382521695688205e-01 -3.1938748865765154e-01
      -4.8408833887860886e-01 -9.1514066230500235e-02
      -1.9820578868162120e-01 -2.1771613798318623e-01
      -1.5452091401624707e-01 -3.4187478360109158e-02
      -3.5086325326782819e-01 -1.5688487774347526e+00
      -4.4024414498410935e-01 7.3727903605959544e-01
      4.8099243323313272e-02 -8.2618249739139404e-01
      -7.5822057079842520e-01 4.6954385512562419e-01
      1.7474635737423722e-01 1.2177754449291620e+00
      1.0384933192605308e+00 -1.8435616407927077e-01
      -2.7676707757643382e-01 4.3889406733572461e-01
      6.8392062208069537e-01 -2.6342214863679464e-01
      8.9046661326151799e-02 -2.3704213548695918e-01
      -9.7541157579742105e-02 9.1671507839498068e-01
      7.9074044545316868e-01 7.0016521366381879e-01
      7.6500854352958156e-02 -3.4070948656301919e-01
      9.0283199347746945e-01 1.8173990723724256e+00
      -7.4251981020863556e-02 1.4020841317701827e+00
      4.8870044305903448e-01 -1.2276832074716426e+00
      -1.7281478864610103e+00 -5.6988265459952592e-01
      -4.1471462941525916e-01 3.4904145567982692e-01
      -1.1104931197846817e+00 -7.6994503398940095e-01
      2.2259337497445417e-01 7.7728394832889336e-01
      -4.4305217634727118e-01 -2.5069482147218880e-01
      6.6812217472909344e-02 1.8437528824643795e-01
      -3.9576671090928800e-01 -4.8821146589866227e-01
      -7.4202603115937860e-01 -1.0144251772887778e+00
      -2.8743043881372976e-01 -1.5315119811442554e-01
      -3.9627015392496795e-01 -2.0866071696490865e-01
      -4.4050491424627530e-01 5.3475817365882616e-01
      1.1740585544988358e+00 3.8292099130080326e-01
      -5.4463748938160550e-01 4.3749701065490337e-01
      2.1941848432856662e-03 -8.5166335122585601e-01
      -2.0482534050770180e+00 1.0601953317473438e+00
      5.2935985462945578e-01 -9.6900266585890640e-02
      -2.0193752335063872e-01 1.7895930665006856e+00
      1.7119370946400738e+00 -1.6486368162776823e+00
      -2.1812383987184623e+00 -6.7517555747610714e-01
      1.2588167943403078e-01 -1.1294483104501820e+00
      -2.0927129229919357e-02 4.2192630324905261e-01
      -2.0164459557981731e+00 -4.9959127640623835e-01
      -2.0077093506864294e-01 -1.1994627201976396e-01
      -1.7839997095323703e+00 7.4470657924533901e-01
      -9.5046473916273500e-01 1.8718036619829550e+00
      1.0239067175133157e-02 3.4525433347048917e-01
      -1.1501476602379505e-01 -6.7593412064578262e-01
      1.8043882974224563e+00 5.2842496698045061e-01
      8.7185241775912581e-01 2.9309055841531684e-01
      2.7922462074370127e-02 -2.6040224244003218e-01
      1.5775232569575315e+00 -2.4098813590223762e+00
      1.9826932267015240e+00 8.4016890497093422e-01
      -8.9072068887860745e-01 -1.5764387392291381e+00
      -1.6738708640879785e-01 -1.5337717472309249e+00
      2.4725876899440662e+00 -6.7994014193278329e-02
      -1.8918488894743435e+00 -1.8620754501997308e+00
      1.3910906505639540e+00 2.2555886519347244e+00
      -6.8922612718888787e-01 1.0671514292604445e+00
      -1.7081974868605383e+00 2.8797963057751852e-01
      4.7093213137330803e-01 -1.5757045539858228e+00
      -2.5455515851196657e+00 7.2750789629145843e-02
      1.0936164769241143e-01 -9.2337306486389836e-01
      -5.9205894555872845e-03 3.9648971233425523e-01
      -1.4104627509462428e+00 1.2741320969787553e+00
      -1.6441328848476966e+00 1.5712657586740575e+00
      -1.7731236814775128e-01 6.5181119848433569e-02
      -3.8002437440379305e-01 -1.7243708755371685e+00
      -3.8922458200449284e-01 -4.4462640014409310e-01
      -4.3879171806253399e-02 7.2007650431981818e-02
      1.0957820227152604e+00 7.1250139342312238e-02
      -1.3984716805110660e+00 -1.3084684292024813e+00
      -1.2391822133248176e+00 1.8847683109182591e+00
      5.6274217937586668e-01 3.3596117807021458e-01
      6.4895887698749766e-01 5.0265490181670303e-01
      -4.0056544579124964e-01 4.7884003234093631e-01
      -9.4944587047694917e-01 -9.6681584398888520e-01
      -7.1098745737787872e-01 -5.8696580813756705e-01
      1.9790236273091020e+00 -1.3248167709133307e+00
      1.1122675987721427e+00 1.5962803481321264e-01
      -1.1374896729670937e-01 1.8812365508767084e+00
      7.8281175730403407e-01 8.6964155724802716e-01
      8.3461290590253501e-01 5.9147578845501377e-02
      -4.5034321462486704e-01 7.7635689141536413e-01
      -1.0470067724806504e+00 1.3896653710613511e+00
      -9.9529709625870311e-01 3.6675397455807573e-01
      -1.3575955556418695e+00 -3.1224586704902618e-01
      -3.1303637242600829e-01 1.6401901810121686e+00
      -1.5448272912001634e-01 -1.2668535855199738e+00
      -1.3902805857858083e+00 4.2712114926415379e-01
      1.1649321792297793e+00 -6.2419034829714726e-01
      9.2121756746228078e-02 -1.9676240653951442e+00
      -5.8553501853719891e-01 4.7634567487473405e-02
      -2.4540341513516255e+00 -3.1478113506274552e-02
      9.9976035693127951e-01 -4.6656282293406176e-01
      -8.3156714973560975e-02 1.5939270961921204e-01
      1.1696122863673346e+00 -4.6202264423888767e-01
      9.7918130246233137e-01 4.8319825829054014e-01
      1.0765525506068268e+00 -6.4448882994263335e-01
      -5.9694690069836423e-02 1.0039351424564658e+00
      5.9156190456108815e-01 -1.7890858066906157e+00
      -1.4123165818355363e-01 -8.5266334064241708e-02
      -5.0965167394056876e-01 -8.9881959895244701e-01
      1.2689873389164117e+00 7.1223153183284804e-01
      7.9494450320313070e-01 -1.4520341770113765e+00
      -1.0201496644180408e-01 1.0290517591584609e+00
      4.5280190302866213e-01 -9.4162745270859327e-02
      2.8074558778918179e-01 7.6507431563273970e-02
      3.8088235868034764e-01 -3.5254891780650699e-01
      -2.7553498381874753e-01 -1.4427332693880317e+00
      2.5165181609396148e-01 1.3508506596368236e-01
      -6.8219394122549049e-01 5.2709063577872595e-01
      1.5851821452655970e-01 4.3464167561446770e-01
      8.4313680368175481e-01 -1.4459364574974806e-01
      -1.6948850548712807e-01 -4.5307881713392978e-01
      -5.1713042092545602e-01 3.5548499909030362e-01
      -9.8454277437631521e-01 1.3883279506837121e-01
      9.1189881095408154e-01 -1.2053764320663691e+00
      1.3289041764267626e-01 -4.7683949263243708e-01
      2.6493113181054273e-01 2.2818396397394793e+00
      2.8212411502938772e-01 -1.7483349745261906e-01
      1.2295456406766683e-01 -9.1491426381834884e-01
      -1.2485850240044551e+00 9.0272037576776809e-01
      -5.6216253898535751e-01 -1.2176897956173156e+00
      -3.2960448845066209e-01 -1.0910884617078802e+00
      -1.4978369054504519e+00 3.9325682611085743e-04
      9.5293274670372652e-01 8.7547999634319851e-01
      -5.1504631315588645e-01 -6.6193453293948856e-01
      9.6733818354504286e-02 7.6844500087593937e-01
      7.3423988759828529e-01 -4.9633157300862257e-01
      6.6053125897609766e-01 1.3261808954066365e+00
      1.9046364473379032e+00 -2.1855649856755744e-02
      5.6016693732811718e-01 2.3571613129479396e+00
      -1.2364000595568108e+00 -1.6969926152462262e+00
      9.2301810297242728e-02 4.5729430533055067e-02
      -6.4748424446572070e-02 3.0268574317795720e-02
      4.9375555403667420e-02 5.3853448327330355e-01
      -9.8920044390185058e-01 -6.1465250343999089e-01
      9.1618937750385199e-01 1.2175919699746962e+00
      1.4173160639475549e-01 3.2627684355413358e+00
      1.1925176931072099e+00 1.3583058213655603e+00
      -6.9706835166737202e-01 2.1243334043819013e+00
      -2.5230654158984360e+00 1.3709651694897680e+00
      -1.9645186636877443e+00 1.9954923148030906e-02
      2.0917096174152530e+00 1.0953401431189534e-01
      7.7897012543745425e-01 -2.7594768746346676e-01
      -2.2736321774621704e+00 -8.7754353886748437e-01
      -5.7560960225783289e-02 -4.0241283635386504e-01
      1.0843749462519010e+00 -1.5779641141178287e+00
      7.0508867740470194e-01 -1.5197826565572905e+00
      -9.7394214560957637e-01 3.2512827959997201e+00
      1.5695801972987546e+00 1.4265916211010415e-01
      1.9439881220639306e+00 4.3010846505036870e-01
      2.4926669757895037e+00 1.4760571349573881e-01
      -6.1192927912895967e-01 -6.6482523820271400e-01
      7.2026568613046404e-01 6.0548545973799128e-01
      -1.1409324376738703e+00 3.9456321257482008e-01
      -2.1317779169332157e-01 -1.6671374253030691e+00
      5.4308579129473256e-01 1.6695967892321271e+00
      1.8653803888139013e+00 -1.1882022563829380e+00
      9.1153066055991405e-01 -3.5390511210049086e-01
      3.0361546545074908e-01 1.0939074623801095e+00
      -1.0131266401940644e+00 3.5943880451943355e-01
      2.2755658968700962e+00 1.7604392216794826e+00
      5.0568568981341197e-02 -1.5154939528052207e+00
      4.0276881817587045e+00 -1.5685414394442146e-01
      -2.4057323489522693e+00 -9.8449097961130893e-03
      -2.8371272485519189e-01 -4.1551233289464451e-01
      -3.3408167784746645e-01 9.3960604110393298e-01
      -8.0658246233572684e-01 4.7896182922946270e-02
      -6.0831249642935104e-01 -3.1555162789791863e-01
      1.4827027784527631e+00 4.9851212485664603e-01
      1.8488388282884323e+00 3.4318049770558551e-01
      1.3677965982698614e+00 -1.4690507305285783e-01
      3.1024022565226459e+00 -6.8181563978431514e-01
      2.1443278713936249e+00 -2.2992965183215910e+00
      6.5378367196086806e-02 1.2655329200248424e+00
      1.4239945751307029e-01 8.3462076019370390e-02
      -1.0039200557317438e+00 -2.8675321955446971e+00
      -1.2875495284840039e+00 5.0845420533358943e-01
      -2.6122808939899494e-01 1.0346849229163104e+00
      -1.3184613131702005e+00 3.4703963530265902e-01
      -7.1796211746300564e-01 -1.1756419131483811e+00
      1.8554467307209457e+00 1.4553533359490931e+00
      9.0355344352565214e-01 1.8167041790383325e+00
      -9.8978826159963063e-03 5.4048913329807986e+00
      1.0043332649231878e+00 1.7903277337762014e-01
      5.8078043910183486e-01 1.8734986388327350e+00
      1.1542981895322223e-01 -8.2882428144657472e-01
      1.8479618634581387e+00 -3.5697284137292229e-01
      -1.1986132039316417e+00 1.3672019843121479e+00
      1.0545250618710558e+00 1.1116541749565403e+00
      -6.1252804436436425e-01 1.2764843609547709e+00
      -9.5534832698550065e-01 -4.9642723464787675e-01
      1.8603447461102074e-01 -9.1458999151467502e-01
      1.2859115551107445e+00 -3.9141582400935371e-03
      -7.7891374792016710e-01 8.3783770158581447e-02
      -2.8868076644341911e-01 2.0650421909389620e+00
      8.7040750552572910e-01 -9.4297831539092891e-01
      -7.9239014490129198e-02 2.0443909993200893e-01
      -1.3460239383225132e+00 6.9539325566801591e-02
      1.3605436519016361e+00 -1.9837669124112087e-01
      8.2881166855443311e-01 -4.0023464562147970e-01
      -1.1750257434613760e+00 1.9381135195076307e-01
      8.2205571050572490e-01 5.6455692609723718e-01
      -3.7481933978008430e-01 -1.2799333076964745e+00
      1.2343266662486053e-01 1.5262879011784851e+00
      -2.8080730592855480e-01 1.4316842114955979e+00
      -1.4856217864863110e+00 -1.6328323548201498e-01
      -5.0248621280984111e-02 2.7711960742600357e-02
      -3.3938151691113361e-01 3.5713811282753183e-01
      -3.6686178166240635e-01 -4.8883493222276098e-01
      4.9030291238943180e-01 3.6468873303818983e-01
      1.5767202122754582e+00 -5.0936132127739531e-01
      -3.7585621637979638e-01 -1.6500340527252109e+00
      -7.2541547916624249e-01 1.5119476971479822e+00
      9.8398003195182626e-01 -3.8073275159616704e-01
      3.4499120941429845e-01 -7.4791161865465916e-01
      1.4054935610860828e+00 1.4014764290048052e+00
      -3.5030386211090231e-01 1.0027512346142349e+00
      -8.9196510007075114e-01 -9.0333995822729884e-01
      -4.1800771165074785e-01 5.5707542186152181e-01
      4.0109307926712379e-01 4.2157369242090958e-01
      1.0443411626225834e+00 9.2353406231303059e-01
      -3.8210363356370203e-01 6.3932029736970497e-01
      -4.1660094968656586e-01 -1.2789352708099289e+00
      -5.6373879151175899e-01 -1.7065319812638537e+00
      -2.1799031901780141e-01 -1.1542906425410270e-01
      -1.5436421481973934e+00 -2.2423982064731907e+00
      -1.0398493046431062e-01 -9.3878571719473780e-01
      4.2106189043991088e-01 1.3107758858834209e+00
      -4.0149294679539455e-01 -1.0924674703838139e-01
      3.4392934788600210e-01 -1.7751604305508228e-01
      -1.1603087242721160e+00 -4.6100131716104970e-01
      9.6092113793947354e-01 2.2974403559546253e+00
      5.2304436207230232e-01 -1.9517578826426589e+00
      -1.5536346687259330e+00 5.6540853359383736e-01
      8.5564697055108552e-01 -1.3855124869072506e+00
      -1.7070492538713009e+00 -2.0488683315450001e-01
      2.4160852351141111e+00 -1.3789432098251140e+00
      -6.9832730251809561e-01 6.6355385814022716e-01
      -3.0200936736548767e-01 -2.9411014008697373e-01
      1.4504958459678606e-02 -6.4863118539310183e-01
      1.4182893464597648e+00 4.3247501861978366e-01
      -8.9771156752725811e-01 2.3157813220849111e+00
      2.6233712581550082e+00 -6.4299492355413490e-01
      5.5058370246750261e-02 -1.8904046914757824e+00
      -1.4633134328343489e+00 -1.2581227551933185e+00
      1.8137388298563273e-01 9.9871682970497244e-01
      6.1841968889759946e-01 -1.5808480689401308e-01
      -7.7475065741551064e-01 7.2198983048966603e-01
      -1.2744709825009370e+00 -5.8618955434783826e-01
      1.2620540583103370e+00 5.8738367548685326e-02
      -1.2749668250130224e+00 6.8988211120968990e-01
      6.4865173232307305e-01 1.1454720792032182e-01
      9.0298374985363006e-01 -7.8348557185105583e-01
      -1.2243060412558847e-01 4.7364297974821501e-01
      5.6175068469671430e-01 -1.0166990848968256e+00
      -1.8255389563006055e-01 5.4691939745200346e-01
      -2.9303880421069612e+00 1.1442369414019566e+00
      -1.5851886853816541e+00 -1.3575377874132193e+00
      -1.7699551732979355e+00 -1.7765503241028425e-02
      -6.5459139493773288e-01 6.0140603623772071e-01
      2.3543623002642424e+00 7.7784068730102773e-01
      -2.6021667649750913e-01 -6.4836134860424791e-02
      1.1465252334955975e+00 -1.1497749347642232e+00
      -4.6727946098618217e-01 7.5901179238013117e-01
      2.0546715404234632e+00 1.1254537124601474e+00
      -1.0442345942386644e+00 -9.1783877009235526e-01
      -4.6774353692272558e-01 -1.5226796422181093e+00
      -1.2878309256572165e+00 -1.6997378500782445e+00
      -5.6547027495609836e-01 2.1338720460239959e+00
      1.3658427021069495e+00 -1.2508548000857200e+00
      -4.1511623794639524e-01 6.7491328194825917e-01
      -2.1561425632277542e+00 -2.4336921967418165e-01
      -1.9644742727650821e+00 1.5931521623729945e+00
      1.6020607024990613e-01 1.1498099021832679e-01
      1.9688860968956357e+00 2.7430431287715424e+00
      -1.9861259868905463e+00 -8.1903586683409435e-01
      -2.0569511327157701e+00 1.3572167561539099e+00
      -8.4819205636631434e-01 -2.4676313428067589e+00
      4.4263839641489067e-01 5.2510906362824705e-01
      -8.3635933838775200e-01 -2.8823556023813052e-01
      6.5308636211571169e-01 -1.2992644112279892e+00
      -1.5902826307643145e+00 9.1299308250107658e-01
      -6.4639998677928057e-01 -1.3507485770359329e+00
      1.1008592696437565e+00 7.8995559211878216e-02
      -3.6042483577788836e-01 7.7435239109323362e-01
      -1.1966060346279683e+00 -2.4101104343594773e-01
      6.2159150265682617e-01 -3.7995402338145128e-02
      -1.3227339343213294e+00 1.4522097878683982e+00
      1.5790632065185276e-01 -2.5567243973145999e+00
      2.5183627883995849e+00 -1.4440721859316981e+00
      1.7011693515743473e-01 4.4613552217887248e-01
      -2.4098584871344357e-02 2.8961841101425601e-01
      -7.3536700096971427e-02 -8.8244967999782417e-02
      1.6234218407873768e-02 3.2483627614372407e-01
      4.7836102703032196e-01 1.1066886499923319e+00
      -6.1483849327107831e-01 -7.2371900785337540e-01
      5.2235727393394005e-01 7.1654617582224511e-01
      3.5339388255919096e-01 -4.0171763016435114e-01
      4.2252283105818300e-01 -3.7523384543409849e-01
      -1.2624403018959001e+00 -1.4708310542333958e-01
      -6.2576503036893805e-01 -3.5896508911931974e-01
      4.8914330198232131e-01 5.2304517927745553e-01
      2.2228383592610362e-01 -4.7059306609872364e-01
      -7.2280593014492456e-01 -2.7288752014192463e-01
      9.7308328776812822e-02 -9.1878458669784735e-01
      2.7338937480800818e-01 -1.1393417836847701e+00
      3.9634227956713203e-01 6.7504759810666748e-01
      1.7587304002812862e-01 -7.9545620458317712e-01
      1.2787042998958165e-01 2.8560161045715388e-01
      6.6199567691545269e-01 -1.0907833855283531e+00
      -9.6095988720689185e-01 2.2486806847675286e-01
      7.0164127159140710e-01 -1.8269137823570311e-01
      9.9859510633931822e-02 -8.0726178491630454e-02
      -5.1505060581786999e-01 1.5806791193660058e-01
      -4.5726945136386049e-01 9.9014674502287414e-01
      -7.9993113406217856e-02 5.7126305210151185e-01
      2.5475108079764686e-01 -1.0601097427580575e+00
      7.3111146803265326e-01 -1.3258292956382773e+00
      5.6491575333744004e-01 -3.1190827066156366e-02
      3.5523189269830883e-02 -2.8760920022717124e-01
      6.6940791226009289e-01 -9.5258220632997756e-02
      -1.0483095065308956e-01 7.4638429337833889e-01
      -2.3088091741390152e-01 -5.8187476634678570e-01
      9.3838783308123275e-01 2.5247328902445184e-02
      1.0451161482589862e-01 2.8518078620685228e-01
      4.9866376146455926e-01 4.6146935968006858e-01
      3.1541338202728869e-01 4.4609558907011904e-01
      7.3486517714916988e-01 1.4419802589080227e-01
      -2.8212526905427027e-01 -1.7182842799528417e-01
      8.6000336795780652e-01 -6.9315005472040636e-01
      1.4862056184864014e+00 3.3284885300297956e-01
      -2.3909517015762019e-01 -8.9485529314234358e-01
      -6.0528744240855403e-01 4.8828462755661342e-02
      3.3540524963013324e-01 -3.3410480169915274e-01
      3.3530844125742792e-01 6.2772727567574527e-01
      1.0738593809358332e+00 -3.4482731338108377e-02
      5.6827495542400164e-01 -1.0720023604409272e-01
      -1.3407312563885381e+00 -2.7902239680253144e-01
      -8.8309463799243904e-01 7.5695732774424562e-01
      -3.5552833897848185e-01 1.2091373824920402e+00
      -7.3092474967359478e-01 -1.2785265244342510e+00
      5.9070339740691213e-01 7.2512849861809947e-01
      -8.5558320532255761e-01 -8.3567234125847534e-01
      6.1330405031475987e-01 6.6239691613365426e-01
      3.7174211487714803e-01 -5.0355088123080871e-01
      -1.7699894768869964e-01 -4.2129710950444133e-01
      4.5382865698970470e-01 -1.7079187182467118e-01
      4.1843718132026092e-01 9.6096339145250886e-01
      2.5605493021472886e-01 2.3378501613355712e-01
      1.9387156019740096e-01 1.1325328176518190e+00
      9.9621056771606853e-01 5.7232536517965678e-02
      -5.3260574971973784e-02 5.4932605076146968e-01
      -1.0754745452349553e-01 -7.3150077903209876e-01
      2.5429488289321694e-01 -1.6915885265860049e+00
      4.9002313839903733e-01 4.8633275926755239e-02
      9.8321849919964288e-01 -4.6521342981093239e-01
      1.1256827537236622e+00 -7.9133259273277201e-01
      9.8844317729925801e-01 -1.8999908422694636e-01
      1.1371864513260763e+00 4.7837183281349854e-01
      9.3242168672960701e-01 -1.5527809117812013e+00
      1.3952571929487168e+00 -8.9944992052344697e-01
      -3.0457500648296892e-01 6.7590086728722865e-01
      -1.1291286096007582e+00 1.4558182473889372e+00
      1.8475662538904569e+00 2.4284246423738753e-01
      6.2332771036641277e-01 -1.1196124549944728e+00
      -1.8948586293760019e+00 -7.2932199346079529e-01
      2.4872731479214472e-02 5.2196953937834489e-01
      7.2419321193606445e-01 -1.0455995377133360e+00
      -3.2898338977081670e-01 -1.2100988922609079e+00
      -7.1080079864902113e-01 -6.2455405838420075e-01
      8.7881048042695142e-01 -5.9359965739793119e-01
      5.8214525760534863e-01 1.8519997120333895e-01
      1.0244088606365789e+00 1.2934715057251698e+00
      -1.1326317984916086e+00 -7.8791136754301250e-01
      -2.2879930852253705e-01 -3.5163963086051818e-02
      -1.0045667218760725e+00 1.7939258296497937e+00
      -9.3585459797363624e-01 -6.5015332338427256e-01
      1.4687256268085804e+00 -3.6822151295645519e-02
      8.2822219186021728e-01 -1.1033366403548149e-01
      -1.8760359432167495e+00 -1.3487115440391200e+00
      9.5089285587513284e-01 5.7286548547261085e-01
      -8.7674061583696805e-01 1.7711808876781843e-01
      1.8461581451844369e+00 1.4763914748964169e+00
      9.8759786619853773e-01 2.4578986005661796e+00
      1.1325328373600319e+00 -1.0240604066082502e+00
      2.3797000552665448e-01 7.0043086645786135e-01
      1.6116001246229568e+00 -1.9267807593897581e+00
      -9.1729641034388121e-01 8.9143865098130626e-01
      8.6790310791101710e-01 1.8483974750668444e+00
      1.7982583408682928e-01 2.0951101777713923e+00
      1.8541610237448691e-01 3.4658361859417602e-01
      -7.9854263676589973e-02 -3.8378717991766437e-01
      -3.0453817648259124e-01 4.9721427234570142e-01
      -1.1470070891996210e-01 -1.5409044575833553e+00
      2.3411082582167989e-01 -5.2363660259196820e-01
      3.0139126407434996e-01 -2.4414471058593171e-01
      5.4239164487531438e-02 8.1545955400424219e-01
      3.6504561643075356e-01 2.9075937186258088e-01
      -3.6578403817081645e-01 5.6599549161829921e-01
      -4.4115865943123206e-01 3.3978008532727499e-01
      -8.1096501650270481e-01 1.7966359279904345e+00
      8.5493191917552314e-01 -1.9381086100477425e+00
      -4.0060487843966673e-02 -4.3106678134801962e-01
      2.5271448491070943e-02 -1.1769251887694002e-01
      -4.7881454987817934e-03 -5.2387240361876064e-01
      -1.7524784156293203e-03 -4.8312171357339495e-01
      -4.0087265780014458e-01 -9.5183336464013713e-01
      -4.4367374896046552e-01 -1.0622054894581148e+00
      5.1704123538802230e-02 -3.7106601123040733e-01
      -2.6988255264581917e-01 2.7569168033668218e-01
      -5.7763924185308302e-01 -1.4113279177476684e-01
      -3.3217301086833344e-02 2.1211142591674828e-01
      -5.8945675735117486e-01 3.4722160511976780e-01
      3.6379326984516208e-02 -3.1653651776391034e-01
      3.4343769957704490e-01 2.6565649615780673e-01
      3.5493507671420188e-01 -5.0814496436697143e-01
      -1.4297712846153210e+00 7.8794096865791974e-01
      1.6438682185655465e-01 2.0944346831422297e-01
      -1.5342659979894457e+00 1.6903732040178528e-02
      -2.1642688482400382e-01 8.4730683871973606e-02
      -1.2115413362453916e-02 -1.9318962573222215e-02
      2.3390380842459993e-02 -2.4282408156062186e-02
      -2.3635069282499605e-02 1.2955592820467267e-02
      -2.0521052560547988e-02 -2.0238836211761951e-02
      -8.2273525864661520e-03 2.2894060442686513e-02
      2.4222481903519763e-02 1.1481543846797252e-02
      2.8572403092622309e-02 2.9156518589456629e-02
      -3.0025835203363792e-02 2.7509215013642247e-02
      3.0322984817013458e-02 -2.1699766769345343e-02
      4.5705144434192279e-03 2.5754197095006797e-02
      2.9184349011212096e-02 -5.5763712149390996e-03
      9.1128227282048398e-03 -2.9524736480520314e-02
      9.1083039112800045e-03 2.8060347261279393e-02
      -2.9824766376344774e-02 1.5655099849567478e-02
      -1.1764934442550187e-02 -2.7572704498228105e-02
      -2.5364741048548609e-02 1.3711790696752083e-02
      3.2587432956777185e-02 1.7517332460358470e-02
      -1.3656429669859590e-03 -2.0311992304282614e-02
      2.8935015011164536e-02 -1.3560503511795767e-02
      1.6237616022801785e-02 4.4318430930518227e-03
      -1.4306897436688898e-02 1.3897040582611419e-02
      -1.2903931912012431e-02 1.8958078869502903e-02
      -2.5702793823850514e-02 2.0761748797007741e-02
      -3.1815757650667013e-02 -1.1812230649020197e-02
      1.3255757830062940e-02 -2.4584662945829776e-02
      -9.0915106724586674e-03 2.3728185786978562e-03
      -2.1719238609574309e-03 1.6388827750274702e-02
      1.3443035031277195e-02 2.0085857176779850e-02
      2.7512092564953799e-04 -1.9627889209768899e-02
      2.4562847060318572e-02 -2.3022398970220764e-02
      -3.0950777024383478e-03 -4.1581217729733163e-03
      -1.5293706244015820e-02 8.7050229494143178e-03
      -1.3670242189961634e-02 -8.7252222913910896e-03
      -1.4449303320184405e-02 2.2721364870379731e-02
      -3.0205834452016446e-02 -1.8195873362737248e-02
      -2.7533671630504450e-02 -1.4372368111392881e-02
      -2.3998914985682199e-02 -2.1676191291021503e-02
      2.2768261554366426e-02 -4.5094865710348085e-04
      2.8123636835111546e-02 6.8340256796193153e-03
      -1.6268864214528233e-02 2.6591888280112729e-02
      -1.0228233456059695e-02 -2.7223302269942053e-02
      2.8109177478245623e-02 1.9198927204406822e-02
      -1.1904874885046483e-02 2.3360864696746107e-02
      2.4324858239720866e-02 9.4958175512155230e-03
      -1.6159296294144738e-03 -4.7650428202645669e-03
      -1.3842756982812043e-02 -4.4394107104439307e-03
      2.5471680348909596e-02 -1.1203530236492410e-02
      -2.0742952268483794e-03 -2.2361112125624603e-02
      5.7119752053219246e-03 -3.0849427701994604e-02
      2.0709448678667291e-02 -9.3761987447577438e-03
      -1.6346750152584192e-02 1.5099674272617627e-02
      -1.1854882617362728e-02 -1.7894988816172210e-02
      -8.8743501956980546e-03 4.5719777687371448e-03
      -2.1146221746358707e-02 2.3732674120230897e-02
      4.5706505792696426e-03 -1.0326558892867524e-02
      1.7132663063668067e-02 2.5865488733886100e-02
      -1.2449459525686329e-02 -7.5277156815213965e-03
      -2.0190567679582681e-02 2.4669695580885765e-02
      2.3893994444240833e-02 1.1582343008986648e-02
      6.6715171463299170e-03 1.7888434654716599e-03
      -3.3132691302520533e-03 -1.8150965837795914e-02
      2.3659818959070964e-02 -1.7892853352321072e-02
      -2.4485007840462234e-02 -1.4523687664489270e-02
      -1.9577183046605301e-02 5.8746376383861159e-03
      -2.4159951818011945e-02 1.6773532344145824e-02
      2.1756289889671904e-01 -1.0402091767651054e+00
      1.4797728583272968e-01 -6.4276919476968308e-01
      5.6028569450743115e-01 1.0730642367129618e-01
      -1.6689565798301831e+00 2.7775300686788967e-01
      -4.3544059227154724e-01 5.1316068563989370e-01
      1.6126075144610408e+00 2.4784363497764268e+00
      -9.1207064387153247e-01 -6.9958570545077292e-01
      8.2717793332947331e-01 -1.2593845449098096e+00
      -7.6283434372031622e-01 -1.3288149206072073e+00
      9.0409423028476110e-01 1.6433027079854365e-01
      1.0384391356996210e+00 5.6509789112031583e-01
      -5.7042721304378696e-01 -1.2363079444150515e+00
      -2.5874043377475958e-01 7.9885639735826941e-01
      5.4014516313547800e-01 4.8564243344925762e-01
      -1.3473755177030505e-01 4.2187196026990537e-01
      -2.9110933406823197e-01 8.2319380935503816e-01
      1.1718966786681191e+00 -5.6758230574391355e-01
      -6.0238186394050197e-01 1.8342439976237399e+00
      3.0981052888772431e-01 -9.2471613955651538e-02
      -2.0487094315575680e-01 -5.2916585588516885e-01
      1.0765965461258886e-01 1.1794406511036488e+00
      7.8381541868765314e-01 6.8619712283713408e-01
      2.8713336075220042e-01 3.3176236869083325e-01
      -4.0032913067549353e-01 -4.3220227154437169e-01
      9.4347368628947703e-01 1.4898374377672370e+00
      4.3360731071571657e-01 9.7171911677918828e-03
      -7.5489297619543483e-02 6.9335152022700763e-01
      3.6535157525548995e-01 -6.1945004247563851e-01
      1.4964838210332312e+00 -4.0455805143807433e-01
      1.5193946168413994e+00 -9.0867049950302758e-01
      1.1332746298109111e+00 7.7369384101236708e-03
      6.5517081781781739e-01 -1.0603409536480961e+00
      -6.9703173293635456e-01 9.0801221168400481e-01
      -1.9346213482539549e+00 -8.6717811345441723e-02
      -4.5064919161337841e-01 1.0766499410032244e+00
      -5.7262167719341450e-01 -9.8425101277933602e-01
      3.3992683924531655e-02 -1.2834891038402843e+00
      9.2396049653249179e-01 3.7031118746109506e+00
      1.5904938789176599e+00 -1.5619973277858039e+00
      -1.5020949599988533e+00 8.2058366426297336e-01
      -8.8913593998758855e-01 -1.8137633779740083e+00
      -8.2646442206763537e-01 -9.7476879628073942e-01
      -7.3641711160761880e-01 9.9683629105568194e-01
      1.3260557194682110e+00 -1.2739102909980304e+00
      -7.1704191611341184e-01 -1.0586016591792844e+00
      1.5757897770394096e+00 -5.4575808253961400e-01
      1.7528327353398734e+00 5.3263068575307236e-02
      -1.0332268566776419e+00 8.1575836719289674e-01
      -6.5202597002761054e-01 5.2554363884242117e-01
      3.3418019706122326e-01 -1.9720710292016580e-01
      1.5699379606878117e+00 7.2320957424372490e-01
      5.5436227401259663e-01 6.5683791207399744e-01
      -4.9912205818784056e-01 1.5806609184647842e+00
      1.1985809433045790e-02 1.7688048849028934e+00
      7.4989782916415049e-01 2.8549536148865673e-01
      -1.9462045477614770e-01 5.4906131568653993e-01
      -8.3368223847890077e-01 4.6081014022168559e-01
      3.1699629399885056e+00 4.4132957102093417e-01
      -5.7715264551988876e-01 -1.3608700296356704e-01
      -1.6912451194754741e+00 4.4453848123777462e-01
      -1.0329540185647150e+00 -1.2204380623429878e+00
      7.6349219397716306e-01 6.4684883760484446e-01
      -4.3131005385658400e-01 1.5101771201291783e+00
      -1.1304457396108989e+00 -5.1742044348929886e-02
      -1.9058693052303073e+00 -1.1634407993043512e+00
      4.8008679974079721e-01 -1.0973434285120827e+00
      6.3921411294938788e-03 -7.5952753270463247e-01
      -1.5469556380369071e-01 6.1293877010585507e-01
      -8.6776060911042829e-01 -4.9713284076572370e-02
      -4.8486313684871502e-01 -5.7653429674023382e-01
      1.9803995816830104e+00 8.7005900001262704e-01
      -2.0271124918969692e+00 -2.2810711156032704e-01
      1.3861341554663311e+00 -8.2274464988440565e-01
      -6.2023513437169409e-01 1.4554199537873538e-01
      1.7848410720749792e+00 -1.3327062851766354e+00
      2.5383084042382248e-01 1.3362216768766724e+00
      -1.0357468645055248e+00 -1.0204169610374771e+00
      3.1859492202868421e-03 3.5905889679123160e-01
      -2.3932403615129216e-01 1.7940344489140625e+00
      -6.7053736466236760e-02 -1.0376553310835390e+00
      1.0523432353371893e+00 -5.4072127675520198e-01
      -5.7558461736061783e-01 1.3037363345262460e+00
      8.7725276960546172e-01 8.8728476014318858e-01
      -3.7998653682932054e-01 -3.1643136539802935e-01
      7.6104872553626990e-01 5.6561718208090572e-01
      1.0019981427135625e+00 9.1744219193023602e-01
      1.1970001404216233e+00 6.6969396355204291e-01
      3.9677487168351727e-01 -3.3012825119634093e-01
      -2.0267902801595813e-01 -8.9915615624479550e-01
      1.2863553196759323e+00 2.5187901059579225e+00
      3.7495214092393725e-01 3.5494967994365106e-01
      3.4938760916062667e-01 1.8356546642187449e-01
      1.0620472760697477e+00 -1.2844797615315529e+00
      6.3383082482311925e-01 -5.8407331803538831e-01
      -1.1607962003475325e+00 -6.9155362142432231e-02
      4.8835815113120706e-01 -8.9394816755480355e-01
      -5.2559413731195459e-01 -5.7802827173158200e-01
      -2.7525336617309348e-01 -3.5836902343944382e-01
      -1.1811321741600307e+00 -2.5534349221950952e-02
      -8.5993913346609635e-02 -3.3658600864671562e-01
      9.3703453848766605e-01 5.6444811723092049e-02
      -2.5421141711105250e-01 -4.3521241090539627e-02
      -1.0779503088408737e+00 4.0963745367676713e-01
      -9.3833194498004069e-01 -7.7196627203775614e-01
      1.4700367558792199e-02 9.6302851668245293e-01
      6.1004313122378995e-03 -9.0707835747952159e-01
      4.8938959143395083e-01 1.8748649411108154e-01
      -1.8794036354050017e+00 -5.4810559680585924e-01
      5.6059163849370719e-01 6.4966329584701721e-01
      -9.5385675597991271e-01 -2.7700486821580178e-01
      1.1391560783060670e-01 1.2572066005513435e-01
      1.6737589404099589e+00 -1.3842229765467082e-01
      -6.7362173631137959e-02 2.5039944180243738e+00
      1.3300095825261689e+00 1.3890319340164159e-01
      5.4804974597565181e-01 2.7783931202247120e-01
      4.1267750441214390e-01 -4.9852634119473582e-01
      4.1783661164704372e-01 1.5900506957519459e-01
      -1.9061440915339234e+00 -5.9215280549121430e-01
      -4.2534432488836155e-01 -1.4547298212661459e+00
      -4.3911429954988679e-01 -1.5722879865474029e+00
      -5.1980595622492054e-01 -1.5840162310462799e-01
      -1.8941058085285887e+00 5.3890220633982722e-01
      6.9994669121727804e-01 -2.0436300363568392e-02
      1.0203089058513533e+00 -6.1593147332217035e-01
      1.8464424016650627e+00 5.4032097744651335e-02
      -2.0598234471992227e+00 -6.0710751047250111e-01
      -1.1849756837053995e+00 -1.4785763665444920e+00
      7.4142165640172883e-02 4.2600040547430795e-01
      -9.4516699879278510e-01 -7.4576111691885794e-01
      -4.3913281130072446e-01 5.9309507313788945e-01
      1.7192655983289490e-01 5.7658970648952879e-01
      -2.6964432234408015e-01 -4.6324012233843920e-01
      7.4526258218863206e-01 3.2327526368925907e-01
      -1.4129395251311583e-01 -2.7460169025941707e-02
      -2.3897599189749544e-01 -9.2515982515752726e-01
      -6.7603113492793399e-01 -1.1054296599302984e+00
      1.4843984097319834e-01 -7.4387671151506796e-02
      7.3250638869999651e-01 -2.1539136653848331e-01
      -6.9628219751192466e-01 2.1112051859830663e+00
      -8.6446946293573537e-02 -3.2759017199199638e+00
      -1.0952988863770752e+00 7.2144973802497137e-01
      1.3096976765962300e+00 -1.1320274703815965e+00
      2.0998906281972490e-01 -5.6285138223677289e-01
      2.2302413841915997e-01 3.1744433513213521e+00
      -2.3196516439492842e-02 -1.3627689932177953e-01
      1.9252519600176010e+00 1.1880596916515762e+00
      2.2456796905449544e-01 8.1592566558280188e-01
      2.0521312183777702e+00 8.7112154501173311e-01
      -3.6716669774869598e-01 -9.8765807760458291e-02
      -2.6145148508644145e-01 -3.5439194441155810e+00
      -3.5185638319873352e-01 1.1512566272009159e-01
      -3.1259450321447142e+00 -1.2596710385616872e+00
      -1.0717548796267518e+00 6.9795322018479666e-01
      -9.5695002023921172e-01 -1.7743154758682032e+00
      1.0575585406314414e-01 8.0597534043789643e-01
      -2.4740459568570039e-01 9.9215856291316551e-01
      -8.6976564666792533e-01 2.6606202921790274e+00
      7.7861450968624413e-01 -1.4826845974989640e+00
      -7.8845932810806596e-01 -5.5011546388959187e-01
      -1.1769931645066536e+00 1.0719484316246239e-01
      2.4467066165550840e-02 2.0934142050713059e-01
      -9.9269096513228783e-01 -5.0891335910753899e-01
      6.2878011817694188e-02 -1.7601798624626870e+00
      5.1186004272058239e-01 -5.2726305216216962e-02
      -3.0633162530233893e-01 2.5777095494940299e+00
      6.1670892386925014e-01 1.2673467051704101e+00
      -9.5374839010781032e-02 -2.2167367293262716e-01
      3.4898258162247614e-01 -2.1163354670836920e+00
      -6.2371968502849573e-01 8.9768964754007419e-02
      6.7331329605956625e-01 3.9018534870804505e-01
      -1.0270509188455061e+00 -1.5776996915033970e-01
      2.2156335177225457e+00 -1.1537134177025246e-02
      -2.9428615893481811e+00 -7.1320748022899694e-01
      4.2032055079472297e-01 1.6745522992830437e+00
      8.0022523593243924e-02 -8.4135205025017401e-01
      -6.4519226750127473e-02 1.3946992429383755e+00
      2.4946015331235598e+00 -2.1990046690346290e-02
      -4.8378844886623557e-01 1.4707935426490608e+00
      -6.8576781793446340e-02 -1.8198281048286322e-01
      1.2408793594140228e+00 5.8635034694183708e-01
      3.0732312797975436e-01 -4.0685874745936279e-01
      1.2557133763491921e-01 -5.6160667213777293e-01
      -2.3419846792934713e+00 -1.7057532987317428e-01
      4.5096883252992742e-01 -2.2858507041547882e+00
      -5.4427798854523024e-01 7.9842738862923712e-01
      -5.5507014327481363e-01 -3.7275384754156243e-01
      -2.0572387550964040e+00 1.0043268461381263e+00
      -1.1222620285423386e+00 4.2194533771125969e-01
      1.0393972262305946e+00 -2.6392107027973682e-01
      2.1470470535545592e+00 2.4727562104033365e+00
      -5.1416882126028518e-01 -6.0118444067801258e-01
      -6.2404999976440645e-01 -9.7749345944211130e-01
      -8.4201855781251056e-01 1.1268205421286447e-01
      -1.5701259452784511e-01 -9.8498975694408075e-01
      -7.1648503873261482e-01 1.7034861896008976e-01
      -3.0361915730216946e+00 -3.0797225311674215e-01
      3.9390151937732781e-01 -8.4172725408805182e-01
      2.3667772889776622e+00 1.2336886531007261e+00
      2.7676501378714815e+00 4.6554322719101926e-02
      4.4500152584828878e-01 -6.1936069761978851e-01
      -1.9683075249733013e+00 5.6670534119584148e-01
      -2.7104165343069808e-01 1.4167634001897000e+00
      2.5524367806898624e-01 -1.3996123918472314e+00
      2.2523093011707410e-01 2.1272384265264073e+00
      3.4655682303499113e-01 -2.1438166192479109e+00
      -4.5529761045228362e-01 7.8804456510838772e-01
      1.7668557811340357e+00 1.0435585870131828e-01
      -2.3070013713035600e+00 3.7766429100024174e-01
      2.0465898198141077e+00 -1.0782053781645826e-01
      -5.7164011693061789e-02 -1.6883914835519254e+00
      1.6079874037840540e+00 -4.5008964275772051e-01
      3.7463826981678749e-01 1.2810899218547227e+00
      9.3933327298109026e-01 -8.6050760120428109e-03
      -2.1403788378506222e-01 -5.6155573754780275e-01
      -3.0373590463528673e-02 -1.2209919573492720e+00
      -2.2032140655916974e-01 1.0192022636536066e-01
      -2.1424198722799197e+00 1.3877330197035762e+00
      2.7424068727879978e+00 -3.6988416298002008e-01
      -3.7172169088239515e-01 -8.7541251600089909e-01
      6.1364729218603098e-01 -2.2332868578271818e+00
      9.6845834446990642e-01 1.1832537313508875e+00
      -1.3783232302701984e-01 1.5939607612173374e+00
      2.7173874631261743e+00 -1.0763010896689111e-01
      -1.1638945721320149e+00 -7.7674644983735774e-01
      -1.3025549499988722e+00 -1.5135927557039668e+00
      6.4427311264475873e-02 -1.7704257656372993e-01
      -8.2677310068973586e-01 -4.3307256967508138e-02
      -1.3181353153155695e+00 -9.2164581024395531e-01
      -1.0809828562347388e+00 1.0353249257106286e-02
      -1.8345422434218548e+00 2.5982404947717663e+00
      1.4740536770828472e+00 1.6220633584847006e+00
      1.3219582893182166e-01 7.5348500147307174e-01
      -1.1546591404516129e+00 -5.1546233836057931e-01
      2.1168175747605340e+00 -1.0131923487234589e+00
      1.0917934875241770e+00 1.1799860493792258e+00
      -8.8747434793682234e-01 -3.9005386394351937e-01
      1.8509738217830842e+00 1.2439312444205604e+00
      -9.1541390573155579e-01 -7.8373696757957523e-01
      7.4927791590130721e-01 1.4446284451380307e+00
      1.1633595554109728e+00 -7.4491455632504477e-01
      -1.5054017888575466e+00 -1.0384663973343682e+00
      -1.0395555704627844e-01 2.7284645592397949e-01
      -3.0439747055990813e+00 -1.6308068066968717e-01
      1.9639507348562926e+00 1.6801463872257318e+00
      1.3268749727554787e+00 5.2993713302136936e-01
      -2.2263840951147798e-01 7.5853825572249081e-02
      -1.4854020862539719e+00 2.8380076946844118e-01
      -2.4336541698689977e+00 7.0349782309378078e-02
      -4.0922390989479446e-01 -6.6008597479007081e-01
      1.0872316495621404e+00 1.4085001879028660e+00
      -1.2468793005621059e+00 -9.5095784683207705e-03
      -6.1466261146317258e-01 8.6002249434608424e-01
      -2.8880970813503963e+00 1.3563771368116770e+00
      5.6690730708905201e-01 -1.6477540964274798e-01
      5.6152079271841893e-01 1.2101440899738354e+00
      4.3951999404317410e-01 -1.7556081053144754e+00
      3.8833445997485234e-02 -1.4699167696575994e+00
      -7.0776955707588207e-01 -3.7248494636872337e-01
      -8.7943790626091178e-01 -1.0590340699663987e+00
      6.0509730745254087e-01 -1.6706708451416821e+00
      4.1129911002920150e-01 7.0839133759309791e-01
      1.8544388577748916e-01 -1.3428011551728554e+00
      1.2020601998987790e+00 2.3948551293400144e+00
      -6.4096914165990948e-01 -9.3234516665424896e-03
      1.1710240733119059e+00 -5.6193565799144229e-01
      2.1579035688955370e-01 1.7657233793045120e+00
      -1.4329086101080906e+00 1.8370258312493259e+00
      1.2144352075033740e+00 -1.5927669198263625e+00
      -3.9685941449559581e-01 1.2648855412244859e+00
      6.1540259891111948e-01 -2.2265066201457090e-01
      -6.0076194373206926e-01 1.7290632962036354e+00
      -1.8201664105593018e-01 5.1686150456176383e-01
      -8.3264583594922592e-01 -8.0768837222093715e-01
      -3.7681183916567877e+00 3.5967403938511901e-03
      -7.1442238315592335e-02 -1.8018825981518771e+00
      -1.5735414530539551e+00 3.2523999747761776e+00
      3.0505643732231009e+00 1.8057154234275943e+00
      3.2861005977644336e-01 6.6262295272166094e-01
      7.2373622753006073e-01 -2.3914378785334214e+00
      4.2906082730871309e-01 -4.9625491434970753e-01
      1.2820117434948306e+00 -1.7676990031720639e+00
      6.6514234486857193e-01 -1.1892658753827881e+00
      2.0580524666433568e+00 3.8981581729788767e-01
      -3.2023347220257109e-01 9.4042091483676393e-01
      -8.5093383634805356e-02 -1.5880208341539002e+00
      3.2505203483549012e+00 9.5865453342607543e-01
      -4.2802866873386819e-01 -5.3778411155957240e-01
      5.8029080086056462e-01 5.1253487332097669e-01
      -1.1007889560849080e+00 9.2574283891440456e-02
      -9.7447088294660211e-01 -1.0133119732110931e+00
      -3.5641588426350224e-01 1.4054594164534944e+00
      -1.0707176349459100e+00 7.8119920329289838e-01
      -5.7336828295706910e-01 -3.5941759402909035e-01
      2.3459214458141465e-02 2.8043844924689181e-02
      -1.1050412833972687e+00 1.5438293278604269e+00
      1.1306717022445230e+00 2.7412678615102082e-01
      1.3826767636449960e-01 1.0586747878675835e+00
      -1.5482034831977754e-02 3.0732446445774442e-01
      3.2139864416505365e-01 -9.2872854607345678e-01
      1.4612099914028636e+00 1.9825411989833641e+00
      -9.3353544235708108e-01 -1.2678877117019902e-01
      9.5566339643695886e-01 -1.2307084179300919e-01
      -9.8352958957418579e-01 -3.3653339386814174e-01
      1.1423922298529781e+00 -9.9177737391065834e-01
      5.9434402616255355e-01 -1.6663440269810881e-01
      -1.5080640236922213e-01 -3.8428969231891483e+00
      -3.4148266696836865e-01 -3.8754557767458702e-03
      -1.5344683279460971e+00 -8.0087381766364973e-01
      2.6899196226501414e+00 2.3345375429731230e+00
      2.0824409448899770e+00 3.6734335482006786e-01
      2.6667768126418312e-01 8.4888718738309454e-01
      -1.9958063910055859e+00 3.6892133960997797e-01
      5.2794910866006151e-01 3.2440911760187824e-01
      -1.3625167582504061e+00 2.6318457190938299e-01
      -1.2597044256841505e+00 2.2079489621624209e+00
      -4.9681943981269805e-01 -4.0274489668964791e-01
      1.0485493407524493e+00 7.8912267600560179e-02
      -2.6748167521269335e+00 2.4368114104264538e+00
      1.1898657055390447e+00 -1.1359600878414802e+00
      -7.1440424030997929e-01 3.3354577077530018e-01
      1.2894712535512903e-01 2.3386978614994317e-01
      1.0027796787159744e+00 -6.9907876884457276e-01
      -1.5513816251259838e+00 -4.9518629658106977e-01
      1.1862867499341381e+00 -2.4415782208851087e+00
      9.1751991605923411e-01 -1.3281273594369192e+00
      -8.2984627085789286e-01 -6.2552406571582508e-01
      -1.9458524581798067e-01 1.0581949099352390e+00
      1.1313488034445101e+00 2.4019127680305830e-01
      7.0763506273381505e-01 -8.5168925796533235e-02
      2.2463604010416879e-01 6.6019989652196387e-01
      -4.7493697638631627e-01 4.1036162153516204e-01
      -6.3597209494926676e-01 1.8857769424382662e-01
      1.1777380175574688e+00 -4.3604118796655805e-01
      7.5372324602197227e-01 5.3824944893744298e-01
      2.1037270371626784e-01 4.7449134040915086e-01
      5.9509758748479324e-01 -1.6701638023356208e-01
      -1.2903828001815343e+00 -2.0644780765225448e-01
      -1.0097743701822701e+00 -1.3058675035469109e+00
      -1.8566621088787343e+00 -1.2953713070462660e+00
      -1.4050698535751483e-02 -3.5117541656881129e-01
      -6.8732222921246588e-01 2.3411312901178580e+00
      2.1282624839839750e+00 1.2460590883132949e+00
      -8.5154053650281980e-01 1.5456028493411376e-02
      4.5479724102833624e-01 -1.5354277222995534e+00
      1.2778188224654957e-01 3.5197862321297202e-01
      -1.8727599225121597e-01 -2.1698665444342088e-01
      5.9421633544485359e-04 -1.5522818036739134e+00
      1.2198913461903513e+00 -7.9669667955046131e-01
      -5.9246911777176413e-02 1.1116124998329411e+00
      -8.3450892414361177e-01 -2.1629669658523749e+00
      2.0675079356724879e+00 1.3132371366919611e+00
      -1.2458507138395472e+00 -4.0276494577258576e-01
      7.2182610144108672e-01 3.4693215825975676e-01
      5.9941307382471887e-01 4.6299827315961334e-01
      -2.0906776981210123e-01 -1.3096278786890472e+00
      -1.3104452944988194e+00 1.1620770056452467e+00
      -2.6468064534795301e+00 -3.5914220878343073e-01
      -1.0958836185310976e+00 -1.7885651119139812e+00
      4.5151832243769278e-02 -5.8323031387619313e-03
      1.0978066026767523e+00 -8.9151243860799123e-01
      1.1447116638847699e+00 -4.0297185012800119e-01
      -1.7354145308642127e-01 6.5281992555010515e-01
      -5.6208478295799724e-01 -1.2539655937202843e+00
      1.3436947571423696e-01 -4.8298949178376543e-01
      -1.0284970599486212e-02 1.0015027770137419e+00
      2.9059887301223514e-01 1.8018433420115569e+00
      2.4873672914982192e-01 -9.6944986852355819e-01
      -1.7851983002922514e-01 -1.5131784692801056e-01
      3.3967193339695917e-01 -8.9332194826768840e-01
      -2.7818595318545408e-01 9.8678829207847193e-02
      1.1693482708120014e-02 1.9877547029952438e+00
      -9.0816856505603372e-01 -3.7293994175315320e-01
      -7.3479923397644420e-01 -9.0097701683720336e-03
      8.3210664681423963e-01 1.6582254750235181e+00
      7.1363797607331991e-01 -6.5785346671489675e-01
      -9.3960393223017014e-01 -4.1611838968036302e-02
      -1.6218834566552878e-01 -2.8689125970624307e-01
      -1.8756981218476618e-01 -8.9821372428073920e-01
      -2.8862237813275066e-01 -1.2521877597281272e+00
      -1.2624600293077002e+00 7.6547330669520838e-02
      1.3493693176105984e-01 -1.7589678404746683e+00
      8.0645652697703185e-01 8.2113762906963511e-02
      -8.0555643467466376e-01 5.9585118719284624e-01
      1.4310706098187989e+00 -2.7049983720576026e-01
      -1.5405275906520105e-01 4.9796349924298072e-01
      -5.0933345475503533e-01 -3.2815347883459667e-01
      -2.3317573575630071e-01 7.8470799661257029e-01
      -4.1576499368648384e-01 -6.5266398773544443e-01
      1.3779264233411295e+00 -1.1004206330672102e+00
      -6.7817051821673535e-01 -2.0744447294482282e+00
      -2.0124062129184033e+00 -5.3897859514200697e-01
      -9.5530007225918243e-02 -1.3922412833936781e+00
      3.6042233522872569e-01 1.9709623236275557e+00
      -7.3546150376937047e-01 1.7167605716258288e-02
      6.4805826614336415e-01 -6.9705992917585391e-01
      -1.3246055309001226e+00 -2.8200900867323997e-01
      -1.3057516443360391e+00 1.7122239198735817e-01
      5.0108870007551054e-01 -1.0064448211128254e+00
      2.6644162582111388e+00 1.6357972006778568e-01
      -2.9060232282391368e-01 1.8613570444022808e-02
      -1.3436526083372682e+00 -4.4862732215291190e-02
      1.2071135997715678e+00 7.6545521896697966e-01
      -1.6584984204590059e-01 -6.7384167729400879e-01
      1.3223215963137143e+00 -1.7025332531874138e+00
      1.4460390683093555e-01 -1.6941713257526201e+00
      8.6185653926057582e-01 4.6782135657416568e-01
      1.1205721779934281e+00 8.4515287525203853e-01
      -5.0445417359082978e-01 -1.3106269804078283e+00
      -5.7060688724510455e-01 4.5787594784085384e-01
      5.3944801369411467e-02 -6.4279533763171548e-01
      -6.6459121461193105e-01 -8.7154046315545963e-01
      -7.8970864157566867e-01 -1.1608532909298019e+00
      -2.2253476769829234e-01 2.4661898155682884e+00
      -8.7947549710961659e-01 -2.1531366666374771e-01
      1.0738485882226936e+00 1.2054769335470045e-01
      2.1548710472817891e-02 7.0806420765831923e-01
      -5.8127219259798946e-01 6.7960503052477295e-01
      1.1575598677582160e+00 4.4076899617025583e-01
      -1.1454884730156265e+00 -9.2607323242834605e-01
      7.6789902668949150e-01 -5.5861619259779127e-01
      -1.6545911633228813e-01 9.4343657733994479e-01
      -1.6248069182186002e+00 -2.6090401280603786e-02
      -1.6991662567392551e+00 -7.7949938693012100e-01
      -2.5786296470825426e-01 -5.1875722118908861e-02
      -8.7069161763590863e-01 -7.8196789661269084e-01
      2.1521887314733350e+00 -9.1597241457873546e-01
      1.4518057064443260e-01 4.4519903308674524e-01
      -6.0650335082637807e-01 -1.3714872753320528e+00
      -8.9295174238713304e-01 -1.3177076266270913e+00
      5.4552267945904376e-01 7.7361250216871769e-01
      -6.6008230896086273e-01 2.6039270384681643e+00
      -4.7759523733213549e-01 3.6639042969102847e-01
      4.5053044110407814e-01 -1.5473748123687563e+00
      -4.2331205407399791e-01 3.2408304240729724e-01
      9.3467986566913097e-01 -3.9547462379017861e-01
      -1.5455927026218443e+00 1.4171821614152906e+00
      -2.0943448647400453e+00 -3.8080972458072557e-02
      -8.9206441689477090e-01 2.1868446691689098e+00
      -5.8881975470993142e-01 1.9911532305619023e-01
      2.3122190789416372e-01 6.1884136819041302e-01
      -7.3245507348777172e-01 -7.2626127472397128e-01
      1.6709071864905385e+00 -8.6327549709628623e-02
      -1.1166767282230674e+00 -5.7037707655786829e-01
      -2.8028590164076322e-01 -5.9273999988798076e-01
      -8.6659259650606579e-01 -8.1351647413649475e-02
      2.8073871681993325e+00 -1.0614573766515836e+00
      -1.0349148855190711e+00 1.3996121518834006e+00
      1.1693399405051774e+00 3.4588635012987069e-02
      1.2761070200996520e+00 -8.9735602425889649e-01
      -3.2714096484295463e-01 8.0442056328507594e-01
      2.3217996486224793e-01 -1.5099099733394974e+00
      -1.2959733382367848e+00 1.2444314737367701e+00
      -8.2754566238995775e-01 -5.7873784896494629e-01
      1.3819217748920587e+00 -5.0650899358324197e-01
      -1.0438019819101736e+00 -1.0448756262945744e+00
      -4.0672368155662447e-01 -8.4261467297883896e-01
      -1.9761069215481902e-01 -1.4866505933635861e+00
      2.9131335383912121e-01 7.6107548793185653e-01
      -9.4491419273272359e-01 -7.6638728040578571e-02
      8.0712135120329198e-01 -6.0343717503094307e-02
      -1.6856064593178322e+00 -1.4809045806435284e+00
      -1.9510760754354414e-01 1.0428153997605989e+00
      -5.5344066160327299e-01 -9.1948265730790246e-01
      2.0904845160772130e+00 5.8365814545430061e-01
      -2.9148734172876650e-01 9.4106464354181130e-02
      -1.9297473818160809e+00 -8.3261762283672969e-01
      3.0439025952067084e-01 1.4544683114934771e+00
      4.0087020822049751e-01 -1.6437776007880902e+00
      7.0608884263642058e-01 -1.4656874747969648e+00
      1.4844830468434134e-01 -3.8810835082452827e-01
      2.7254300218144287e+00 -1.9497976927955016e+00
      -1.1129881049386965e+00 1.0769589028691534e-01
      -2.2459156853394355e-01 -3.7255742822407961e-01
      -7.2673016420645198e-01 1.9387595878148152e+00
      -1.0826946977770777e+00 -4.4080178447842283e-01
      3.3065531202895238e-01 1.1211064979274450e+00
      -4.0202191353459940e-02 -7.1745959404289195e-01
      1.2238145137377933e-01 3.2386857512347480e+00
      -3.8637199180158677e-01 -1.3272437071206731e+00
      1.4641123419939017e+00 1.7270696333131872e+00
      -2.1755018823312819e+00 1.0654678309073518e+00
      -4.4704314048762611e-01 4.5053097664487646e-01
      -1.6607678727702360e-01 -3.7783712991838336e-01
      -6.2479895902345950e-01 -1.0339900515509612e+00
      1.5969559152279471e+00 -7.1055729312794325e-01
      4.2415922164979079e-03 1.9712611035693584e+00
      -8.6824528426600422e-01 -8.6565070838547409e-01
      -6.4411603018336427e-01 8.0704818238284770e-01
      -4.0976285169952409e-01 1.4662557751911648e-01
      -1.8525308138198482e+00 -6.7221544812588607e-01
      3.9299347147638647e-01 -1.1729800578546978e+00
      1.3328181796590116e-01 6.5415330579054431e-01
      -1.3566384324161644e+00 -2.0739576622220395e+00
      -5.2556455301664040e-01 -7.3112132823290132e-01
      1.3353875570625122e+00 -1.1190153210178810e+00
      -1.0698746928386609e+00 2.0436487037578428e+00
      6.4929221968360584e-01 -7.3016520359084780e-01
      5.5357869952495739e-02 -1.7095419684735518e+00
      -7.3521845322145996e-01 1.6423449854550567e-01
      9.3296367495173538e-01 6.1483865634212975e-01
      -2.6385780705739474e+00 -6.5646372551016308e-01
      -1.0260737003068379e+00 2.6291451704351456e-02
      -3.6432666429268767e-01 1.2617470822515926e+00
      -1.3952778740852487e+00 -8.0209034962918413e-01
      8.3548118596275001e-01 2.9105426937995149e-01
      -1.5883668432232162e-01 -6.5113792757099398e-01
      7.1650326008715237e-01 -8.9684800432517842e-01
      -5.7717852761284338e-01 8.3630785369060190e-01
      5.9474048432555549e-01 6.0688088590080580e-01
      2.1030416284656495e-01 -9.5428175916867397e-01
      2.1406298196561608e+00 -6.4649018160171112e-01
      -1.4180359079934222e+00 1.1077866617405421e+00
      1.0049727684783878e+00 -2.3373775869484330e+00
      3.1487331719761513e-01 -4.4060418141972191e-01
      3.4419561612551552e-01 -8.6745092438758928e-02
      -4.5431288968393456e-02 -1.3956851039746734e-01
      -1.3174419552255201e+00 9.9715377518082982e-01
      -6.1072849858673384e-01 -2.1622786084585274e-01
      4.6369202499848150e-01 4.9094313770979886e-01
      5.8459312723300771e-01 -1.7390886574676029e-01
      1.0752678610537850e-01 -1.2118409515712454e-01
      2.0140581342360600e-01 -1.7448799177947980e+00
      3.2993013753739026e-01 6.0251135947952650e-01
      6.2660234546658855e-01 4.7582928246143202e-01
      -1.6739777585444052e-01 -8.8852894392704862e-01
      -1.2159059297696835e+00 -9.5075450027376052e-01
      7.6948931924973415e-02 2.0126735734592107e+00
      -1.6929521745381000e+00 2.8814008139819264e-01
      8.6276847707114912e-01 9.8773783344505417e-01
      -4.4618597919755260e-01 -2.3430686808638618e-01
      -1.6607863437682429e+00 -1.7495808065562961e+00
      5.8191624701908928e-01 1.1950616202599260e+00
      8.9767986412905176e-01 -2.4212904358626188e+00
      -3.4336395420352478e-01 -2.2647129922902379e-01
      -2.0515318459397877e-01 2.4015182185502315e-01
      8.7748523668421952e-01 -1.0294546775531357e+00
      -8.2911442286840786e-01 6.6842860584973307e-01
      9.5177069848871143e-01 -1.0281291416050253e+00
      -8.4910251880336085e-01 -2.4885994099436731e-01
      -4.3776941789618112e-01 -1.1983430951899858e+00
      9.8485821370645610e-01 8.8144911069719167e-01
      1.0287866230281013e+00 3.9881238065861857e-01
      -1.0441321507139787e+00 -4.0890484462282761e-01
      -8.9195856060074019e-01 -1.2886071714365130e+00
      9.5621215878138099e-01 -1.0383157465577482e+00
      -2.4763767403746351e+00 -2.5806956302118605e-01
      -4.5126579871686640e-01 7.4296690098524309e-01
      -3.7750229115108125e-01 5.4337860872875043e-01
      -3.4240779486330891e-01 2.6199257455747482e-01
      1.8124042779328084e+00 4.4226823764822898e-02
      4.8904585698380555e-03 -7.4065799625348250e-01
      1.1000095465810305e+00 1.5412035729706863e+00
      -6.0166225608042312e-01 2.9643116319090229e-01
      8.1046193716120901e-02 6.8093200293386488e-02
      -2.4327560114287174e+00 -4.4456447943045313e-01
      7.5245128511476411e-01 1.2413065528839808e+00
      -5.1104000484100007e-02 -1.8592902890430743e-01
      9.0665607063321108e-01 6.3742841416731821e-01
      -3.8557010131637343e-02 -4.0120294770605525e-02
      2.0870509191973747e+00 -1.3857846972639067e+00
      1.4152448506778598e-01 2.0795859685207026e-02
      -6.3641637959190522e-01 5.3309174556538635e-02
      8.3745590476480825e-01 -6.0111202319079193e-01
      -2.1561127056666538e+00 1.3854300105490669e+00
      2.5588715176409982e-01 1.7440085004843731e+00
      -1.4846732687723621e-01 1.4130482521010612e+00
      -1.7277483683053392e+00 4.4635173695705903e-02
      -2.0502834028513631e-01 1.1620892496882876e-02
      -2.1587476841927283e-01 -6.6649473231018230e-01
      -5.6093150430894645e-01 -1.0305504509468228e+00
      -7.8055034428208325e-01 -1.7175353097144597e-01
      -7.2637630497566597e-01 5.5491687537248779e-01
      -6.4021230886585390e-01 1.6662346708217692e+00
      9.9347548335098446e-01 1.1798728488838008e+00
      2.0049191052163415e+00 -6.0447403766501018e-01
      -1.0319563756109198e+00 1.0585484765397044e+00
      -8.6856764430619782e-01 1.1003536103563982e+00
      -1.0342415023091167e+00 -2.4206976923939560e+00
      -1.2577086089131964e+00 -8.3776061605349095e-01
      8.1965305096787378e-01 -2.0354331762673844e-01
      1.3335870108331982e+00 7.6277013498872182e-01
      1.4313770213698778e+00 2.5156590259273943e+00
      2.1748209222724957e+00 8.4331670722635488e-01
      -2.1682266814781701e+00 1.0401841607445594e+00
      2.7740868426506600e+00 -1.0849329683646038e+00
      1.3918726769161343e+00 -5.8254243770843772e-01
      -1.6478690257105122e-01 -5.7389717408988256e-03
      -1.1519426500537149e+00 5.9295404208056324e-01
      -7.8873843369632560e-02 -1.3749463521594887e-01
      2.0787378047575378e-01 2.0254717715044421e+00
      2.9136695901617204e-01 -1.1688583458442083e+00
      1.2368160414435947e+00 -1.3876029072527615e-01
      -2.8385000549363421e-01 2.1625229596799797e-01
      -1.1141980956425048e+00 -1.2363818822089636e+00
      8.5794875186418063e-01 5.0563232099278899e-01
      5.5652420591591012e-01 -3.6056400149174506e+00
      1.3174538688252188e-01 3.1031743553575181e-01
      2.0689073233868709e+00 7.8478663460194031e-01
      2.6712683616185084e-01 -9.3697442590667779e-01
      1.6318413717505786e-01 1.3743850712382331e+00
      3.7136287783099103e-01 -9.7971189171462092e-01
      -4.7261015891234909e-01 -1.2149779119429330e-01
      -3.2426108679586391e-01 -4.0463685930571869e-01
      -3.4108986290132914e-01 -2.0660022752905158e-01
      5.2875018163440013e-01 -1.8113107716659076e+00
      -2.4908096631759802e-01 8.5775313120567342e-01
      3.3771861091747518e-01 1.2918952241084585e+00
      -1.5312004919196502e+00 -9.6083737632006228e-01
      1.4289463208603665e+00 -1.2615983991237802e+00
      3.2360387140408897e-01 1.7931835365655062e+00
      -2.7277382217419994e+00 -1.1562634990345655e+00
      1.6163180415390088e-01 -1.6862480701940027e-01
      -9.1614823176185822e-01 3.1640296596637135e-01
      6.3780454388991534e-02 1.9743152544548648e+00
      2.1852667272254771e+00 2.4914608036129300e+00
      6.9967216159984136e-02 -9.3375004752845370e-01
      6.3647672293530844e-01 9.2345451836260695e-01
      -3.6486068512313918e-01 3.7389318710930042e-01
      -8.8943675235215836e-01 -1.6346473251925420e-01
      2.9247489221691197e-01 -6.6065262992294826e-01
      -5.6517526494114276e-02 3.5051342777093299e-02
      -1.4316215623672351e-01 2.6146562569892662e-01
      1.9324312973047648e+00 4.7823743596539398e-01
      -1.3498974760711566e+00 1.1496717314229308e+00
      -6.0762013948205462e-01 7.5044802642333663e-01
      -4.6549991762253257e-01 -9.7506013944893488e-01
      -1.1434908217892217e+00 1.5508001584807694e+00
      8.7845088512544545e-01 4.6261100614788969e-01
      -3.1247989616901557e+00 -8.7424815821758664e-02
      9.3293019400685095e-01 7.6054974365255534e-01
      4.1141594522403735e-01 3.9133967086144938e-01
      7.9382596410943007e-01 -1.9891315631978856e-01
      1.3941669509276640e+00 -3.5639913592332118e-01
      -1.6320566650825574e-01 3.8014951542789016e-01
      -4.4080967372627589e-01 -2.4088785213142574e-01
      -1.4862366145583559e+00 -2.0937160164128088e-01
      1.8728712276252774e-01 4.0543940846385879e-01
      -6.0228378676197347e-01 -4.9968872510132094e-02
      7.7005106183435990e-01 -1.1547943422465881e+00
      6.8159872815633704e-01 -6.3732005225930355e-01
      8.2726829525771040e-02 7.3178395035711485e-01
      -1.2162127676735091e+00 7.7409172548993429e-03
      -6.3433536595818879e-02 -1.4671728789991725e+00
      -1.1850986989542092e+00 -2.7559354768196709e-01
      3.1283052569745684e-01 -7.0872609737061110e-01
      -6.4581817565896704e-01 -4.0474651962298791e-01
      5.9731270509772660e-01 7.3062506530324978e-01
      1.5950723905236659e+00 -8.6352862029797328e-01
      -5.7933718062941164e-01 4.4066252358952240e-01
      2.7960266197730088e-01 -3.3736513736470874e-01
      -3.6530927321262979e-02 9.2911267961981714e-01
      -2.2470019048401829e-01 8.8528622436153101e-02
      6.4507433926006852e-01 1.9196085793784497e-03
      -9.3457326531058715e-01 -2.8921986308069203e-01
      -7.4778600399529382e-01 6.0763526751538080e-02
      -6.3890004896877106e-01 -2.1923854407210383e-01
      -3.6491699009959517e+00 1.8220363506497852e+00
      2.7135185262609954e-02 3.6385834322894093e+00
      -1.0592463031913661e+00 -2.8437485006670388e-01
      -8.6284171530388698e-02 9.9019774206903097e-02
      -4.8951456643951481e+00 -8.4151652831896914e-04
      5.3195207655875332e-01 -6.4397332710594202e-01
      -1.2088720134886415e+00 -4.9627064280304750e-01
      7.8067405879734264e-01 3.8467835156931960e+00
      -4.8998117298417726e-01 6.4927021063146129e-02
      -9.2996283476463637e-01 4.8839949337726313e-01
      -4.8544104600459756e-02 1.6330656267792339e-03
      2.2259653749878048e+00 1.4417147275801361e+00
      -1.9515178085974305e-02 5.9420971979747800e-02
      -3.6851258944122209e-02 2.1039009008443738e-01
      9.8956084741481801e-04 5.6913562270570948e-02
      1.8119897334736804e-01 -5.8995183587891513e-02
      -7.5670460726443664e-02 -1.9453887322147740e+00
      1.3440141845009333e-02 -5.0037087985547873e-02
      -1.2494159621633072e-01 -6.3478421513124175e-02
      1.7788849936998186e+00 -5.8617516534776939e-02
      -1.6197757199514311e+00 -1.2171750905323035e+00
      -4.7105497151629494e-01 -2.1748968620396850e-01
      9.7485134720785536e-03 2.7582215685681427e-01
      7.8960156542357621e-02 -1.6405904858176628e+00
      9.0365118560196467e-01 -2.8626836627601360e-01
      -2.4843414343076555e-03 -3.9606687154227225e-03
      -3.1043953705689967e-02 -3.2617946227882317e+00
      3.5503430483045628e-01 -1.0150535445855444e-01
      -1.2243596408313501e-01 8.0249530109685985e-01
      3.2320112976575838e-01 1.2199050484733640e+00
      2.0039615213319703e-01 -8.2421805937384532e-02
      5.4923114252644556e-01 1.6362255725536456e+00
      -3.9483777910294802e-02 -1.9655664664744759e+00
      -4.1738500863492727e-02 1.5048871966542217e+00
      -2.4502875318318220e+00 3.9892385955825539e-02
      -8.7793939668202958e-01 1.2447563827921004e+00
      -9.8201806336925512e-01 1.5789892363849958e-01
      1.1214445038852685e+00 5.1445502307156643e-01
      -2.5180828794241594e+00 -2.0853464450701482e+00
      1.5642833707938910e+00 1.0441258356418761e+00
      -2.7166810371761702e-01 1.2987411792881953e-01
      2.0866313627771979e-01 3.8293570338351934e-01
      3.8355574701947686e+00 9.8333068819421721e-01
      2.5030344922876313e-01 -3.6283649742921481e-01
      1.3524652111086735e+00 1.4991066578881174e+00
      -6.9333783510684199e-01 -8.4105075225047254e-01
      1.5162568276356316e+00 1.6910576226504976e+00
      -2.8477216867562377e-01 -2.1589523587000892e-01
      -9.0146022043602253e-02 6.8161476200150484e-01
      2.3935603733697100e-01 1.6078020185647576e-01
      -3.4775685962582670e-01 9.0529743365704396e-01
      -2.9223695951422428e+00 9.3129202491724961e-01
      1.2890168806517721e-01 5.3962051553683843e-01
      1.2312549216411375e+00 1.1282073894925271e+00
      -1.3775180092689889e+00 -1.0576018502660125e+00
      -8.7937019811699835e-01 -8.2841969960696971e-01
      -3.5442942662779753e-01 1.0396282614806232e+00
      -1.5021611131817054e+00 -1.2739093205436086e-01
      5.8573202708024341e-01 -1.2104060812974986e+00
      1.8697941257128345e-01 -2.2980117354034304e+00
      -7.5328498915374659e-02 -2.2766144180024250e+00
      1.8939408264723356e+00 -1.6738567629484349e+00
      -1.3604060323588247e+00 1.3328252772019325e-01
      -7.4015921073124835e-01 1.1528759354118259e+00
      2.2335320201598434e+00 1.1242461876679164e+00
      -9.7155226144673534e-01 -2.0274082294533399e-01
      -2.3347018440351081e-01 2.7543312220880312e+00
      -7.7827149871430690e-01 -1.5041974255529671e+00
      5.0447768839706848e+00 2.9348397152324881e+00
      1.2017312127561344e+00 -2.5853647203425800e-01
      -7.9536435761857183e-01 9.5384245794607614e-01
      -1.7266609513387159e+00 1.3000519290872090e+00
      -1.9879190541988916e+00 -1.8496727717428485e+00
      -8.7370071947702355e-02 -1.3730766982520277e+00
      7.5097211349148696e-01 -1.5290055500651709e+00
      -1.0865326705639300e+00 1.3200131454571792e-01
      2.3949617041327023e+00 6.0357276112942400e-02
      -9.0242121486240234e-01 -9.7354861382622782e-01
      1.5928420259665144e+00 2.7948083760006064e+00
      6.5243647018312034e-01 3.1256249037274736e-01
      2.7687752893079542e+00 2.7312332492761957e+00
      -1.4832244121324770e-01 1.6940841163986925e-01
      -7.8393631817208664e-01 7.3786238211913280e-01
      1.2441670694292675e+00 2.3162033443653751e+00
      -7.7585385623480319e-01 8.8964145994358229e-02
      5.8854495933258566e-01 -4.9813766575343958e+00
      -7.0595733580754605e-01 -9.1480804287233242e-01
      1.8708765466279867e-01 3.4662012495588501e-01
      2.7206292192477183e-01 -9.9509792836215402e-02
      -1.0832166347449221e+00 -1.5381456433864842e+00
      -1.1267611293989513e-01 4.4810331085944233e-01
      -7.3384172320399649e-02 -5.6616103755149860e-01
      6.5150043801159174e-01 -2.9084858634122429e-01
      1.3352008991401925e+00 1.2893731210468540e-01
      -1.9112477112721879e-01 -9.9070971617611225e-01
      -2.3311586798306544e-01 -4.1056424244069932e-02
      1.0426284037115827e+00 -1.8897891532484552e+00
      -1.2389393081354863e-01 2.5337688154299981e-01
      -1.3925479594914847e+00 2.5703609137374794e+00
      2.6683473299409921e-01 -3.3980520538997461e-01
      -8.0026625621922487e-01 -7.2041830450392552e-01
      1.1218639212409631e+00 7.3970769148860749e-01
      1.0050726840476056e+00 1.2846475816569767e+00
      -9.9697450964404211e-01 5.4513407455616891e-01
      -8.0633473723287408e-01 5.9394961706914362e-01
      1.1603300607855471e+00 1.3155064460969629e-01
      1.7342113486613178e-01 1.9427665680041331e-01
      -2.5358862282047374e-02 2.0421211675655830e+00
      -1.5092980924743880e+00 -1.0599226322021784e+00
      1.8236952441743817e+00 3.8310039436665921e-01
      5.6877926761556741e-01 -6.3219477672779989e-01
      2.5858928650881080e-01 1.5899452075645051e+00
      9.2713069426607886e-01 1.6100349683426407e+00
      -1.7385865628846526e+00 4.2936629644162477e-01
      -1.0621127800714188e-01 6.4994238269111937e-01
      -1.0200553357889461e+00 -1.3541575110178827e+00
      -9.0716180365044341e-01 1.4777067003423356e+00
      -6.5923860173923085e-02 5.7022113016505083e-01
      1.3332736156679159e+00 -3.4504085616119046e-01
      -1.2855565742380854e+00 -9.0760425600120986e-01
      -5.6133238431979919e-02 -1.1982018888011399e+00
      -5.3036244355397011e-01 4.5926789610320584e-01
      1.0036734180060991e+00 2.7449246475696718e+00
      -7.1693663472408431e-01 1.2034211792167349e+00
      1.2476939103030948e+00 1.3676238720074516e+00
      2.8395685331882108e+00 -2.3438755896980890e-01
      3.0610427991282942e+00 1.1235088574011334e-01
      7.8249065580329902e-02 5.3512827630770732e-01
      -7.7286760310674818e-01 -2.2143440897979474e-01
      6.0935653339372875e-01 -1.1438278355184786e-01
      -2.2619149981203321e+00 2.8118469128349655e-01
      -7.8758208370848914e-01 1.6669543481511940e-02
      -3.7528590438420839e-01 1.4705433296219697e-01
      1.1731303116733713e+00 -1.6863241488837222e-01
      6.8025709341330523e-02 -5.2128415072286471e-01
      8.7035054112877308e-01 -6.5573196343894316e-02
      5.6253811863460979e-01 -1.1518851057116752e+00
      2.6308368314010888e+00 1.4047513523683037e+00
      -2.9358081704814585e+00 -4.9724533000851036e-02
      -2.5631272140437839e-01 -7.3371237331969971e-02
      1.6938859375704329e-02 3.3560110079004973e-02
      -3.7572470378221351e-01 -9.9631494456996025e-02
      5.4897042791354766e-01 -1.8009983016796730e-01
      -1.1298930246566312e+00 -7.1819024169344492e-01
      -1.4152726686353292e+00 -3.2108132284900620e-01
      -6.7252257846547137e-01 -3.8631200043843399e-02
      5.8223200736184463e-02 -1.1196007135487169e+00
      -2.2538870005610034e-01 -3.3312753123298328e-01
      -9.8704780965369027e-02 -4.5732758695918702e-01
      1.3098860446332711e-01 3.4393693019328972e-02
      -6.9179373976743830e-01 1.5300249853525430e-01
      1.3103592038882454e-02 4.9805655898635992e-01
      -7.4688649206115276e-01 -1.4444831986830426e+00
      1.1853685290433866e+00 -2.5707955361232659e-02
      -1.8572734045135342e-01 -2.2630834467044165e+00
      -1.3891714638279904e-02 -2.4458296834293372e-01
      -4.9298422102416389e-02 2.6837424921272446e-02
      2.3957576178117460e-02 -2.6821544549140430e-02
      -2.0043090921720963e-02 1.8906353028815021e-02
      -7.9879851620216786e-03 -2.9384466344974568e-02
      -1.7010534531382519e-02 3.0257951797496491e-02
      1.9547668380609711e-02 -3.7206367048513980e-03
      3.2649084006069549e-02 -1.2549700820882831e-02
      2.2027853301848213e-02 2.5173966425761338e-02
      -5.9492413668341447e-03 7.6537364319964000e-03
      2.8779346007827795e-02 -1.3676273886313133e-02
      1.7062410267448529e-02 -2.4701470116840679e-02
      1.0349213399550613e-03 -1.8549364163964216e-02
      -1.7932758481440277e-03 -2.0528506780064602e-02
      2.7719119536705427e-02 -2.8321641879670748e-02
      -4.7442279088145177e-03 -5.5449333733097054e-04
      -7.2351175539557139e-03 1.7539268024908291e-02
      -1.1198549975332799e-02 -1.5561845143405337e-02
      1.6411409123914301e-02 -2.8125557904759825e-02
      6.6333641287473480e-03 2.8099826408276599e-04
      -3.8894430906690485e-03 1.2498282843271504e-02
      2.8260682800294510e-02 6.2898398474763471e-03
      -2.1915226622441063e-02 1.9251091826023938e-02
      -1.8778407807745146e-02 7.0068289390669046e-03
      -3.2081761512620106e-02 2.0974666535812602e-02
      1.8957399067253442e-02 2.5847159983104599e-02
      1.0541448611983337e-02 -2.1157739800985606e-02
      -2.4049598605598455e-02 -1.9686357218694252e-02
      1.9425735407825124e-02 -5.0154426720266775e-03
      -1.5083586001046530e-02 1.7858953623331154e-02
      2.8844781993596301e-03 -1.2097719311998026e-02
      -9.4901112079070690e-03 -9.0103207053903872e-03
      2.9413561943121428e-03 -8.5756129090241179e-03
      1.3049150128435391e-02 -3.1720762941216986e-02
      -4.2818534014708087e-01 -3.2694044983879350e-01
      8.4170242860907634e-04 -1.3686387294358484e+00
      -3.8362938639456431e-02 -4.9388640888685575e-01
      -1.5768933677499484e+00 5.3321997539779870e-02
      -8.4050453162149152e-01 1.8098841605406029e+00
      -1.5756025145935917e+00 -1.3846511307236051e+00
      -2.1592682583493321e+00 -1.6168766746692423e-01
      1.2161887911421574e+00 -2.3178270459488559e-01
      -2.7525161627893618e-01 1.0027615452225734e-01
      5.3711020559501921e-01 -1.1378238314350264e+00
      -2.5809690035693922e-01 3.9466700698029322e-01
      -8.8804971643186970e-01 -5.3251792257870323e-01
      5.8078211633972920e-01 -7.6779657620885233e-02
      -7.4312596517923990e-01 1.9880468014680613e-02
      1.2579451060658900e-01 1.1539539623935485e-01
      1.0977052232684141e+00 7.8902654535160122e-01
      -1.0354379227490776e-01 5.5942366791487697e-01
      1.5640460923186241e+00 -7.7085505099360219e-01
      1.4962183742706747e+00 -1.0898088943261008e+00
      1.5557648842799605e+00 4.8878856606449284e-01
      1.3681469140746666e-02 -1.1050697439347081e+00
      1.0151423811576863e+00 -1.6913507403511829e+00
      1.0653436105754872e+00 -1.0899351111971425e-01
      -1.3597207929936632e+00 -9.0372144726529613e-01
      1.7292080423887273e+00 1.1144484840547471e+00
      1.5215515502940862e+00 6.4693372413371142e-01
      -2.2263962650495167e-01 8.6290132970672428e-01
      -2.1301774138014409e-01 -1.4800492948308508e+00
      -2.3489850694745833e+00 -3.3768682765437025e-01
      -1.0385505923817770e+00 -3.4599062794940133e-01
      3.4150088508383553e-01 -8.2071026882157394e-01
      -1.4701772208190589e+00 1.3237116603109003e+00
      -9.9918665278673802e-01 2.4246758699721704e+00
      3.8862063967234284e+00 3.1145781377266726e-02
      -8.3704919997818006e-01 3.0436557388327015e+00
      -5.5851069961846123e-01 -9.9270152485276231e-01
      8.3504447542748786e-02 2.0845961836772964e+00
      -1.5405199792854378e+00 -2.5486428243326218e+00
      -5.8336090547170927e-01 -7.8844791467542186e-01
      5.0545921784692793e-01 -2.0039746922932684e+00
      -4.0767506524407537e-01 1.0594447357985001e-01
      4.3679575458776732e-01 6.2671119515744289e-01
      6.7962878702618768e-01 1.7835708828602375e+00
      -1.3743918610518513e-01 2.1702446396254338e+00
      -3.5684836696692319e-02 2.1713501302616653e-01
      -1.0530310095863400e+00 4.2064891977594669e+00
      2.5394131540495861e+00 -1.6074073689328824e-01
      1.2576587191521480e+00 9.1215318383417121e-02
      -2.2418299158507708e+00 -1.0506650607775729e+00
      -4.2573097110274311e-01 -2.2518439813280584e+00
      3.6339487201937454e-01 -7.9080599321248868e-01
      -1.4036711732054867e+00 -2.2759991446988197e+00
      -1.1366706720913080e+00 2.6238925939702851e+00
      2.6450725687183283e+00 -1.6701744064636106e+00
      8.6785235378054126e-01 1.7441346159082378e+00
      1.7804793678960122e+00 -1.0177298884254602e+00
      -1.9241675668960625e+00 6.5202546555173801e-01
      -1.2172280758403808e+00 1.2131674396585916e+00
      -1.7705743116413434e-02 1.1314086174691680e+00
      2.5262441539014224e+00 -1.1631593866892695e+00
      -1.3182438081606909e-01 1.3750493758446012e+00
      -6.5791343334063568e-01 -1.7444024329622829e+00
      2.7506355161661986e+00 -4.7819503341899811e-01
      -6.0477116370922213e-01 2.4568969351836993e+00
      -2.1894116405122954e+00 1.7371745806841918e+00
      -4.7415195027074954e+00 -4.5448909441769303e-01
      1.8675276290914478e-01 -6.7005954750666619e-02
      3.1655679114141315e+00 7.1364056755754535e-01
      2.3116453981234479e+00 2.4377248515560665e-01
      -3.9037998809472513e-01 1.5050161090370520e+00
      -3.5399955755844592e-01 3.4353979583749428e-01
      5.8951493210311201e-01 1.0802305331405204e+00
      1.8343072085213155e+00 -1.8937747966744272e+00
      5.3840344544142611e-02 1.9074792498286968e+00
      1.8117462842203742e+00 -1.3988576813134204e+00
      -7.8409591113135324e-01 9.2720110714985526e-01
      7.7079445529142010e-01 6.7441752000244481e-01
      -3.9492817207383926e+00 2.2435928415027040e+00
      -2.7744559596712185e-02 -2.6652729194986642e+00
      3.2650277275487888e-01 -2.8096007439068504e+00
      3.0688783452867791e-01 -1.2278169614721508e+00
      3.7347681836923535e-01 1.6544761315316998e+00
      4.3196553987973632e+00 6.3624929815934972e-01
      -4.4716018109910349e-01 -7.6653408402659895e-01
      3.5109125087024540e-01 1.3416752552412763e+00
      -2.0166371885810723e+00 -2.4978423801391192e-01
      -8.1496620636395578e-01 1.1818206762153498e+00
      1.4270272095240353e+00 -7.4926078116263195e-01
      -1.4318737022807688e+00 1.1921022121395604e+00
      2.0428139464596864e-01 -2.3101506663850708e+00
      -5.1518825871057983e-01 1.3265754476883085e+00
      9.6861095307553924e-01 -1.5902817030601850e+00
      3.9165722553011846e+00 -1.1530714509145963e+00
      -1.0623958330367220e+00 -3.0922459426089638e-01
      -8.0219701614512540e-01 -3.0841323741727411e+00
      1.8465004861916687e-01 8.9509840050617462e-01
      -1.2429983115959402e+00 2.2823742733426342e+00
      -2.2486078297664629e+00 1.5513367005376517e-02
      -6.2821926720879875e-03 -5.1697567085539336e-03
      1.3012634572125365e-03 6.0286935141351562e-03
      -1.8704671510690891e-02 2.2781650256817325e-02
      9.6827994959205708e-03 -1.2710362840096185e-02
      1.4325236862779424e-02 -1.3797449501749793e-02
      -6.4298432901091964e-03 -1.7538218892524694e-02
      2.8417672707072078e-03 -2.7701408770566156e-02
      -2.4461366134139319e-02 9.5137169996723382e-03
      -2.8667664512961443e-02 1.2164515956371568e-02
      1.2533517299747247e-02 9.2854180704002153e-03
      5.0562757426818612e-03 1.6442479321819945e-02
      5.1955602643032010e-03 -3.5916073131778002e-03
      3.1241482621934418e-02 -8.8908200461376154e-04
      1.8670151614732160e-02 1.3910467620825137e-02
      5.9514090432617598e-04 2.2812047375482303e-02
      9.3738318795403772e-03 -2.5441760345492042e-02
      -2.5474065814644679e-02 2.0058205381583330e-02
      2.6243796709312459e-02 -2.5998331628327764e-02
      1.8257240561068071e-03 -1.7509250287469295e-02
      -7.0954339909863572e-03 -4.4570637485858815e-03
      3.7611911085802235e-03 -1.0874042470857307e-02
      1.0929502327288700e-02 -2.6606664535407703e-02
      4.2185286641525229e-03 8.9405847132678646e-03
      1.9367708643476553e-03 1.8628933932840944e-02
      -2.1227906440844765e-02 1.5946001908834283e-02
      1.6352067354618281e-02 -1.3407248187075895e-02
      2.3056858075809115e-02 7.6289024369267603e-03
      3.0943364711931109e-02 -1.0350430272038467e-02
      -1.9937597558803522e-02 -7.0648652851739643e-03
      2.4206820578803252e-02 -3.1737670795863211e-02
      2.9707725814341123e-02 1.0687107477979577e-02
      5.4108157985813211e-03 -2.1964319604691534e-03
      1.0228265870993429e+00 4.5726627196682612e-01
      -1.7941544780151789e-01 9.8687261261066514e-02
      1.0607725287883125e+00 1.1907641527609329e+00
      -1.3048237717463931e-01 -3.4133449051097475e-01
      3.0364671096382106e-01 1.1764254285178868e+00
      -8.7646852266229619e-02 8.0287765122717143e-03
      7.5726374478954486e-02 6.5502566210924762e-01
      -1.1189928633781767e+00 -1.0636500269795883e-01
      1.1463464002587935e+00 -3.0133958928800775e-01
      -1.3836601388079886e-01 1.7906098954428624e+00
      -8.2120417245772043e-02 -1.7754538357284466e-01
      -3.0122806127052204e-01 5.8355175573294760e-01
      7.2349708347363018e-01 -6.4779620736977439e-01
      2.0824349603087774e-01 -1.6638944639013126e-01
      5.3574548205045147e-01 3.9824804866569952e-01
      -9.0768205631354437e-01 3.6147550382893924e-03
      1.0399380676638410e+00 -4.2317815418004551e-01
      -1.2389725614674155e-01 8.8742269910018257e-01
      -7.9539556635946140e-01 6.4903106141195266e-01
      5.0745734944903598e-01 3.4628399647243352e-01
      -7.3723682125935053e-02 -4.4527798999316864e-01
      -7.1791164448354539e-01 -3.0248734903743102e-01
      2.0101084865108534e-01 -7.6103111429643111e-01
      -5.2700826714418958e-01 2.6418952839034415e+00
      -1.2028459196353041e+00 -1.1481390835997728e-01
      -2.2978476429845497e-02 7.0441847826480319e-01
      2.8163398158751929e-01 -8.1921029275246623e-02
      7.9734145817867075e-01 -3.2911704514965695e-01
      -8.6830954794406334e-01 -3.3553748155137514e-01
      5.5157685279276170e-01 -6.3246183300584916e-02
      1.3269392733251265e-01 2.2972344683535906e-01
      2.1634520085811588e+00 1.1599561182182288e-02
      6.4794696557989973e-01 -2.3596493603934127e-01
      -7.7472429565474066e-02 -6.0621492081232790e-02
      -7.3301945988849670e-01 -1.6342908351381082e+00
      1.2745195363854567e+00 -1.1446703411176911e+00
      -8.9406769847432552e-02 -1.0273404825102182e-01
      1.0217709632800642e+00 -1.5059534805361150e+00
      -3.8425034860085988e-01 -2.7401418692055164e+00
      -1.5157937274560596e+00 1.6245120566666602e+00
      -4.9958366265460075e-01 -3.4100556613118416e-01
      1.9793765071925740e-01 7.2313019405422974e-01
      1.3998621720240518e+00 -1.2289587163390303e-01
      -4.1543043574075650e-02 -8.1014778451896019e-01
      1.8006760861870499e+00 2.0845864609763676e-01
      -2.3790741897125647e-01 9.6649915166742678e-02
      -1.8407120417918548e+00 2.8041274561646501e-01
      -8.7542273929380476e-01 5.8610883732955099e-01
      -1.4997570589919857e+00 1.4216288187237824e+00
      -5.2913136138157113e-01 5.7152955626642787e-01
      -5.9987502703396745e-01 1.2398450376915615e+00
      -1.0329141264672495e-01 1.1196984978115665e+00
      9.3622484816842899e-01 -3.6869081159475670e-01
      -2.3319850539923213e+00 -1.2312080494087692e+00
      -7.6092058105669025e-01 5.3672379274321047e-01
      -8.9862063083782429e-01 -2.1851321615516510e+00
      -7.2441260628211968e-01 1.6200516572044430e+00
      1.1312623814864095e-01 1.0332771532529594e+00
      1.0443862503820631e+00 -7.5456297408263345e-02
      3.5258839486397631e-01 1.2003788228351042e+00
      -4.8546013244593983e-01 -2.8523502958849281e+00
      -3.8642714865314781e-01 1.4686955630346216e-01
      -1.2948142505511540e-01 6.7082245234678844e-02
      -8.8347117067914738e-01 5.9438423559790321e-01
      6.2386621739959167e-02 -8.8673457258382715e-01
      9.9879514382221402e-01 3.9897424978820233e+00
      3.9587129196032793e-02 2.8226420957461840e+00
      2.6504211965205999e+00 -1.2830241268883409e+00
      -6.4127052969531906e-01 2.8214378424408576e-02
      2.4460539406208213e+00 1.3571464322358628e+00
      5.1874715289983220e-01 4.1522387003427663e-01
      1.2250013381365284e-01 -5.0246574099342012e-01
      -2.7438571676057242e-03 -2.4223852528118632e+00
      2.2433496607653103e+00 1.1510358872148960e+00
      -3.9690589998327902e-01 -8.1186047528958760e-01
      1.9090333973943985e+00 -1.1499814946641818e-01
      -1.0614466950636046e+00 -2.6586887517941822e+00
      3.8498355259171357e-01 -1.8789178608529002e+00
      -2.8626192557614907e+00 9.0854831535629810e-01
      6.6073102543147397e-02 2.0211559308361617e+00
      -1.5835285704621016e+00 5.0354193479201370e-01
      6.1568321865717646e-02 5.7657132940293299e-01
      -8.9020814496576839e-01 2.3111571709829186e+00
      4.8689670630574450e-01 -1.7689330552430687e+00
      -1.8071668691453555e+00 7.6449204100881174e-01
      3.3264452023356177e+00 2.3241085043946135e+00
      9.7331275271132056e-01 -1.5582316559043707e+00
      2.8480943355731561e+00 2.3012735959659945e+00
      2.2056015410950164e-01 8.8173712667285697e-01
      -1.7141430094831411e+00 -1.4686151541554333e+00
      1.5089260306223435e+00 -2.0207573720164528e-02
      1.1925148367421192e+00 5.9802264350200592e-02
      -7.0462797641853148e-01 -6.2958635297467525e-01
      2.1450393996325907e+00 1.8469756161615156e+00
      4.6371507460857792e-01 1.5925797449394469e-01
      7.0071036274147414e-01 1.7868950646762425e+00
      4.5458123443355043e-02 -6.2593565318309718e-01
      3.4963307724975851e-01 7.4932416609879049e-01
      7.1638134564995326e-01 8.3652298410766351e-02
      8.7341780691916260e-01 -3.1905417236760942e+00
      1.2239491910829554e+00 -2.8522880248584875e-01
      -1.1572943875270769e-01 -6.7287273582928564e-01
      1.4005954164894288e+00 -3.5443634704006388e-01
      -7.0936964334765906e-01 1.0581192151028077e-02
      9.4456192527856009e-01 2.0986416635600320e+00
      6.8538643726997883e-01 -1.8039749590647589e+00
      -1.1061026077896368e+00 -5.1815937233706877e-01
      9.7365552118329868e-01 3.4080532765662214e-01
      -4.8269634611986613e-02 7.4013864288422970e-01
      -8.6376438143191192e-01 -1.9522869180725702e+00
      -6.3866206882571608e-01 9.0420751629920004e-01
      -2.4778193649894455e+00 -3.4073999987365011e-01
      -3.8176826019239407e-01 -1.7036770785072166e+00
      1.6179091856907823e+00 1.6391695501369845e+00
      1.3756788503931072e+00 1.3325965660296770e+00
      -5.9509101564969558e-01 -1.9900180284060984e-01
      -1.5228076082930622e+00 7.3866580516241143e-01
      -1.0209332965723192e+00 -2.2312042811714052e+00
      -1.2043268623920356e+00 -4.3761164808507291e-01
      -1.4210386168789071e+00 -1.6529163345114950e+00
      -1.4811534478610928e+00 -1.1674156206448374e+00
      6.2771703506097221e-01 6.6163298364001910e-01
      -5.9266429230156660e-02 5.1471887668383653e-01
      1.2783878391792001e+00 3.1066504342596601e-01
      -2.7342514606957175e-01 1.1615771892557130e+00
      -6.6847119526089771e-01 2.0455758916846009e-01
      -1.2076856495446533e+00 -1.7287033461334376e+00
      2.7038426373168095e-01 5.1299772335128835e-01
      -5.3213871194560447e-01 -6.2207610914480349e-01
      2.8037608593168950e+00 -9.1167697678844084e-01
      -2.6984905243381038e-02 6.6481274697361937e-03
      -2.9117039979665298e-02 -1.1463228598342975e-02
      2.2685127742641416e-02 -2.3672208109122489e-02
      2.4552418280502718e-02 -1.1622567846351716e-02
      -2.3233622358722589e-02 2.2748012399672054e-02
      -1.9179028464986363e-02 -1.0866873141088211e-02
      -5.6261705943636536e-03 -2.3528347404687483e-02
      9.6997747894105018e-03 -2.0195867338863822e-02
      9.3687633100544455e-05 2.5863210698767146e-02
      2.0565298951591059e-02 -8.6514908785617767e-03
      -1.0533784556886234e-02 9.5407421226973450e-03
      -1.0113809800916999e-02 2.7521258458546027e-02
      -2.0766083312308909e-02 3.1734493291263273e-02
      1.1877846270849375e-02 -1.9895048152089735e-02
      -1.7336627528707075e-02 1.7417386559305512e-02
